tree
version=v3
num_class=1
num_tree_per_iteration=1
label_index=0
max_feature_idx=6
objective=binary sigmoid:1
feature_names=income loan_amount property_value loan_type tract_owner_occupied_units loan_purpose business_or_commercial_purpose
feature_infos=[-11000:21600] [5000:64965000] [5000:76635000] [1:4] [0:19529] [1:32] [1:2]
tree_sizes=3353 3400 3405 3403 3411 3444 3388 3410 3429 3406 3410 3431 3423 3396 3414 3420 3401 3434 3436 3423 3425 3428 3431 3411 3442 3414 3432 3417 3415 3380 3414 3431 3412 3424 3421 3434 3431 3447 3420 3434 3426 3419 3419 3438 3425 3422 3431 3404 3426 3427 3413 3420 3415 3449 3438 3431 3436 3422 3454 3425 3433 3440 3439 3444 3434 3406 3434 3453 3422 3446 3435 3436 3443 3436 3427 3436 3459 3443 3417 3456 3447 3397 3411 3411 3427 3442 3448 3439 3458 3416 3422 3419 3442 3439 3429 3450 3421 3438 3415 3455 3432 3435 3455 3405 3430 3418 3415 3467 3425 3435 3436 3440 3416 3416 3403 3439 3426 3428 3426 3428 3421 3418 3449 3444 3442 3426 3439 3447 3399 3405 3380 3417 3399 3432 3400 3438 3419 3412 3417 3445 3451 3418 3413 3442 3409 3435 3398 3441 3429 3450 3412 3405 3413 3391 3458 3446 3417 3438 3444 3418 3430 3417 3409 3409 3432 3409 3424 3403 3430 3420 3403 3450 3369 3352 3405 3415 3395 3352 3418 3387 3421 3364 3373 3426 3448 3406 3408 3434 3441 3397 3437 3414 3418 3442 3376 3457 3360 3383 3442 3430 3396 3412 3416 3409 3438 3408 3442 3424 3392 3395 3418 3427 3424 3444 3396 3419 3409 3408 3433 3376 3425 3384 3410 3413 3390 3367 3401 3384 3366 3362 3319 3421 3422 3399 3422 3380 3390 3419 3430 3389 3401 3418 3397 3421 3407 3419 3457 3433 3411 3438 3417 3416 3378 3370 3389 3420 3402 3372 3432 3403 3430 3401 3416 3451 3416 3483 3417 3389 3419 3404 3435 3448 3368 3366 3463 3373 3441 3445 3391 3449 3422 3401 3426 3449 3440 3468 3423 3373 3423 3438 3423 3453 3428 3372 3342 3435 3363 3428 3405 3415 3394 3405 3435 3394 3333 3398 3419 3403 3395 3361 3356 3360 3415 3387 3438 3391 3368 3362 3395 3343 3392 3384 3392 3421 3389 3424 3396 3386 3380 3385 3334 3402 3351 3407 3451 3373 3352 3391 3353 3354 3439 3401 3381 3391 3427 3442 3414 3400 3385 3369 3433 3342 3417 3366 3375 3433 3355 3390 3353 3384 3392 3409 3389 3371 3317 3402 3347 3437 3371 3399 3374 3447 3351 3412 3367 3361 3425 3404 3353 3397 3385 3356 3412 3417 3436 3438 3428 3417 3396 3392 3380 3386 3397 3374 3387 3366 3409 3359 3369 3317 3438 3368 3384 3415 3357 3400 3419 3344 3359 3362 3352 3373 3358 3368 3396 3345 3434 3397 3389 3357 3390 3385 3419 3406 3376 3433 3363 3433 3420 3374 3377 3381 3428 3400 3430 3359 3407 3381 3380 3357 3364 3401 3392 3433 3367 3421 3363 3355 3400 3406 3397 3420 3424 3371 3409 3397 3407 3382 3415 3395 3483 3364 3352 3436 3435 3334 3342 3364 3459 3472 3420 3413 3437 3371 3413 3393 3361 3408 3434 3426 3372 3342 3401 3331 3351 3350 3385 3354 3372 3354 3374 3334 3352 3347 3407 3320 3350 3354 3349 3350 3387 3400 3378 3408 3448 3425 3372 3368 3425 3357 3354 3373 3370 3392 3388 3380 3389 3426 3412 3424 3321 3379 3433 3408 3403 3353 3361 3402 3354 3394 3449 3379 3342 3402 3394 3395 3318 3375 3373 3407 3367 3410 3303 3380 3395 3374 3426 3372 3371 3329 3366 3383 3344 3367 3388 3341 3398 3385 3329 3346 3367 3403 3446 3377 3452 3378 3342 3351 3395 3353 3370 3356 3347 3344 3415 3349 3332 3389 3317 3350 3389 3354 3380 3390 3419 3325 3395 3447 3329 3346 3425 3323 3452 3354 3367 3428 3327 3393 3383 3420 3460 3433 3415 3394 3367 3420 3392 3430 3372 3393 3352 3423 3427 3381 3431 3338 3370 3381 3409 3430 3377 3359 3409 3389 3406 3356 3379 3385 3435 3372 3440 3432 3400 3395 3415 3386 3379 3415 3404 3377 3344 3369 3368 3381 3365 3374 3401 3431 3382 3422 3400 3377 3353 3334 3391 3377 3383 3344 3394 3453 3386 3364 3358 3354 3379 3354 3358 3396 3360 3373 3390 3439 3389 3401 3389 3342 3370 3369 3363 3419 3404 3356 3411 3356 3373 3380 3391 3353 3421 3400 3430 3368 3398 3357 3370 3396 3410 3409 3365 3372 3417 3409 3422 3413 3404 3423 3451 3392 3360 3399 3426 3379 3424 3396 3397 3408 3408 3356 3429 3436 3443 3381 3392 3407 3383 3434 3355 3382 3364 3390 3340 3358 3337 3376 3381 3391 3378 3368 3377 3367 3410 3387 3412 3439 3408 3339 3380 3383 3413 3405 3406 3456 3369 3404 3410 3379 3427 3398 3391 3394 3440 3431 3412 3398 3422 3388 3436 3372 3461 3377 3385 3359 3406 3387 3415 3411 3436 3358 3348 3360 3427 3380 3387 3372 3409 3417 3366 3342 3400 3433 3450 3346 3387 3385 3384 3408 3354 3351 3370 3361 3416 3453 3433 3416 3371 3395 3398 3415 3381 3386 3406 3389 3407 3418 3388 3407 3378 3422 3406 3387 3433 3433 3426 3432 3390 3432 3390 3382 3379 3381 3402 3399 3351 3419 3411 3394 3403 3424 3374 3376 3367 3421 3399 3407 3405 3376 3379

Tree=0
num_leaves=31
num_cat=0
split_feature=5 3 5 0 0 0 0 3 0 5 0 0 5 5 0 0 3 5 0 0 3 0 3 0 0 0 0 0 5 0
split_gain=72269.9 49458 17456.3 8047.87 5727.14 2228.02 1887.51 1396.38 1214.26 899.858 854.265 940.077 726.362 636.695 588.077 365.573 361.036 389.031 251.761 194.901 144.579 142.368 130.6 121.901 121.081 116.637 115.62 90.0611 87.5781 59.7905
threshold=1.5000000000000002 1.5000000000000002 4.5000000000000009 500.50000000000006 293.50000000000006 42.500000000000007 22.500000000000004 1.5000000000000002 1053.5000000000002 4.5000000000000009 37.500000000000007 179.50000000000003 18.000000000000004 18.000000000000004 289.50000000000006 24.500000000000004 2.5000000000000004 18.000000000000004 62.500000000000007 12.500000000000002 2.5000000000000004 425.50000000000006 1.5000000000000002 47.500000000000007 134.50000000000003 175.50000000000003 229.50000000000003 32.500000000000007 31.500000000000004 438.50000000000006
decision_type=2 2 2 8 8 10 10 2 8 2 10 10 2 2 10 10 2 2 10 10 2 10 2 10 10 10 10 10 2 10
left_child=4 2 -2 16 6 13 19 10 21 -5 27 23 -11 -4 18 -15 17 -3 -7 -1 -9 -6 -21 -12 -25 -20 -13 -8 -18 -16
right_child=1 3 5 9 8 14 7 20 -10 12 11 26 -14 15 29 -17 28 -19 25 22 -22 -23 -24 24 -26 -27 -28 -29 -30 -31
leaf_value=0.44595378506681976 0.44332649379886202 0.44011697191856691 0.65483872723963632 0.44945728911518523 0.54969703114748925 0.51040221286770648 0.54943391970183186 0.63611482263446939 0.45015899547503252 0.65483872723963632 0.5916129040884941 0.58397494547560735 0.54445433152764966 0.44836419155105089 0.49172044081493332 0.4841598806971385 0.43895705844355326 0.56026529604342012 0.52839311692620228 0.50220029084052453 0.61898082013448785 0.52037539472214212 0.58089327603802077 0.60660505423150801 0.59739312647320653 0.51399766692209381 0.5660677774156625 0.5742563492054672 0.4857910665055562 0.46518823076111065
leaf_weight=127.83937700092793 17847.743111103773 84.153176575899124 48.365170508623123 55.475254610180855 1087.0275978147984 3187.3667807579041 773.5449925661087 2329.432794302702 499.24942570924759 5459.9671297520399 1883.7017717510462 2433.0768149793148 153.21329109370708 1077.7648998051882 502.03697249293327 2109.0261895358562 123.28378142416477 337.89038041234016 9704.0614619851112 242.01078101992607 2611.4476671516895 668.602549508214 67.410428658127785 18637.109738901258 4411.4485303759575 1645.7437671124935 1431.884097263217 692.59282220900059 524.44590425491333 367.97016182541847
leaf_count=321 44404 207 210 141 3718 9804 2644 9732 1272 23707 7135 9053 517 2729 1462 6002 302 1187 31379 727 10518 2115 249 73042 16933 5114 5103 2518 1500 986
internal_value=0 -1.50199 -1.96164 0.987099 0.389791 -1.28489 0.487572 0.513219 -1.15577 1.46185 0.432746 0.470656 1.50146 -2.03933 -1.12647 -2.09398 -1.52858 -0.808888 -1.07868 -1.5773 1.00612 -0.764448 -1.14817 0.541793 0.561783 -1.00894 0.0117594 -0.311858 -1.99751 -1.92508
internal_weight=0 43228.5 36490.1 6738.43 37896.4 18642.3 35641.5 35204.2 2254.88 5668.66 30263.4 28797.2 5613.18 3235.16 15407.2 3186.79 1069.77 422.044 14537.2 437.261 4940.88 1755.63 309.421 24932.3 23048.6 11349.8 3864.96 1466.14 647.73 870.007
internal_count=274731 129651 102090 27561 145080 57686 137975 136678 7105 24365 116428 111266 24224 8941 48745 8731 3196 1394 46297 1297 20250 5833 976 97110 89975 36493 14156 5162 1802 2448
shrinkage=1


Tree=1
num_leaves=31
num_cat=0
split_feature=2 1 3 5 5 5 5 2 1 5 1 5 1 5 2 3 1 1 2 5 1 2 3 5 2 5 2 3 5 5
split_gain=80321.5 78363.4 29656.5 17911.2 9150.63 7552.98 7548.47 2214.26 1161.05 1050.84 1033.49 805.021 723.906 706.063 517.441 432.536 393.577 290.617 249.223 247.877 204.623 309.939 222.213 203.317 199.566 175.484 163.129 163.055 237.446 391.236
threshold=1000000.0000000001 110000.00000000001 1.5000000000000002 1.5000000000000002 4.5000000000000009 1.5000000000000002 18.000000000000004 2460000.0000000005 170000.00000000003 18.000000000000004 60000.000000000007 1.5000000000000002 460000.00000000006 4.5000000000000009 250000.00000000003 2.5000000000000004 460000.00000000006 30000.000000000004 210000.00000000003 4.5000000000000009 170000.00000000003 380000.00000000006 1.5000000000000002 18.000000000000004 350000.00000000006 31.500000000000004 150000.00000000003 2.5000000000000004 4.5000000000000009 31.500000000000004
decision_type=8 2 2 2 2 2 2 8 2 2 2 2 2 2 10 2 2 2 10 2 2 10 2 2 10 2 10 2 2 2
left_child=1 2 5 12 -5 10 -6 11 24 -4 17 -2 20 -7 -12 16 18 -1 -10 -13 21 22 -3 -15 -8 -20 -19 -9 -29 -30
right_child=7 3 9 4 6 13 8 27 15 -11 14 19 -14 23 -16 -17 -18 26 25 -21 -22 -23 -24 -25 -26 -27 -28 28 29 -31
leaf_value=-0.12864977130555397 -0.033399017480915796 0.0473990181768289 0.070136152876633356 -0.10510464266903581 0.07597629185257436 -0.12457252333720975 -0.035791520346131818 -0.13443750486059955 -0.08330439675276971 -0.073203884373183273 0.0081745455285797877 -0.11858582352233336 0.025707182725379529 0.07597629185257436 -0.070984592937160529 -0.065888481289809842 -0.04271155354543027 -0.038776586842679234 0.013602851044037601 -0.080335404658080103 0.06290608900232092 -0.017481152157390392 0.069072730948642566 -0.09700973137346254 -0.077232781534328873 -0.0027686197983186854 -0.09808618637288373 -0.14008452454373607 -0.024100301956277281 -0.13101766213921692
leaf_weight=183.44813843071461 645.79115451872349 3802.7142373323441 2823.7527417689562 2099.7791882902384 3077.3848366141319 13081.331560254097 2434.3286388516426 13936.951969459653 84.623793452978134 133.92576526105404 1435.8819189965725 827.22521984577179 1577.4327464401722 17.100332498550415 241.10699465870857 265.87415906786919 528.0252930521965 396.05534018576145 2528.9241107553244 867.94934710860252 20531.165567710996 155.30786675214767 1716.3964726179838 2541.7096182107925 329.87689009308815 4640.0929884761572 163.92133319377899 319.17583744227886 163.16589231789112 179.89936374127865
leaf_count=465 2160 15587 12371 5373 13677 31241 7917 33642 241 394 5366 2019 6152 76 736 786 1689 1315 9349 2482 87157 548 7455 6867 952 16484 461 788 552 429
internal_value=0 -0.0752904 -1.66238 0.686793 -0.156434 -2.14308 0.137714 -2.52094 -0.255596 1.27291 -0.499203 -1.61808 1.17206 -2.39748 -0.0641292 -0.0635385 -0.0206855 -1.48062 0.039992 -1.98002 1.21167 1.04358 1.08279 -1.91707 -0.814741 0.0601308 -1.12276 -2.66571 -2.1809 -1.60333
internal_weight=0 64790.2 21018.2 43771.9 15988.9 18060.6 13889.1 16940.2 10811.7 2957.68 2420.41 2340.97 27783 15640.1 1676.99 8047.54 7781.67 743.425 7253.64 1695.17 26205.6 5674.42 5519.11 2558.81 2764.21 7169.02 559.977 14599.2 662.241 343.065
internal_count=274731 232659 59292 173367 56468 46527 51095 42072 37418 12765 8343 6661 116899 38184 6102 28549 27763 2241 26074 4501 110747 23590 23042 6943 8869 25833 1776 35411 1769 981
shrinkage=0.05


Tree=2
num_leaves=31
num_cat=0
split_feature=5 5 5 1 1 1 1 1 1 1 6 1 1 1 1 4 5 1 1 1 4 1 1 1 4 4 1 1 1 1
split_gain=56489 30796.2 28484.6 7724.26 7138.37 3741.53 1468.2 1439.74 1220.37 663.215 324.844 301.471 281.669 278.841 264.909 240.548 198.082 144.652 131.231 112.523 87.8065 84.8261 70.7306 63.8385 60.5322 59.1446 49.1314 48.7759 46.8591 43.231
threshold=1.5000000000000002 4.5000000000000009 18.000000000000004 460000.00000000006 110000.00000000001 130000.00000000001 460000.00000000006 680000.00000000012 60000.000000000007 180000.00000000003 1.5000000000000002 690000.00000000012 90000.000000000015 130000.00000000001 40000.000000000007 764.50000000000011 31.500000000000004 110000.00000000001 80000.000000000015 1500000.0000000002 1475.5000000000002 330000.00000000006 110000.00000000001 510000.00000000006 1054.5000000000002 341.50000000000006 160000.00000000003 310000.00000000006 50000.000000000007 30000.000000000004
decision_type=2 2 2 2 2 2 2 2 2 2 2 2 2 2 2 2 2 2 2 2 2 2 2 2 2 2 2 2 2 2
left_child=3 17 -3 4 8 12 9 -5 14 26 -6 23 28 -12 29 25 21 -2 -10 -9 -17 24 -14 -8 -11 -15 -7 -18 -4 -1
right_child=1 2 5 7 10 6 11 19 18 16 13 -13 22 15 -16 20 27 -19 -20 -21 -22 -23 -24 -25 -26 -27 -28 -29 -30 -31
leaf_value=-0.12126039912131495 -0.11577194202694355 0.074163783660375515 -0.11589981716215628 -0.024826204361377373 -0.11915049556686946 -0.061577921927934147 -0.085027802137900579 -0.081883204595231851 -0.03608160278443158 -0.037655068642170317 0.01431580925611651 -0.10959668982599796 -0.089160906034121398 0.0087894233887016067 -0.060953127007557097 0.033670775609284997 -0.039503543626117216 -0.10493247104187556 -0.012518895949978121 -0.11918321197730959 0.039728633025364855 -0.0089322323431168301 -0.072655070127316299 -0.06059352254811709 -0.020863703334521019 0.026127894220519504 -0.049351487619972517 -0.030186344303799302 -0.10064061169458688 -0.090451048328038408
leaf_weight=295.92172282934189 15207.676058381796 5253.1812300831079 681.60830837488174 2275.2231270670891 34.677675068378448 2085.0387678444386 406.69972141087055 1266.2158874124289 859.99484033882618 804.84804549813271 1701.0408024042845 742.09613420069218 1376.7466050982475 580.25883841514587 682.19897021353245 10865.40014667809 4254.6221518963575 3858.8544963300228 1888.5955359190702 240.61387555301189 13308.535104259849 966.75585858523846 1227.9224143475294 779.98031437397003 1611.160444945097 3228.2184173464775 1356.0780549049377 2096.999631986022 1921.2886680066586 185.06671875715256
leaf_count=720 35436 23917 1641 7765 80 6137 1106 3557 2866 2583 6562 1823 3645 2208 2079 43976 13526 9394 6708 572 54643 3355 3489 2291 5422 12832 4162 6840 4884 512
internal_value=0 -1.3097 -0.592332 0.356314 0.508693 -1.12914 -0.87713 -0.998633 -0.76118 -0.757841 0.675845 -1.69199 -1.86008 0.679419 -1.61978 0.703315 -0.624446 -2.27156 -0.397827 -1.75679 0.740116 -0.428979 -1.62759 -1.37935 -0.529149 0.469724 -1.13519 -0.728549 -2.09273 -2.18812
internal_weight=0 44631.6 25565 37412 33629.9 20311.8 15104.3 3782.05 3911.78 13175.5 29718.1 1928.78 5207.57 29683.5 1163.19 27982.4 9734.39 19066.5 2748.59 1506.83 24173.9 3382.76 2604.67 1186.68 2416.01 3808.48 3441.12 6351.62 2602.9 480.988
internal_count=274731 129651 84821 145080 133186 60904 47245 11894 12885 42025 120301 5220 13659 120221 3311 113659 31726 44830 9574 4129 98619 11360 7134 3397 8005 15040 10299 20366 6525 1232
shrinkage=0.05


Tree=3
num_leaves=31
num_cat=0
split_feature=2 1 3 5 5 5 5 2 1 5 1 5 2 5 2 3 2 5 3 5 2 1 5 2 1 3 1 5 2 1
split_gain=67486.5 64022.8 23321.7 15320.2 7306.61 6236.05 5819.18 2023.44 938.818 880.358 806.157 650.296 600.37 572.239 456.942 378.584 321.51 304.932 249.439 287.192 221.739 217.202 187.559 172.348 167.897 257.576 161.887 156.99 152.802 142.027
threshold=1000000.0000000001 110000.00000000001 1.5000000000000002 1.5000000000000002 4.5000000000000009 18.000000000000004 1.5000000000000002 2460000.0000000005 170000.00000000003 18.000000000000004 60000.000000000007 1.5000000000000002 650000.00000000012 4.5000000000000009 250000.00000000003 2.5000000000000004 750000.00000000012 1.5000000000000002 2.5000000000000004 31.500000000000004 210000.00000000003 30000.000000000004 4.5000000000000009 350000.00000000006 170000.00000000003 1.5000000000000002 260000.00000000003 18.000000000000004 380000.00000000006 680000.00000000012
decision_type=8 2 2 2 2 2 2 8 2 2 2 2 10 2 10 2 10 2 2 2 10 2 2 10 2 2 2 2 10 2
left_child=1 2 6 12 -5 -6 10 11 23 -4 21 -2 24 -8 -12 16 20 -9 -19 -20 -10 -1 -13 -7 25 28 -14 -15 -3 -28
right_child=7 3 9 4 5 8 13 17 15 -11 14 22 26 27 -16 -17 -18 18 19 -21 -22 -23 -24 -25 -26 -27 29 -29 -30 -31
leaf_value=-0.10949777884143025 -0.028190798597663387 0.04463816922398417 0.066896399344196431 -0.091135497666452139 0.072354868578941509 -0.030123786744907011 -0.10805630118649834 -0.12796742535125005 -0.075158559527749441 -0.062151823747543203 0.0087489677534609202 -0.10310525176294283 -0.037671263094410018 0.072354868578941509 -0.064867864545748929 -0.059244176630557727 -0.03118144355392409 -0.11542982463544488 -0.02984823140535206 -0.11756681328118407 0.0049570828273549942 -0.048344738374634398 -0.070401303900103213 -0.068078650519453762 0.05975211066564149 0.066326771401139337 0.035429702182483064 -0.083645132439102779 -0.010579083759052935 -0.013321586310199897
leaf_weight=193.95310524106026 660.31166228652 3714.1798943579197 2706.0003462582827 2174.9218089282513 2920.0983045548201 2489.2961403727531 13594.166594788432 6485.3210606276989 87.438664466142654 138.94447737932205 1440.6789221018553 858.45449149608612 94.122398495674133 16.226326763629913 246.91483846306801 271.88225220143795 715.54353733360767 8282.5091594606638 186.89092588424683 186.35125014185905 7046.1888581365347 577.65334187448025 895.97461800277233 339.94055932760239 19922.336186617613 1663.3440042287111 1325.7909497469664 2642.5991007983685 129.66487735509872 168.36865028738976
leaf_count=465 2160 15587 12371 5373 13677 7917 31241 15334 242 394 5366 2019 326 76 736 786 2303 19044 604 429 25218 1776 2482 952 87120 7462 5353 6867 468 583
internal_value=0 -0.0488334 -1.45566 0.655415 -0.118566 0.148649 -1.86122 -2.25982 -0.197606 1.21188 -0.427589 -1.40971 1.11507 -2.07814 -0.0404408 -0.0247809 0.0154031 -2.3954 -2.27256 -1.47288 0.0795017 -1.27433 -1.72807 -0.693683 1.15232 0.997775 0.518595 -1.65386 0.85551 0.598724
internal_weight=0 64620.3 21557.1 43063.1 16045.3 13870.4 18712.2 17555.8 10950.3 2844.94 2459.2 2414.74 27017.8 16253 1687.59 8121.05 7849.17 15141.1 8655.75 373.242 7133.63 771.606 1754.43 2829.24 25429.5 5507.19 1588.28 2658.83 3843.84 1494.16
internal_count=274731 232659 59292 173367 56468 51095 46527 42072 37418 12765 8343 6661 116899 38184 6102 28549 27763 35411 20077 1033 25460 2241 4501 8869 110637 23517 6262 6943 16055 5936
shrinkage=0.05


Tree=4
num_leaves=31
num_cat=0
split_feature=2 1 3 5 5 5 5 2 1 5 1 1 5 5 2 3 1 5 3 5 2 2 1 2 3 5 2 5 5 5
split_gain=59521.7 57844.9 20840.7 14204.2 6538.42 5794.25 5171.13 1735.11 839.665 815.264 715.767 587.444 577.219 522.188 407.58 337.962 298.486 219.274 219.821 252.775 205.978 193.405 184.151 271.414 208.187 170.064 152.248 143.985 139.89 132.361
threshold=1000000.0000000001 110000.00000000001 1.5000000000000002 1.5000000000000002 4.5000000000000009 18.000000000000004 1.5000000000000002 2460000.0000000005 170000.00000000003 18.000000000000004 60000.000000000007 460000.00000000006 1.5000000000000002 4.5000000000000009 300000.00000000006 2.5000000000000004 460000.00000000006 1.5000000000000002 2.5000000000000004 31.500000000000004 80000.000000000015 210000.00000000003 170000.00000000003 380000.00000000006 1.5000000000000002 4.5000000000000009 350000.00000000006 31.500000000000004 18.000000000000004 4.5000000000000009
decision_type=8 2 2 2 2 2 2 8 2 2 2 2 2 2 10 2 2 2 2 2 10 10 2 10 2 2 10 2 2 2
left_child=1 2 6 11 -5 -6 10 12 26 29 20 22 -2 -8 -12 16 21 -9 -19 -20 -1 -10 23 24 -3 -14 -7 -23 -15 -4
right_child=7 3 9 4 5 8 13 17 15 -11 14 -13 25 28 -16 -17 -18 18 19 -21 -22 27 -24 -25 -26 -27 -28 -29 -30 -31
leaf_value=-0.034303398747715312 -0.026607803234714091 0.043058297036971782 0.043593727590697719 -0.085822747854524387 0.070794518375360424 -0.028444683309043185 -0.10180819716605366 -0.11860880643293736 -0.070209653942559111 -0.058447596179768593 0.0065266669586001615 0.024272834144754105 -0.097099653537871825 0.070794518375360424 -0.073419884680550523 -0.055688893455799388 -0.035013376204308409 -0.10824336757585838 -0.028175766396960979 -0.11004806771468433 -0.085676318900373583 0.013896324010326495 0.058157487264991439 -0.017380518602957952 0.064577407268180467 -0.06611112322826089 -0.063928319111215368 -0.00090230254100533602 -0.078579368118877696 0.071030799973374525
leaf_weight=392.8144648373127 664.50415317714214 3659.3463933616877 557.30866579711437 2193.5462361723185 2837.333832487464 2504.0338488221169 13703.780544608831 6642.7215317934752 88.174660727381706 140.32502613961697 1509.5181053727865 1561.1944204866886 865.7585686892271 15.766423285007475 178.24903732538223 274.70082028210163 543.53796030580997 8387.7364173531532 188.05409942567348 189.05141764879227 387.68055693805218 2532.7959979623556 19503.006363719702 155.37771029770374 1622.1908066570759 906.13211107254028 343.80347387492657 4682.2503838986158 2671.5029241740704 2080.6231759339571
leaf_count=1228 2160 15587 2388 5373 13677 7917 31241 15334 241 394 5598 6152 2019 76 504 786 1689 19044 604 429 1013 9349 87157 548 7455 2482 952 16484 6867 9983
internal_value=0 -0.046271 -1.37724 0.631332 -0.112676 0.142127 -1.75392 -2.11114 -0.187347 1.17975 -0.404534 1.08053 -1.32697 -1.95712 -0.0383335 -0.0235126 0.0146556 -2.23514 -2.13129 -1.3844 -1.19642 0.0678633 1.11778 0.955033 0.993355 -1.62505 -0.654568 0.0858532 -1.55406 1.30468
internal_weight=0 64138.9 21637.6 42501.3 16000.2 13806.6 18859.3 17844 10969.3 2778.26 2468.26 26501.1 2436.39 16391 1687.77 8121.46 7846.76 15407.6 8764.84 377.106 780.495 7303.22 24939.9 5436.91 5281.54 1771.89 2847.84 7215.05 2687.27 2637.93
internal_count=274731 232659 59292 173367 56468 51095 46527 42072 37418 12765 8343 116899 6661 38184 6102 28549 27763 35411 20077 1033 2241 26074 110747 23590 23042 4501 8869 25833 6943 12371
shrinkage=0.05


Tree=5
num_leaves=31
num_cat=0
split_feature=2 0 0 2 2 2 2 0 2 0 0 2 2 0 2 2 0 2 4 2 2 0 2 2 0 2 0 2 0 2
split_gain=52947.9 7732.23 4857.14 2173.34 1549.98 1525.01 1236.36 1030.17 768.771 746.662 676.116 841.015 768.628 262.798 252.34 247.578 243.712 229.288 211.223 168.885 137.171 129.64 124.255 114.553 113.27 205.881 110.515 105.508 103.012 94.937
threshold=1000000.0000000001 36.500000000000007 36.500000000000007 130000.00000000001 600000.00000000012 2460000.0000000005 320000.00000000006 22.500000000000004 250000.00000000003 82.500000000000014 60.500000000000007 350000.00000000006 210000.00000000003 inf 90000.000000000015 450000.00000000006 97.500000000000014 800000.00000000012 1787.5000000000002 200000.00000000003 70000.000000000015 26.500000000000004 300000.00000000006 150000.00000000003 80.500000000000014 400000.00000000006 45.500000000000007 610000.00000000012 148.50000000000003 650000.00000000012
decision_type=8 8 10 10 10 8 10 10 10 10 10 10 10 8 10 10 10 10 2 10 10 10 10 10 10 10 10 10 10 10
left_child=1 7 6 14 10 16 19 23 20 -6 11 22 -12 -7 -4 -8 -2 27 24 -3 -9 -22 -5 -1 25 -14 -13 -11 -19 -29
right_child=5 2 3 4 9 13 15 8 -10 17 12 26 18 -15 -16 -17 -18 28 -20 -21 21 -23 -24 -25 -26 -27 -28 29 -30 -31
leaf_value=-0.074306132025214966 -0.092142286813751251 0.061691639609477572 -0.055258458420049276 0.0015891092316549504 -0.066149319270530735 -0.10650412212788435 0.0072140274492142166 -0.064195149009017363 -0.079940833757318586 -0.033141332233254564 -0.0089956468158096901 -0.062904890102634364 0.007539462020310893 -0.075131653589433134 -0.028207406985011785 -0.058396370747448523 -0.054225758393336793 -0.049022340095634304 0.017994049407418843 0.039446255645527714 -0.048747854694576098 -0.022306419379564721 -0.017387028236120091 -0.10050251161194944 0.010761225303241473 -0.017941842136912273 -0.032656274772734792 0.010771851052156388 -0.021483085095163661 -0.010190215724041529
leaf_weight=727.5758733600378 545.01529191434383 3752.9537088871002 1377.8492351472378 7632.3978867977858 865.01154285669327 14861.556421875954 349.09045685827732 281.79179453849792 1069.7970858216286 370.78716377913952 5431.4280730783939 417.44363053143024 3410.2849057912827 698.91419677436352 2303.1344173103571 244.47789826989174 1905.4754474759102 554.73338240385056 8765.6432208269835 1104.240306019783 580.76112206280231 2297.1680145561695 972.58134403824806 978.61335352063179 14234.827580049634 1032.7716460227966 1091.5041298419237 728.58346745371819 875.45663422346115 2088.375557154417
leaf_count=1905 1315 18152 3951 28226 2415 33630 1417 782 2816 1189 19255 1177 12900 1781 7470 752 5346 1654 34420 5004 1725 7670 3327 2329 54256 3516 3513 2733 2883 7222
internal_value=0 -0.0439881 0.0679925 -0.0258836 0.0303715 -1.98643 0.966198 -1.13071 -0.866116 -0.470342 0.0942341 -0.131868 0.163794 -2.1019 -0.766661 -0.396189 -1.25318 -0.310628 0.231818 1.13269 -0.618043 -0.552845 -0.0111135 -1.78663 0.171718 0.0323286 -0.820488 -0.161375 -0.643297 -0.095371
internal_weight=0 63539.3 57603.6 52152.8 48471.8 18011 5450.76 5935.71 4229.52 5482.95 42988.9 10113.9 32875 15560.5 3680.98 593.568 2450.49 4617.94 27443.5 4857.19 3159.72 2877.93 8604.98 1706.19 18677.9 4443.06 1508.95 3187.75 1430.19 2816.96
internal_count=274731 232659 215432 190107 178686 42072 25325 17227 12993 18096 160590 36243 124347 35411 11421 2169 6661 15681 105092 23156 10177 9395 31553 4234 70672 16416 4690 11144 4537 9955
shrinkage=0.05


Tree=6
num_leaves=31
num_cat=0
split_feature=2 1 0 2 0 2 1 1 2 1 2 0 2 0 0 0 2 2 1 2 2 1 1 2 0 0 2 2 1 1
split_gain=47564.2 51329 12320.4 3922.06 3457.27 2933.9 2540.81 2354.24 1936.37 978.633 2244.69 895.293 741.731 639.373 593.345 528.653 451.371 444.696 409.323 449.14 327.002 299.68 299.495 246.499 237.513 228.825 496.025 228.095 195.266 184.158
threshold=1200000.0000000002 110000.00000000001 inf 600000.00000000012 31.500000000000004 140000.00000000003 60000.000000000007 310000.00000000006 180000.00000000003 170000.00000000003 250000.00000000003 67.500000000000014 2990000.0000000005 39.500000000000007 21.500000000000004 31.500000000000004 240000.00000000003 800000.00000000012 80000.000000000015 250000.00000000003 300000.00000000006 90000.000000000015 40000.000000000007 200000.00000000003 inf 61.500000000000007 370000.00000000006 350000.00000000006 130000.00000000001 310000.00000000006
decision_type=8 2 8 10 8 10 2 2 10 2 10 10 8 8 10 10 10 10 2 10 10 2 2 10 8 8 10 10 2 2
left_child=1 2 5 4 14 6 22 -5 -4 10 15 -9 29 20 -3 -6 -16 -13 -7 -20 -11 -8 -1 28 -14 26 -15 -12 -17 -2
right_child=12 3 8 7 9 18 21 11 -10 13 27 17 24 25 16 23 -18 -19 19 -21 -22 -23 -24 -25 -26 -27 -28 -29 -30 -31
leaf_value=-0.093410786939063378 -0.088520939966699658 -0.10810818396948428 0.059653743985090657 -0.067628957624419492 0.061226707148748505 -0.09551227756759624 -0.027385872281760676 -0.076538678719774877 -0.086207450290235701 0.017368825890694543 -0.014496584890132079 0.029578232082666307 -0.1009622687670233 0.040639531916982427 -0.00091113207827061963 0.018800992318437251 -0.078492009542723076 -0.0066083028495203186 -0.048974554897124829 -0.088602770137838155 -0.065343705298170643 0.0060853104358900385 -0.060745260992814978 0.0095073913440974767 -0.071066537312157438 0.045752856986943688 -0.0062130519175349792 -0.053420924615941591 0.0398973597205039 -0.05456025675147981
leaf_weight=1773.8743005245924 595.60607896745205 321.58046643435955 2068.4144521355629 1367.5114807337523 1509.0403973907232 10519.461436003447 1636.4479933232069 285.16690321266651 255.6597258746624 333.3730096668005 859.42510613799095 2185.6438794136047 14788.527968004346 3400.9591447114944 536.2587543129921 1585.4480621516705 288.2666267901659 1388.2720362991095 1087.5399353057146 2087.3620512485504 186.25589227676392 1130.8692010045052 1160.9336775094271 1366.740697696805 695.61984670162201 21976.564062550664 677.42866533994675 669.61072234809399 3559.2745045721531 1210.4810705631971
leaf_count=4097 1413 775 10225 3747 7550 24151 5216 786 631 1326 2944 8681 33328 14572 1980 6217 780 4730 3091 4961 545 4085 3131 5051 1769 96083 2431 1916 15179 3340
internal_value=0 -0.053064 -1.3036 0.5861 0.699865 -1.5643 -0.961586 -0.225142 0.872166 0.754114 0.479544 0.174379 -1.92165 0.852781 -1.01004 0.691232 -0.560692 0.310435 -1.81527 -1.50057 -0.245573 -0.274156 -1.60978 0.567638 -1.99238 0.874686 0.657144 -0.630854 0.667922 -1.31519
internal_weight=0 64217.4 21720.6 42496.8 37270.2 19396.5 5702.13 5226.59 2324.07 36124.1 9549.54 3859.08 17290.2 26574.6 1146.11 8020.5 824.525 3573.92 13694.4 3174.9 519.629 2767.32 2934.81 6511.46 15484.1 26055 4078.39 1529.04 5144.72 1806.09
internal_count=274731 234881 59588 175293 157349 48732 16529 17944 10856 153814 38857 14197 39850 114957 3535 33997 2760 13411 32203 8052 1871 9301 7228 26447 35097 113086 17003 4860 21396 4753
shrinkage=0.05


Tree=7
num_leaves=31
num_cat=0
split_feature=5 3 5 1 1 5 1 5 1 3 1 1 3 1 3 1 1 3 1 4 1 3 3 5 5 1 1 1 4 1
split_gain=38363.2 23622.3 8176.72 4972.09 4535.01 4135.21 2312.33 1758.96 1013.55 876.631 809.951 504.589 395.316 582.327 294.556 226.809 225.907 208.282 195.861 183.338 164.88 161.448 151.557 116.266 100.094 91.9017 89.592 83.421 78.8018 67.3948
threshold=1.5000000000000002 1.5000000000000002 4.5000000000000009 460000.00000000006 110000.00000000001 18.000000000000004 150000.00000000003 4.5000000000000009 460000.00000000006 1.5000000000000002 680000.00000000012 40000.000000000007 1.5000000000000002 160000.00000000003 2.5000000000000004 260000.00000000003 90000.000000000015 1.5000000000000002 690000.00000000012 1191.5000000000002 80000.000000000015 1.5000000000000002 2.5000000000000004 18.000000000000004 31.500000000000004 110000.00000000001 180000.00000000003 60000.000000000007 341.50000000000006 90000.000000000015
decision_type=2 2 2 2 2 2 2 2 2 2 2 2 2 2 2 2 2 2 2 2 2 2 2 2 2 2 2 2 2 2
left_child=3 2 25 4 9 7 16 -3 15 11 21 -1 13 -6 29 26 23 -12 -10 28 -13 -5 -14 -4 -17 -2 -8 -11 -15 -7
right_child=1 5 6 10 12 14 8 -9 18 27 17 20 22 19 -16 24 -18 -19 -20 -21 -22 -23 -24 -25 -26 -27 -28 -29 -30 -31
leaf_value=-0.083807003664708779 -0.091394779170912016 -0.090287274474470214 0.068273169803821754 -0.021809290539328507 0.0095912251892982039 -0.060030822127119444 -0.041093745333252718 0.067622791801691839 -0.052771029960777885 -0.014406766664753623 -0.067532575414738047 -0.041221534320151812 0.055976821517748521 0.0047662299404919502 -0.060657334974810066 -0.0088534050690877841 -0.0608913249701315 0.04600603473587439 -0.085406153829596029 0.034755703243360928 -0.017367261955237655 0.026799494251712731 0.035990709478943332 -0.080910058072828264 -0.023645632361081293 -0.082740177319737235 -0.028459096972329363 0.035235259293111533 0.026270561153732299 0.0013042055417840782
leaf_weight=483.13150772452354 15460.754040151834 183.45105741918087 13.126922518014906 2103.7987880110741 3651.5925296097994 51.886835992336273 2068.8195268511772 4555.8143606185913 1179.4227888286114 100.45531839132309 1524.5388735830784 1371.8383540660143 1778.851692378521 453.63602621853352 793.9043927937746 1793.505723759532 3703.8960765302181 41.49228323996067 753.44385279715061 13319.6174402982 1534.8930977880955 185.91752836108208 2032.1669185906649 2571.5149043053389 3156.0703770071268 3826.5806154757738 4360.1519235223532 537.14677506685257 6996.514811232686 327.29709178209305
leaf_count=1166 35284 426 68 7020 14196 139 6129 23707 3265 341 3968 4071 8303 1768 2159 6136 9972 161 1784 57701 5088 745 8919 6206 10175 9120 13951 2219 29414 1130
internal_value=0 -1.04816 -1.3313 0.336957 0.465233 0.814124 -0.876427 1.23021 -0.640346 -0.527462 -0.736288 -0.729799 0.606845 0.5601 -0.866841 -0.526618 -1.37616 -1.29049 -1.30985 0.624848 -0.572507 -0.357248 0.906391 -1.60305 -0.365712 -1.79355 -0.650498 0.548281 0.499223 -0.141775
internal_weight=0 44799.6 38887.3 36115.6 32259.8 5912.35 19600 4739.27 13311.4 4027.47 3855.75 3389.86 28232.4 24421.4 1173.09 11378.5 6288.54 1566.03 1932.87 20769.8 2906.73 2289.72 3811.02 2584.64 4949.58 19287.3 6428.97 637.602 7450.15 379.184
internal_count=274731 129651 102090 145080 133186 27561 57686 24133 41440 12885 11894 10325 120301 103079 3428 36391 16246 4129 5049 88883 9159 7765 17222 6274 16311 44404 20080 2560 31182 1269
shrinkage=0.05


Tree=8
num_leaves=31
num_cat=0
split_feature=1 3 1 3 0 1 1 1 0 0 3 0 4 3 0 1 0 0 0 3 0 1 0 4 0 0 3 3 1 0
split_gain=27854.5 14425.7 5929.6 3981.91 4793.26 2859.8 887.267 828.546 792.3 788.536 476.301 472.479 423.332 332.596 430.918 330.377 301.871 294.758 234.47 207.427 201.529 181.81 145.605 143.255 135.404 132.002 125.303 113.428 111.937 204.435
threshold=110000.00000000001 1.5000000000000002 460000.00000000006 1.5000000000000002 30.500000000000004 160000.00000000003 60000.000000000007 700000.00000000012 -1.0000000180025095e-35 305.50000000000006 2.5000000000000004 40.500000000000007 1468.5000000000002 1.5000000000000002 79.500000000000014 220000.00000000003 77.500000000000014 21.500000000000004 58.500000000000007 1.5000000000000002 235.50000000000003 170000.00000000003 281.50000000000006 533.50000000000011 238.50000000000003 25.500000000000004 3.5000000000000004 3.5000000000000004 260000.00000000003 53.500000000000007
decision_type=2 2 2 2 10 2 2 2 10 8 2 10 2 2 10 2 10 10 8 2 10 2 10 2 10 10 2 2 2 10
left_child=1 6 3 4 17 16 -1 13 -5 27 -10 15 20 14 -4 -7 -6 -2 -8 -9 23 -19 -16 -13 -14 -12 -27 -3 -25 -30
right_child=2 9 7 8 5 11 18 19 10 -11 25 12 24 -15 22 -17 -18 21 -20 -21 -22 -23 -24 28 -26 26 -28 -29 29 -31
leaf_value=-0.085345873983146622 -0.099622187796676809 -0.0046858957045738678 -0.093245740399736085 0.061206060923131703 -0.01651835757480672 -0.0083934010350703823 -0.055882978043231391 -0.071657096310920806 0.044888778890399134 0.061317622592556846 -0.090529334808806233 -0.0064660646783446518 0.018014096427499456 0.021201612895989375 -0.02606074930264328 -0.076864032863972892 -0.037065419404971871 -0.040638995184961835 -0.07188412239189719 0.032519441015118916 -0.013565054139018644 -0.094888233701308666 -0.0529564073948963 0.0039475518385246175 -0.0020208376615155521 0.00948881634232898 0.042786052369017516 0.045472849970900342 -0.035746022820579045 0.014414482880749719
leaf_weight=13219.263841450214 1008.018811121583 706.2772481739521 302.14363457262516 2668.3415580391884 4180.7322009205818 693.21571612358093 3898.3845897316933 2312.0729380697012 2051.7506911605597 1936.2216683775187 30.700975388288498 1836.7043353319168 13347.774752125144 272.60956621170044 2778.4598027318716 236.20178008079529 3122.7706895768642 491.6305376291275 5547.0449932664633 48.790562972426414 1335.5209356546402 225.18541191518307 614.50856128334999 7041.9134733527899 900.20242863893509 2193.2661722302437 324.32482387125492 134.11314316093922 209.45935334265232 6720.8671949952841
leaf_count=30801 2426 2522 720 13984 14203 2464 10529 5789 9345 10242 81 6713 54032 1075 8830 652 9685 1480 13972 180 4632 560 1713 26724 3287 8763 1482 575 689 26581
internal_value=0 -1.27611 -0.0104933 0.108027 -0.0119575 0.0590761 -1.53967 -0.92101 0.790624 0.875264 0.539166 0.186778 0.207582 -0.641904 -0.720544 -0.51589 -0.506074 -1.64384 -1.3056 -1.39008 0.101719 -1.15362 -0.618638 0.133232 0.334965 0.250432 0.275566 0.0663731 0.167745 0.257969
internal_weight=0 25441.3 54947.2 48618.6 41350.2 39625.4 22664.7 6328.59 7268.38 2776.61 4600.04 32321.9 31392.4 3967.72 3695.11 929.417 7303.5 1724.83 9445.43 2360.86 17144.5 716.816 3392.97 15808.9 14248 2548.29 2517.59 840.39 13972.2 6930.33
internal_count=274731 68641 206090 187783 154128 149662 55302 18307 33655 13339 19671 125774 122658 12338 11263 3116 23888 4466 24501 5969 65339 2040 10543 60707 57319 10326 10245 3097 53994 27270
shrinkage=0.05


Tree=9
num_leaves=31
num_cat=0
split_feature=5 0 5 1 1 5 5 0 1 1 1 1 0 0 0 1 1 0 1 0 1 5 0 1 0 5 1 0 1 0
split_gain=33722.8 18474.5 7177.21 4186.76 3663.86 3365.43 3310.31 2868.03 1789 677.677 651.305 643.219 552.53 244.792 234.371 199.269 253.156 190.173 154.604 151.788 192.82 143.14 141.433 136.212 122.855 98.344 98.0363 94.3889 92.2758 85.0408
threshold=1.5000000000000002 inf 18.000000000000004 460000.00000000006 110000.00000000001 4.5000000000000009 18.000000000000004 22.500000000000004 130000.00000000001 680000.00000000012 50000.000000000007 680000.00000000012 30.500000000000004 78.500000000000014 58.500000000000007 180000.00000000003 460000.00000000006 42.500000000000007 130000.00000000001 32.500000000000007 190000.00000000003 31.500000000000004 148.50000000000003 90000.000000000015 17.500000000000004 31.500000000000004 30000.000000000004 93.500000000000014 80000.000000000015 58.500000000000007
decision_type=2 8 2 2 2 2 2 10 2 2 2 2 10 10 8 2 2 10 2 10 2 2 10 2 10 2 2 10 2 10
left_child=3 2 -2 4 10 -3 -7 -6 23 13 26 12 -10 -5 24 -14 17 -17 27 20 -20 -19 -21 -4 -12 -8 -1 -9 -26 -16
right_child=1 5 8 9 7 6 25 18 11 -11 14 -13 15 -15 29 16 -18 21 19 22 -22 -23 -24 -25 28 -27 -28 -29 -30 -31
leaf_value=-0.084792878354425852 -0.083069052493677548 -0.08650583500597625 -0.073334837893193602 -0.087219095161349167 -0.10322755913072607 0.065556703700834676 -0.052594359056145672 0.021703028634951872 -0.081283775791612611 -0.058036547137991085 -0.061807779884152481 -0.076766215470102234 -0.038054542958248776 -0.011702957261717228 -0.10417817808995611 -0.055190251263926141 -0.045935313259085037 -0.010947025103645376 0.0153208916808809 0.034125963099580832 -0.086254913004635669 -0.0241898528939084 0.024853348738294642 -0.057211419647124978 -0.011917254544643706 -0.097999338355823307 -0.048638572999220947 -0.0091435999391828726 0.011256647401294553 -0.025671725400135504
leaf_weight=308.03757815063 18685.852541998029 486.19188249111176 2615.3890873193741 112.83354398608208 404.63356125354767 4312.9045832008123 289.19151838123798 1309.0553757399321 487.51209531724453 1563.4045094996691 78.511479005217552 740.42612610757351 3200.287427842617 2193.8208782970905 35.395353317260742 392.42722977697849 1152.8287598788738 3109.8442362844944 284.37459293007851 20316.553257450461 55.906007349491119 5934.2915389239788 5155.9299991726875 2624.2536137551069 710.66636390984058 202.94724626839161 479.17760901153088 305.95944802463055 1086.009962618351 1356.1707889288664
leaf_count=720 43706 1124 6377 287 993 23917 808 5351 1194 4129 215 1785 9416 7478 85 1107 3209 10556 1146 89836 163 19026 21714 6960 2329 466 1316 1098 3976 4244
internal_value=0 -0.976177 -1.21439 0.329768 0.44898 0.777069 1.03076 0.578349 -0.802078 -0.652445 -0.439202 -0.626543 -0.579413 -0.307939 -0.24244 -0.542424 -0.476339 -0.422296 0.617339 0.636118 -0.0273478 -0.392726 0.644982 -1.30519 -0.0117 -1.42637 -1.25572 0.317185 0.0418065 -0.553372
internal_weight=0 44234.3 38943.1 35756.4 31886.4 5291.24 4805.04 27832.4 20257.3 3870.06 4053.97 15017.6 14277.2 2306.65 3266.75 13789.7 10589.4 9436.56 27427.8 25812.8 340.281 9044.14 25472.5 5239.64 1875.19 492.139 787.215 1615.01 1796.68 1391.57
internal_count=274731 129651 103336 145080 133186 26315 25191 120301 59630 11894 12885 46293 44508 7765 10849 43314 33898 30689 119308 112859 1309 29582 111550 13337 6520 1274 2036 6449 6305 4329
shrinkage=0.05


Tree=10
num_leaves=31
num_cat=0
split_feature=5 0 5 1 1 5 5 0 1 1 1 1 0 0 0 1 1 0 4 1 5 0 1 0 1 1 5 1 1 0
split_gain=30711.4 16751.7 6775.55 3805.97 3345.84 3117.33 3082.66 2589.42 1644.66 619.834 595.15 591.89 500.402 222.943 211.988 179.242 229.354 170.148 167.448 130.266 128.163 106.502 92.8434 96.9648 116.167 92.0497 90.8056 90.0725 82.8284 80.7246
threshold=1.5000000000000002 inf 18.000000000000004 460000.00000000006 110000.00000000001 4.5000000000000009 18.000000000000004 22.500000000000004 130000.00000000001 700000.00000000012 680000.00000000012 50000.000000000007 30.500000000000004 78.500000000000014 64.500000000000014 180000.00000000003 460000.00000000006 42.500000000000007 1191.5000000000002 90000.000000000015 31.500000000000004 17.500000000000004 130000.00000000001 32.500000000000007 210000.00000000003 30000.000000000004 31.500000000000004 80000.000000000015 240000.00000000003 175.50000000000003
decision_type=2 8 2 2 2 2 2 10 2 2 2 2 10 10 8 2 2 10 2 2 2 10 2 10 2 2 2 2 2 10
left_child=3 2 -2 4 11 -3 -7 -6 19 13 12 25 -10 -5 21 -14 17 28 -9 -4 -19 -13 -20 24 -24 -1 -8 -23 -17 -22
right_child=1 5 8 9 7 6 26 18 10 -11 -12 14 15 -15 -16 16 -18 20 22 -21 29 27 23 -25 -26 -27 -28 -29 -30 -31
leaf_value=-0.081329348432845533 -0.07995494813847942 -0.083184010293004512 -0.07020717314757563 -0.082434242770212149 -0.097232108216143004 0.064572847287828736 -0.049828644350236685 0.024518071486983137 -0.077231603192688514 -0.056525306065824045 -0.073611688002485076 -0.058456127185185364 -0.036039404065249997 -0.011849701386092154 -0.027693190292542039 -0.036919449898960392 -0.04360439001984906 -0.010377757651588042 0.017045536976271338 -0.054405888362759371 -0.020621704028224833 -0.012465426194474626 0.011730039938766795 0.03395094811892365 -0.11322422066360499 -0.046197490401396146 -0.093487164106181325 0.0095489858343019412 -0.086625852410773974 -0.037814834817804545
leaf_weight=305.16824513673782 18448.851516678929 480.46830852329731 2595.7897208929062 117.63905698060989 408.00648881494999 4163.4743373841047 289.95890522003174 9962.7988338172436 487.43144887685776 1472.1094387471676 733.71436056494713 78.852736502885818 3210.0034883767366 2281.1914337277412 1249.3562802672386 273.84226459264755 1153.7036388367414 3116.2424316555262 901.01846978068352 2621.6490680277348 5169.9987552016973 769.89152981340885 165.63423322141171 16062.646268635988 20.953322365880013 479.26777714490891 202.12296459078789 1171.9028730243444 120.77222326397896 786.57868120074272
leaf_count=720 43706 1124 6377 297 993 23917 808 42817 1194 3874 1785 215 9416 7723 3846 810 3209 10556 3635 6960 16667 2508 664 72139 53 1316 466 4280 297 2359
internal_value=0 -0.935517 -1.16062 0.316169 0.4309 0.761429 1.01171 0.555842 -0.761525 -0.619696 -0.593821 -0.417196 -0.54881 -0.306224 -0.230059 -0.513715 -0.451132 -0.399834 0.59347 -1.24535 -0.371876 -0.0298515 0.653368 0.670693 -0.0460403 -1.1973 -1.35523 0.0164122 -1.04264 -0.457842
internal_weight=0 43854.6 38718.6 35446.4 31575.5 5136.02 4655.56 27521.1 20269.7 3870.94 15052.3 4054.44 14318.6 2398.83 3270 13831.1 10621.1 9467.43 27113.1 5217.44 9072.82 2020.65 17150.3 16249.2 186.588 784.436 492.082 1941.79 394.614 5956.58
internal_count=274731 129651 103336 145080 133186 26315 25191 120301 59630 11894 46293 12885 44508 8020 10849 43314 33898 30689 119308 13337 29582 7003 76491 72856 717 2036 1274 6788 1107 19026
shrinkage=0.05


Tree=11
num_leaves=31
num_cat=0
split_feature=5 3 5 0 0 0 0 3 0 5 5 5 3 0 0 5 0 0 0 3 0 5 0 0 0 0 0 5 0 0
split_gain=28018.3 16033.7 6280.65 3968.08 2724.51 1395.52 925.716 752.054 556.137 417.811 364.662 284.048 244.321 219.107 201.625 186.84 161.457 150.989 149.805 105.623 74.0144 70.9886 58.7472 50.6061 47.7923 43.8555 35.2542 32.9016 30.8546 30.679
threshold=1.5000000000000002 1.5000000000000002 4.5000000000000009 500.50000000000006 17.500000000000004 229.50000000000003 38.500000000000007 1.5000000000000002 36.500000000000007 4.5000000000000009 18.000000000000004 18.000000000000004 2.5000000000000004 289.50000000000006 425.50000000000006 18.000000000000004 173.50000000000003 15.500000000000002 62.500000000000007 2.5000000000000004 43.500000000000007 31.500000000000004 12.500000000000002 26.500000000000004 134.50000000000003 175.50000000000003 1053.5000000000002 3.0000000000000004 30.500000000000004 31.500000000000004
decision_type=2 2 2 8 10 10 10 2 10 2 2 2 2 10 10 2 10 10 10 2 10 2 10 10 10 10 10 2 10 10
left_child=4 2 27 12 22 7 11 8 23 -5 -11 -4 15 18 -7 -3 20 -13 -8 -9 -10 -14 -1 -6 -22 -20 -16 -2 -19 -21
right_child=1 3 6 9 5 14 13 19 16 10 -12 17 21 -15 26 -17 -18 28 25 29 24 -23 -24 -25 -26 -27 -28 -29 -30 -31
leaf_value=-0.093554969906795793 -0.079108152253195063 -0.082951818504451991 0.068339278822245983 -0.074114642284292181 -0.027484306057550228 -0.0068591421592246044 -0.039149360714264433 0.047906489245683609 0.0080889255814962629 0.063616942900879478 -0.012539730705665671 -0.08686119308494307 -0.097940610571913084 -0.055915301378554876 -0.03140740568955562 -0.0012910565614718693 0.0073855476165015158 -0.064645460882563704 -0.026694477642284151 0.0056088454486771556 0.022077557955489508 -0.057297504162942797 -0.051194613766692966 -0.0068049679905751205 0.015836466888546466 -0.035297606517266877 -0.061331320142741536 -0.074863076331454434 -0.052685363070714586 0.033542243721309081
leaf_weight=542.37399169802666 10197.830882012844 87.360923007130623 40.505001455545425 58.362932622432709 406.00873935222626 2525.7181851118803 3984.2993337959051 2037.6337701976299 1170.7474753856659 3974.974597454071 163.65783022344112 616.16242840886116 132.79555831849575 915.3595863878727 678.79928752779961 353.40941151976585 2695.3852140456438 1102.9920503646135 10165.901730999351 102.85812242329121 17751.128023549914 562.62495659291744 96.394639983773232 1090.3905521184206 3708.2423819601536 1733.9967388063669 115.11927670240402 8262.7234959453344 1055.0712732225657 2216.0112070292234
leaf_count=1285 24360 207 210 141 1251 8959 11497 9848 4587 23707 517 1437 302 2448 2115 1187 10620 2780 31379 403 76174 1500 267 3843 15366 5114 308 20044 2821 10054
internal_value=0 -0.898055 -1.12552 0.725839 0.303139 0.34103 -0.731495 0.406658 0.344066 1.17464 1.21211 -1.26224 -0.931993 -0.64257 -0.275355 -0.349525 0.379068 -1.30062 -0.615155 0.792024 0.406624 -1.30117 -1.74325 -0.248315 0.419982 -0.558962 -0.714928 -1.54416 -1.17596 0.646064
internal_weight=0 43408 38074.8 5333.19 35136.8 34498 19614.3 31178.4 26821.9 4197 4138.63 2814.73 1136.19 16799.6 3319.64 440.77 25325.5 2774.23 15884.2 4356.5 22630.1 695.421 638.769 1496.4 21459.4 11899.9 793.919 18460.6 2158.06 2318.87
internal_count=274731 129651 102090 27561 145080 143528 57686 132146 111841 24365 24224 7248 3196 50438 11382 1394 106747 7038 47990 20305 96127 1802 1552 5094 91540 36493 2423 44404 5601 10457
shrinkage=0.05


Tree=12
num_leaves=31
num_cat=0
split_feature=2 5 5 5 0 0 2 2 2 2 5 2 0 0 2 0 0 0 0 2 2 2 0 5 2 5 5 0 2 5
split_gain=40552.6 34877.3 19680.8 7114.32 2309.62 1597.76 886.655 638.935 563.576 532.808 477.99 337.512 291.436 285.166 245.454 180.614 162.333 153.884 151.844 148.461 117.657 115.799 102.451 93.0095 91.1411 89.3561 175.431 83.4231 72.0918 71.704
threshold=1400000.0000000002 1.5000000000000002 4.5000000000000009 18.000000000000004 19.500000000000004 36.500000000000007 210000.00000000003 90000.000000000015 700000.00000000012 1400000.0000000002 1.5000000000000002 750000.00000000012 inf 38.500000000000007 260000.00000000003 108.50000000000001 19.500000000000004 12.500000000000002 61.500000000000007 140000.00000000003 140000.00000000003 310000.00000000006 238.50000000000003 1.5000000000000002 50000.000000000007 4.5000000000000009 18.000000000000004 243.50000000000003 350000.00000000006 18.000000000000004
decision_type=8 2 2 2 10 10 10 10 10 10 2 10 8 10 10 10 10 10 10 10 10 10 8 2 10 2 2 10 10 2
left_child=1 4 -3 -4 17 16 19 24 13 10 22 18 29 14 -9 -10 -5 -1 -8 -7 -15 -20 -2 27 -6 -14 -27 -11 -18 -12
right_child=9 2 3 5 7 6 11 8 15 23 12 -13 25 20 -16 -17 28 -19 21 -21 -22 -23 -24 -25 -26 26 -28 -29 -30 -31
leaf_value=-0.097438206330742128 -0.10371261572624341 -0.074490807720306945 0.062704208658099531 -0.077829949490816716 -0.032876570476958474 -0.049292163044421675 -0.0093420476309674597 0.034618816730425502 -0.027719567895557368 -0.071893613858754535 -0.077038226877981619 -0.024603022467863674 -0.077064272969653985 0.035293132086779089 -0.025031546726853978 0.023128468176436531 -0.041318169127983362 -0.033088369009404393 -0.0034290219117325362 -0.024435598709955549 0.049914596900690597 0.01096399882667122 -0.088672359888067931 -0.065160173634283017 0.010273450147757305 0.074734800100172236 -0.041214401922288535 -0.017074193350962021 -0.072322543047955795 -0.087659037572681134
leaf_weight=268.49179904162884 5226.2175723463297 15477.855846181512 3831.0103782862425 596.08374643325806 145.02294798195362 912.21510727703571 1904.6058665812016 1508.2977243512869 200.25905287265778 101.49260334670544 2238.7925952970982 1260.1195386201143 122.62286283075809 1468.4082999676466 194.72244574129581 1365.0966542214155 1122.935771510005 142.06230373680592 1992.6907405257225 1759.2057652920485 21831.780608072877 4678.3632843494415 1445.4140999764204 1051.1430419385433 783.60764433443546 37.516235619783401 250.06168976426125 219.47386537492275 225.0693127810955 5476.6635462939739
leaf_count=642 11841 37839 23742 1450 421 2421 6169 6486 697 264 5522 3758 298 6256 668 5182 3087 422 6746 5248 105404 16659 3345 2654 2796 171 694 656 556 12637
internal_value=0 0.0237528 -0.660005 0.0425162 0.850898 -0.278668 -0.147575 0.88605 0.914548 -1.75546 -1.81073 -0.00881492 -1.64788 0.95099 0.555969 0.332468 -1.12205 -1.50343 0.0621939 -0.658468 0.979863 0.133294 -2.00908 -1.15933 0.0706954 -0.826533 -0.521763 -0.688172 -0.929896 -1.69154
internal_weight=0 61667.9 33760.2 18282.3 27907.7 14451.3 12507.2 27497.2 26568.6 16169.4 14797.3 9835.78 8125.66 25003.2 1703.02 1565.36 1944.09 410.554 8575.66 2671.42 23300.2 6671.05 6671.63 1372.11 928.631 410.201 287.578 320.966 1348.01 7715.46
internal_count=274731 236649 107675 69836 128974 46094 41001 127910 124693 38082 34508 33332 19322 118814 7154 5879 5093 1064 29574 7669 111660 23405 15186 3574 3217 1163 865 920 3643 18159
shrinkage=0.05


Tree=13
num_leaves=31
num_cat=0
split_feature=2 1 0 2 0 2 1 2 1 1 2 2 0 0 2 1 0 0 0 2 1 1 2 1 2 1 2 0 2 2
split_gain=36969.4 30803.1 6258.79 3012.69 2296.57 2178.51 1832.19 1181.4 1137.5 730.989 1732.14 488.065 486.573 479.188 516.107 378.907 293.396 275.562 272.552 251.444 436.299 251.196 234.276 212.227 285.053 195.148 186.694 169.669 168.488 165.955
threshold=1400000.0000000002 110000.00000000001 inf 700000.00000000012 31.500000000000004 150000.00000000003 60000.000000000007 170000.00000000003 310000.00000000006 160000.00000000003 240000.00000000003 2990000.0000000005 83.500000000000014 51.500000000000007 350000.00000000006 170000.00000000003 inf 22.500000000000004 220.50000000000003 550000.00000000012 310000.00000000006 40000.000000000007 400000.00000000006 80000.000000000015 300000.00000000006 90000.000000000015 170000.00000000003 66.500000000000014 850000.00000000012 110000.00000000001
decision_type=8 2 8 10 8 10 2 10 2 2 10 8 10 8 10 2 8 10 8 10 2 2 10 2 10 2 10 10 10 10
left_child=1 2 5 4 15 6 21 -4 -5 10 18 -2 -10 14 -11 17 -13 -3 26 -15 -21 -1 -12 -7 -25 -8 29 -22 -14 -6
right_child=11 3 7 8 9 23 25 -9 12 13 22 16 28 19 -16 -17 -18 -19 -20 20 27 -23 -24 24 -26 -27 -28 -29 -30 -31
leaf_value=-0.072572196460473165 -0.052525163616780307 -0.069548194436222274 0.0530011678935619 -0.060957845195823437 -0.10344768200891362 -0.073863778376510411 -0.016530379260305685 -0.063188012918283451 -0.05630365835978747 0.02747573493980926 -0.014926650006765184 -0.088190723631388135 0.022561251089960377 0.040638378304363759 -0.027650251913399943 -0.077152339479097512 -0.053942576369822005 -0.00033470921352948238 0.052827957734185284 -0.018027021191171763 -0.028506491272989345 -0.043035318241728189 -0.0568417699774591 -0.039201241848827596 -0.071210217770977399 0.0094313366970544092 0.013678893022473066 0.036721774591202842 -0.0035429963404598787 0.034716955900186641
leaf_weight=1823.8500644415617 1124.7211314588785 190.99793557822704 1633.4614463597536 1021.9712743014097 21.896435126662254 9434.2454819232225 1712.6442844867706 252.61409913003445 331.9135065972805 2175.9369098991156 935.00603693723679 14221.791709676385 1117.9369985759258 22443.418222114444 527.52138602733612 404.70367884635925 654.10786737501621 582.02554263174534 1151.1395212709904 490.95054778456688 104.34462806582451 1189.1357118934393 518.09285788238049 1160.1360330581665 1736.8285484462976 1253.6939434409142 1927.6005774736404 2236.9753504097462 1382.6495116353035 2925.8297102600336
leaf_count=4563 2985 482 10164 2736 57 23442 5469 700 916 9572 3120 33328 4272 105713 1713 1022 1769 2126 7037 1683 360 3306 1403 3285 4354 4510 7290 9559 4489 13306
internal_value=0 0.0230322 -0.985727 0.526195 0.61467 -1.16439 -0.669046 0.748784 -0.314761 0.6603 0.382602 -1.68567 0.0115473 0.734536 0.334382 -0.759127 -1.7337 -0.348718 0.618905 0.777336 0.496569 -1.2183 -0.597424 -1.40458 -1.16783 -0.111158 0.515568 0.676295 0.162549 0.673813
internal_weight=0 60687.5 20196.6 40490.9 36636.4 18310.5 5979.32 1886.08 3854.47 35458.7 7479.57 16000.6 2832.5 27979.1 2703.46 1177.73 14875.9 773.023 6026.47 25275.7 2832.27 3012.99 1453.1 12331.2 2896.96 2966.34 4875.33 2341.32 2500.59 2947.73
internal_count=274731 236649 59793 176856 164443 48929 17848 10864 12413 160813 32213 38082 9677 128600 11285 3630 35097 2608 27690 117315 11602 7869 4523 31081 7639 9979 20653 9919 8761 13363
shrinkage=0.05


Tree=14
num_leaves=31
num_cat=0
split_feature=2 5 5 5 0 0 2 2 2 2 5 0 2 0 2 0 0 0 4 2 0 2 5 2 0 5 5 2 5 2
split_gain=33867.1 30570.3 16764.4 6466.19 2042.61 1337 755.757 533.924 509.451 459.058 327.377 271.443 262.718 250.373 215.606 155.988 153.094 148.54 128.591 124.881 120.634 96.1989 95.4723 88.9778 88.8486 80.8886 160.976 75.5155 71.5246 66.6657
threshold=1400000.0000000002 1.5000000000000002 4.5000000000000009 18.000000000000004 19.500000000000004 36.500000000000007 210000.00000000003 90000.000000000015 700000.00000000012 2990000.0000000005 1.5000000000000002 inf 800000.00000000012 38.500000000000007 300000.00000000006 15.500000000000002 108.50000000000001 8.5000000000000018 730.50000000000011 130000.00000000001 61.500000000000007 310000.00000000006 1.5000000000000002 140000.00000000003 250.50000000000003 4.5000000000000009 18.000000000000004 50000.000000000007 31.500000000000004 400000.00000000006
decision_type=8 2 2 2 10 10 10 10 10 8 2 8 10 10 10 10 10 10 2 10 10 10 2 10 10 2 2 10 2 10
left_child=1 4 -3 -4 17 15 19 27 13 22 -11 -12 20 14 -9 -5 -10 -1 -15 -7 29 -22 24 -20 -2 -13 -27 -6 -28 -8
right_child=9 2 3 5 7 6 12 8 16 10 11 25 -14 18 -16 -17 -18 -19 23 -21 21 -23 -24 -25 -26 26 28 -29 -30 -31
leaf_value=-0.09663874901416715 -0.063108519302428334 -0.070489433942870341 0.061386711332530611 -0.078664579751461669 -0.028206435215221155 -0.048926361911585253 -0.0041744327496781751 0.03173532644843232 -0.02466199346554129 -0.091796923590027016 -0.078928016363590037 -0.07132562335623531 -0.02491828832775873 0.036733829811195051 -0.037474733729577346 -0.044771419900280454 0.021919718666221107 -0.035996836677995504 0.034906242841339891 -0.024674263102686958 -0.0046092501831363573 0.0084828186352500171 -0.058848758337818878 0.049037011257172358 -0.0045029834365021993 0.074230683283469989 -0.01921128724790494 0.011111000694473121 -0.076784653020282936 -0.025780385081893339
leaf_weight=231.31730653345585 100.05669428408146 14903.706874579191 3580.0978517532349 440.40332247316837 144.63047803938389 732.66496555507183 1439.619090154767 1557.7347911149263 202.78700065612793 6648.4411920458078 7600.5897849798203 122.07647323608398 1050.0233561694622 2802.3251757323742 121.29027472436428 1481.2906923294067 1354.8799922466278 179.2173879891634 1185.6231634318829 1926.6445003151894 1978.5157881826162 4824.6149024516344 832.57962700724602 18444.128388345242 182.86814771592617 37.247471988201141 173.19001707434654 784.84417647123337 78.349281638860703 474.76252622902393
leaf_count=548 262 37839 23742 1077 421 1940 4766 6769 697 15281 18628 310 3088 13326 385 4016 5182 516 5190 5729 6746 17285 2160 93144 563 171 513 2796 194 1447
internal_value=0 0.0222102 -0.626053 0.0254504 0.81025 -0.274531 -0.154492 0.844416 0.871376 -1.62484 -1.6719 -1.53576 -0.0258142 0.907184 0.534714 -1.05078 0.317108 -1.40331 0.935063 -0.627119 0.0311045 0.0935065 -1.00644 0.96367 -0.504578 -0.744068 -0.455583 0.0998606 -0.742884 -0.190653
internal_weight=0 59841.1 32832.3 17928.6 27008.8 14348.5 12426.8 26598.2 25668.8 15775.4 14659.9 8011.45 9767.54 24111.1 1679.03 1921.69 1557.67 410.535 22432.1 2659.31 8717.51 6803.13 1115.5 19629.8 282.925 410.863 288.787 929.475 251.539 1914.38
internal_count=274731 236649 107675 69836 128974 46094 41001 127910 124693 38082 35097 19816 33332 118814 7154 5093 5879 1064 111660 7669 30244 24031 2985 98334 825 1188 878 3217 707 6213
shrinkage=0.05


Tree=15
num_leaves=31
num_cat=0
split_feature=2 5 5 5 1 1 2 2 2 1 2 5 3 2 1 1 1 3 3 5 1 2 1 3 2 2 1 2 3 1
split_gain=31106.4 28105.3 15582.4 6042.13 2106.58 1865.95 574.983 433.58 396.304 391.363 290.367 262.831 250.61 251.349 226.891 220.054 188.899 178.769 176.347 195.21 176.126 174.333 135.693 129.478 124.657 107.598 104.97 102.129 97.8105 97.3842
threshold=1400000.0000000002 1.5000000000000002 4.5000000000000009 18.000000000000004 80000.000000000015 130000.00000000001 650000.00000000012 2990000.0000000005 110000.00000000001 130000.00000000001 300000.00000000006 1.5000000000000002 2.5000000000000004 800000.00000000012 180000.00000000003 260000.00000000003 90000.000000000015 1.5000000000000002 2.5000000000000004 31.500000000000004 700000.00000000012 230000.00000000003 30000.000000000004 1.5000000000000002 180000.00000000003 300000.00000000006 110000.00000000001 350000.00000000006 1.5000000000000002 40000.000000000007
decision_type=8 2 2 2 2 2 10 8 10 2 10 2 2 10 2 2 2 2 2 2 2 10 2 2 10 10 2 10 2 2
left_child=1 4 26 -4 8 16 9 -2 22 10 17 -9 13 14 23 -8 -5 -6 -13 -20 -17 -16 -1 24 -7 -18 -3 -26 -24 -10
right_child=7 2 3 5 6 12 15 11 29 -11 -12 18 -14 -15 21 20 25 -19 19 -21 -22 -23 28 -25 27 -27 -28 -29 -30 -31
leaf_value=-0.061238146750256864 -0.048314272234894678 -0.070386799277686721 0.06070950316139137 -0.055463092221039026 0.023791312948834954 -0.04680917154102171 -0.045768867309231132 -0.088196067021255833 -0.083084093908394524 0.047421070815427402 -0.032674348360421331 -0.076293273586810623 -0.043576862831806146 -0.024365811394698546 -0.044863680216362056 0.029427495012010915 -0.026942408825393435 0.053836851285038137 -0.0051801773007617456 -0.078519232819531104 -0.0082091760546833571 0.0073979516053103963 -0.0016024160287332137 0.042940390732574635 -0.0052369653468875088 -0.058219720397795466 -0.058861867724801481 -0.03612438025283523 0.038607912721558647 -0.037328476039800683
leaf_weight=80.426059514284134 1104.1014197170734 12216.327602133155 3442.5158825963736 1805.1554767936468 1880.0435296446085 258.84397569298744 130.81910945475101 6575.6706659495831 170.84877979755402 20215.07185998559 188.05983838438988 7471.2220102995634 359.3539656996727 1043.6814932227135 163.46309992671013 1446.8816899657249 1498.2905007898808 672.04824954271317 187.74975326657295 175.59410557150841 395.89591838419437 6701.1503494381905 759.37451642751694 103.92313297092915 1738.9396545439959 336.77458657324314 2356.9232245534658 316.30457572638988 188.84360012412071 364.15109014511108
leaf_count=206 2985 31731 23742 4689 7659 725 422 15281 402 104760 593 18785 1017 3065 498 6011 4323 3352 604 427 1253 24028 2470 392 5588 867 6108 902 778 1068
internal_value=0 0.0215351 -0.604012 0.0246102 0.785194 -0.261246 0.855817 -1.57023 -0.340732 0.900349 0.545699 -1.61651 -0.050601 -0.0220326 0.0302811 0.337867 -0.879584 0.634065 -1.49278 -0.812459 0.426835 0.12307 0.0223378 -0.233141 -0.282179 -0.65365 -1.37046 -0.199812 0.128114 -1.0388
internal_weight=0 58834.1 32341.6 17768.4 26492.5 14325.9 24928.8 15514.3 1563.64 22955.2 2740.15 14410.2 10685.7 10326.3 9282.62 1973.6 3640.22 2552.09 7834.57 363.344 1842.78 6864.61 1028.64 2418.01 2314.09 1835.07 14573.3 2055.24 948.218 535
internal_count=274731 236649 107675 69836 128974 46094 124050 38082 4924 116364 11604 35097 36215 35198 32133 7686 9879 11011 19816 1031 7264 24526 3454 7607 7215 5190 37839 6490 3248 1470
shrinkage=0.05


Tree=16
num_leaves=31
num_cat=0
split_feature=2 5 5 5 1 0 1 0 2 2 2 1 0 2 0 2 2 1 1 1 0 5 1 5 5 0 1 1 5 0
split_gain=28644 25863.6 14514.2 5651.14 1957.18 1914.4 1701.16 926.115 524.782 415.164 358.032 325.977 277.559 265.835 244.928 207.093 208.759 196.082 185.961 178.231 162.32 160.623 160.19 152.462 146.087 141.571 129.34 123.985 110.74 110.242
threshold=1400000.0000000002 1.5000000000000002 4.5000000000000009 18.000000000000004 80000.000000000015 19.500000000000004 130000.00000000001 30.500000000000004 650000.00000000012 2990000.0000000005 110000.00000000001 130000.00000000001 33.500000000000007 300000.00000000006 inf 850000.00000000012 210000.00000000003 260000.00000000003 190000.00000000003 90000.000000000015 53.500000000000007 4.5000000000000009 700000.00000000012 1.5000000000000002 18.000000000000004 108.50000000000001 250000.00000000003 30000.000000000004 31.500000000000004 187.50000000000003
decision_type=8 2 2 2 2 10 2 10 10 8 10 2 10 10 8 10 10 2 2 2 10 2 2 2 2 10 2 2 2 10
left_child=1 4 -3 -4 10 -6 19 -8 11 -2 27 13 18 -7 23 16 -9 -10 -13 -5 26 -16 25 -11 -23 -19 -18 -1 -22 -24
right_child=9 2 3 6 5 8 7 15 17 14 -12 12 -14 -15 21 -17 20 22 -20 -21 28 24 29 -25 -26 -27 -28 -29 -30 -31
leaf_value=-0.058948178427094593 -0.046361430758725911 -0.066723713635571488 0.060079367815997368 -0.053340464179997465 -0.086436376928513997 0.03308623389566008 -0.066268120003771344 -0.018940946538488254 -0.041846581955024879 -0.085470095229244605 -0.049414611364452049 0.021802096603242699 0.048310655480070658 -0.029354517890361934 -0.070843065677747091 -0.023021551271974357 -0.0028260718524601961 -0.0077218027545709784 -0.068353049308093522 -0.03113130484742729 0.016865236239248529 0.073411746832114627 -0.050309445714834491 -0.074818050697876309 -0.033665891573133613 0.036753119952089734 -0.042729051299350687 0.0061017909023477921 0.0038742233235403096 0.009930960251826812
leaf_weight=79.398991301655769 1093.3535072356462 14226.794100046158 3308.0945909172297 1783.6881522983313 288.74306447803974 2454.9148657023907 539.02127031981945 961.82863153517246 127.65551406145096 6259.195293366909 534.27646924555302 307.52594922482967 19178.109922245145 183.17636784911156 338.97190846502781 824.87033611536026 1013.4560175538063 210.3197064101696 70.26750086247921 1830.3409885317087 2580.4043933153152 36.599529817700386 103.6680796444416 7250.3175412714481 245.62954662740231 1198.8990890234709 253.96916301548481 946.0370094627142 4503.3623152673244 284.02387645840645
leaf_count=206 2985 37839 23742 4689 704 10837 1357 2946 411 14700 1470 1381 102736 579 891 2414 3319 806 213 5190 9600 171 295 18628 707 5150 733 3248 15846 938
internal_value=0 0.0208932 -0.583374 0.0238048 0.761498 0.830899 -0.248831 -0.048099 0.861542 -1.5209 -0.324534 0.90498 0.949492 0.575013 -1.56684 0.0198117 0.0623477 0.360626 0.100675 -0.841851 0.113158 -0.952874 0.445703 -1.59507 -0.395601 0.602309 -0.216438 0.0213001 0.172129 -0.123544
internal_weight=0 57792.8 31825.8 17599 25967 24407.3 14290.9 10676.9 24118.6 15224.1 1559.71 22194 19555.9 2638.09 14130.7 10137.9 9313.02 1924.57 377.793 3614.03 8351.19 621.201 1796.91 13509.5 282.229 1409.22 1267.43 1025.44 7083.77 387.692
internal_count=274731 236649 107675 69836 128974 124050 46094 36215 123346 38082 4924 115746 104330 11416 35097 34858 32444 7600 1594 9879 29498 1769 7189 33328 878 5956 4052 3454 25446 1233
shrinkage=0.05


Tree=17
num_leaves=31
num_cat=0
split_feature=2 3 2 2 2 2 4 3 2 2 4 2 2 2 3 4 2 2 2 3 2 2 3 2 2 4 2 2 2 2
split_gain=26451 7125.8 1752.5 968.497 306.428 305.591 257.179 239.65 172.222 96.5716 84.8186 84.6086 102.256 72.446 69.7411 62.3183 61.2127 54.7171 57.8298 53.7648 45.2785 109.774 43.1233 33.8526 33.4244 29.5626 23.0996 22.829 57.1668 27.1834
threshold=1490000.0000000002 1.5000000000000002 160000.00000000003 700000.00000000012 1490000.0000000002 210000.00000000003 1116.5000000000002 2.5000000000000004 110000.00000000001 600000.00000000012 1825.5000000000002 850000.00000000012 710000.00000000012 610000.00000000012 2.5000000000000004 632.50000000000011 50000.000000000007 750000.00000000012 760000.00000000012 1.5000000000000002 800000.00000000012 810000.00000000012 3.5000000000000004 300000.00000000006 1990000.0000000002 929.50000000000011 760000.00000000012 860000.00000000012 900000.00000000012 910000.00000000012
decision_type=8 2 10 10 10 10 2 2 10 10 2 10 10 10 2 2 10 10 10 2 10 10 2 10 10 2 10 10 10 10
left_child=1 2 8 5 14 25 15 23 16 10 -8 12 -5 -11 -2 -7 -1 -14 -19 24 -20 -22 26 -3 -6 -4 -9 -13 -29 -30
right_child=4 7 3 11 19 6 9 22 -10 13 -12 27 17 -15 -16 -17 -18 18 20 -21 21 -23 -24 -25 -26 -27 -28 28 29 -31
leaf_value=-0.057151684462218688 -0.077149044770429401 0.055054653586934656 -0.016043484844368176 -0.042187597221589448 -0.041351287715095025 -0.009863736763484272 0.0037322798231387219 0.032215982915516743 -0.02257176986906825 -0.029700489118458451 0.010381227713127975 -0.046359855961913915 0.0032594037521535518 -0.0012316712447080313 -0.060626042466035202 -0.00142037178497564 -0.03558577660697116 -0.037260208441719199 0.0025688813615784619 0.085292316581883965 -0.042494096483234718 0.0016763480239043516 0.048338553210667441 0.038659590842567836 -0.058702455807054514 -0.0078721301878978186 0.069519608430603883 -0.004713997861444108 -0.048423274428802093 -0.02908831343000905
leaf_weight=379.30872046947479 12943.534772649407 4083.6924667656422 1472.3707035779953 313.98095187544823 557.19861601293087 3028.2153201848269 11149.540819212794 2477.3192643523216 4242.428626447916 285.10017397999763 8417.8567573428154 189.91346134245396 475.54985201358795 1033.7260324507952 671.77787365019321 7851.6587083637714 2482.6876258403063 267.81402353942394 374.09161178767681 7.3928343057632437 274.66411329805851 288.31319518387318 546.17205971479416 341.15481010079384 553.02986678481102 4458.7612696588039 42.206565082073212 231.27473543584347 199.98922209441662 1997.0195165723562
leaf_count=1043 32742 26703 5429 972 1547 11654 46469 13442 14413 964 36924 556 1750 3949 1766 31464 7457 838 1366 29 821 1019 3265 2037 1506 17114 175 779 575 5963
internal_value=0 0.018037 -0.119739 -0.042569 -1.48536 0.0103543 0.049259 0.926928 -0.579317 0.1142 0.131853 -0.475093 -0.319915 -0.14772 -1.52668 -0.0754086 -0.768879 -0.222039 -0.335404 -0.981988 -0.218283 -0.397469 0.712038 1.07581 -0.999886 -0.198012 0.656818 -0.593299 -0.567185 -0.616967
internal_weight=0 56904.8 49414.3 42309.8 14732.9 37697.2 31766.1 7490.55 7104.42 20886.2 19567.4 4612.61 1994.41 1318.83 13615.3 10879.9 2862 1680.43 1204.88 1117.62 937.069 562.977 3065.7 4424.85 1110.23 5931.13 2519.53 2618.2 2428.28 2197.01
internal_count=274731 237141 191519 168606 37590 153967 131424 45622 22913 88306 83393 14639 6766 4913 34508 43118 8500 5794 4044 3082 3206 1840 16882 28740 3053 22543 13617 7873 7317 6538
shrinkage=0.05


Tree=18
num_leaves=31
num_cat=0
split_feature=2 5 5 5 2 2 2 2 3 2 5 3 5 3 2 4 3 2 2 5 4 2 2 5 3 5 3 3 2 2
split_gain=24548.8 23894.6 13268.7 5077.49 671.331 506.772 476.832 298.26 263.802 175.273 155.523 177.212 184.878 143.574 136.25 130.802 76.5222 199.445 63.5442 63.1215 60.3681 58.6897 56.8461 51.488 50.7558 44.949 44.1905 205.858 42.4088 38.0084
threshold=1490000.0000000002 1.5000000000000002 4.5000000000000009 18.000000000000004 210000.00000000003 110000.00000000001 650000.00000000012 2990000.0000000005 1.5000000000000002 850000.00000000012 1.5000000000000002 2.5000000000000004 31.500000000000004 2.5000000000000004 130000.00000000001 721.50000000000011 1.5000000000000002 180000.00000000003 260000.00000000003 1.5000000000000002 586.50000000000011 50000.000000000007 850000.00000000012 31.500000000000004 1.5000000000000002 3.0000000000000004 2.5000000000000004 1.5000000000000002 600000.00000000012 170000.00000000003
decision_type=8 2 2 2 10 10 10 8 2 10 2 2 2 2 10 2 2 10 10 2 2 10 10 2 2 2 2 2 10 10
left_child=1 5 25 -4 14 8 15 19 21 13 -9 -12 -13 18 -5 24 17 -17 -6 -2 -20 -1 -8 28 29 -3 27 -16 -22 -7
right_child=7 2 3 4 9 6 22 10 -10 -11 11 12 -14 -15 26 16 -18 -19 20 -21 23 -23 -24 -25 -26 -27 -28 -29 -30 -31
leaf_value=-0.034043449063226587 -0.021986678158162125 -0.067334047993089244 0.059044944567963144 -0.045073110617463816 -0.011115701189045887 0.013214643055493728 0.022489126749206508 -0.079887066827851669 0.042020486605742202 -0.025838139373090343 -0.070884163331579805 -0.00012132990041582564 -0.073038628032309857 -0.039440217231056403 -0.026245504087126805 0.027398949933632205 0.050248365296960522 0.043250436950906537 -0.01425078661228469 -0.05220955820595248 0.0096636346147272612 0.00090685070122581391 0.0054283046400649838 -0.0023811337418201605 0.048892817558069068 -0.061594097791257935 -0.053103300950111815 0.035593069188237035 -0.0067199706796729737 0.030675614124368741
leaf_weight=136.48366563022137 233.5392494648695 7863.9979219138622 3071.6059843599796 1113.2497408092022 1747.2905939370394 369.76780523359776 1173.899106323719 6256.0150486826897 447.71354213356972 968.003805950284 6892.1559004187584 185.1068025380373 163.89829269051552 270.61928497254848 2200.9743704199791 2306.3918215483427 2611.1764194816351 14212.459392815828 728.93311381340027 663.82923652231693 2064.210876300931 1001.5835825353861 835.92633451521397 4444.9485642760992 329.20565062761307 6022.8902738839388 123.90449884533882 143.34776639938354 488.44371964037418 1983.3032925277948
leaf_count=384 678 21425 23742 3031 5684 1557 4970 15281 2092 2793 18785 604 427 775 6401 10401 15320 76296 2392 1815 7533 3383 2892 15183 1899 16579 334 532 1616 9927
internal_value=0 0.0172848 -0.568251 0.0144291 -0.236232 0.73751 0.773948 -1.44514 0.190128 -0.110924 -1.48225 -1.38248 -0.687289 -0.0706086 -0.611038 0.816893 0.84589 0.820744 -0.0500934 -0.886882 -0.0111471 -0.0656919 0.307864 0.0173815 0.610088 -1.29689 -0.480047 -0.449285 0.130573 0.558635
internal_weight=0 56660.3 31252.4 17365.5 14293.9 25407.9 23822.1 14394.5 1585.78 10712.4 13497.2 7241.16 349.005 9744.45 3581.48 21812.3 19130 16518.9 9473.83 897.368 7726.54 1138.07 2009.83 6997.6 2682.28 13886.9 2468.23 2344.32 2552.65 2353.07
internal_count=274731 237141 108020 70016 46274 129121 123262 37590 5859 35976 35097 19816 1031 33183 10298 115400 102017 86697 32408 2493 26724 3767 7862 24332 13383 38004 7267 6933 9149 11484
shrinkage=0.05


Tree=19
num_leaves=31
num_cat=0
split_feature=2 5 5 5 0 0 2 2 2 2 0 0 0 2 2 5 0 5 0 2 4 0 5 2 2 2 5 0 2 5
split_gain=22772.8 21975.6 12412.2 4755.39 1724.26 1063.73 474.953 388.821 422.689 290.537 229.236 205.249 204.985 221.145 169.421 157.782 147.575 131.609 126.47 121.343 110.145 92.5008 81.1063 80.1592 73.9736 70.8947 67.6878 65.6121 64.4652 62.6063
threshold=1490000.0000000002 1.5000000000000002 4.5000000000000009 18.000000000000004 21.500000000000004 36.500000000000007 190000.00000000003 90000.000000000015 700000.00000000012 2990000.0000000005 inf 12.500000000000002 43.500000000000007 320000.00000000006 750000.00000000012 4.5000000000000009 15.500000000000002 18.000000000000004 108.50000000000001 260000.00000000003 730.50000000000011 64.500000000000014 1.5000000000000002 140000.00000000003 400000.00000000006 350000.00000000006 31.500000000000004 71.500000000000014 130000.00000000001 31.500000000000004
decision_type=8 2 2 2 10 10 10 10 10 8 8 10 10 10 10 2 10 2 10 10 2 10 2 10 10 10 2 10 10 2
left_child=1 4 -3 -4 11 16 28 -6 12 -2 22 -1 13 -9 19 -12 -5 -17 -10 -8 -14 24 -11 -22 -21 -18 -19 -16 -7 -23
right_child=9 2 3 5 7 6 14 8 18 10 15 -13 20 -15 27 17 25 26 -20 21 23 29 -24 -25 -26 -27 -28 -29 -30 -31
leaf_value=-0.086783473267345049 -0.042697780644238431 -0.063300335299054586 0.058527006849671909 -0.072149080848003186 0.0050501157633876855 -0.040108723649190138 -0.0096464896892540473 0.030581680607899921 -0.02309778097712667 -0.077961575006755865 -0.066052129992562561 -0.021761182322274846 0.03242761961940873 -0.03337512855720063 -0.050660547123792733 0.074166219562532151 -0.033758909275923843 -0.010323399647272972 0.019222577720444521 0.0013481558827789421 0.029566858702854443 0.014097946933693085 -0.069916296070390432 0.044525338939694625 -0.021796780497283209 -0.06345332770066929 -0.069182299308275338 -0.014460852475927445 -0.021472642346608777 0.0029819117563690484
leaf_weight=266.76873455941677 885.71303609013557 13523.647982388735 2947.0021083876491 428.30139322578907 885.28696964681149 702.36078840494156 2097.4267714172602 2221.1600134670734 202.60761022567749 5916.951707303524 308.92668399214745 222.66918106377125 2481.9178837090731 143.91563867032528 140.08075506985188 36.740082383155823 1201.5684289783239 166.66543990373611 1371.7704119235277 971.8540505617857 948.06030517816544 2021.0792490690947 6657.2454840391874 16188.136378377676 535.42225706577301 241.38343913853168 69.096067279577255 1176.2789739072323 1367.5931008756161 3393.319713383913
leaf_count=642 2493 38004 23742 1085 3121 1940 6785 10739 694 14700 891 694 12736 514 374 171 3405 513 5323 3297 4353 7554 18628 90305 1659 614 194 3553 4048 11960
internal_value=0 0.0167402 -0.548977 0.0140189 0.714401 -0.224711 -0.118698 0.751614 0.776064 -1.40833 -1.44566 -1.14403 0.811911 0.533798 -0.0311316 -0.831785 -0.927526 -0.277129 0.275527 0.0177813 0.845439 0.0816316 -1.47404 0.873955 -0.13747 -0.774526 -0.551471 -0.366261 -0.555922 0.142626
internal_weight=0 55679.6 30747.3 17223.7 24932.3 14276.7 12405.4 24442.9 23557.6 14041.3 13155.6 489.438 21983.2 2365.08 10335.5 581.428 1871.25 272.502 1574.38 9019.1 19618.1 6921.68 12574.2 17136.2 1507.28 1442.95 235.762 1316.36 2069.95 5414.4
internal_count=274731 237141 108020 70016 129121 46274 41170 127785 124664 37590 35097 1336 118647 11253 35182 1769 5104 878 6017 31255 107394 24470 33328 94658 4956 4019 707 3927 5988 19514
shrinkage=0.05


Tree=20
num_leaves=31
num_cat=0
split_feature=5 5 5 1 1 0 1 1 1 0 1 1 1 0 0 0 1 4 1 1 0 0 5 1 0 0 1 0 0 1
split_gain=14864.9 7991.31 6982.63 1786.5 1879.41 1559.32 1018.72 443.58 399.248 373.825 213.649 187.822 158.916 141.934 141.71 123.239 115.721 110.066 93.4227 83.3404 78.3223 75.9299 76.4739 73.2977 69.005 64.2034 159.616 56.9419 54.9085 54.889
threshold=1.5000000000000002 4.5000000000000009 18.000000000000004 460000.00000000006 110000.00000000001 24.500000000000004 140000.00000000003 40000.000000000007 460000.00000000006 33.500000000000007 680000.00000000012 360000.00000000006 80000.000000000015 70.500000000000014 58.500000000000007 64.500000000000014 110000.00000000001 492.50000000000006 700000.00000000012 130000.00000000001 71.500000000000014 159.50000000000003 31.500000000000004 60000.000000000007 12.500000000000002 33.500000000000007 200000.00000000003 25.500000000000004 79.500000000000014 1500000.0000000002
decision_type=2 2 2 2 2 10 2 2 2 10 2 2 2 10 8 10 2 2 2 2 10 10 2 2 10 10 2 8 8 2
left_child=3 16 -3 4 7 -6 12 -1 9 27 13 21 -4 -5 23 -13 -2 -7 28 20 -19 22 -11 -9 -25 26 -21 -8 -10 -12
right_child=1 2 6 10 5 17 8 14 18 11 29 15 -14 -15 -16 -17 -18 19 -20 25 -22 -23 -24 24 -26 -27 -28 -29 -30 -31
leaf_value=-0.062234876252875784 -0.06415895728317543 0.058246644629210156 -0.05576696408262205 -0.075038216158043416 -0.07176034300947845 0.0094427380242598814 -0.071042915772416282 -0.020006626461840583 -0.068746922341837269 -0.0073668428124408786 -0.032701499735933996 -0.056035657892128034 -0.037777433666662114 -0.0085255396680834396 -0.020940458110515609 0.0046364118428088236 -0.053490215738041275 0.021547242209137143 -0.055845108098198031 0.017508207732105183 -0.0041660322284202194 -0.027792817556531381 -0.017455792922829127 -0.078848757532430827 0.0059980133672722308 0.026178898854595817 -0.085194931353702208 -0.040614618509596606 -0.028825354167988589 -0.061529916504447058
leaf_weight=446.30041228234768 11986.860577449203 2845.8979578539729 1863.3560299277306 83.576624095439911 430.94351245462894 1192.8504778146744 213.7396247535944 375.44733554124832 93.645384147763252 2802.6114874631166 1133.2207570225 87.92729352414608 3598.271155372262 1989.9082983732224 1452.9924052357674 1739.6751274764538 3225.6896833330393 879.56883358955383 636.1684667468071 286.61940656602383 446.47766384482384 1154.8014696985483 5695.0705043673515 24.351038053631783 1505.6901732236147 20241.716272160411 43.583752676844597 547.81067064404488 1073.5215242505074 193.27480998635292
leaf_count=1201 35193 23771 5184 225 1181 5606 545 1163 241 9553 3481 243 10358 7468 4760 6129 9329 4169 1839 1315 1845 3662 18440 60 5746 106582 122 1539 3204 577
internal_value=0 -0.678848 -0.298348 0.258964 0.344017 0.449492 -0.511832 -0.308045 -0.369325 -0.304614 -0.42463 -0.259606 -0.878299 -0.22413 -0.183575 0.0343487 -1.23793 0.484666 -0.808606 0.50078 0.257793 -0.315263 -0.282567 -0.0042019 0.0929531 0.516443 0.0790469 -0.983095 -0.640568 -0.738038
internal_weight=0 37565 22352.5 30726.5 27326.5 23521.8 19506.6 3804.78 14045 12241.6 3399.98 11480.1 5461.63 2073.48 3358.48 1827.6 15212.6 23090.8 1803.34 21898 1326.05 9652.48 8497.68 1905.49 1530.04 20571.9 330.203 761.55 1167.17 1326.5
internal_count=274731 129230 84708 145501 133750 120820 60937 12930 45395 40111 11751 38027 15542 7693 11729 6372 44522 119639 5284 114033 6014 31655 27993 6969 5806 108019 1437 2084 3445 4058
shrinkage=0.05


Tree=21
num_leaves=31
num_cat=0
split_feature=1 3 1 3 0 1 1 0 0 3 3 0 1 1 0 4 0 0 1 0 0 0 4 1 1 1 1 1 0 1
split_gain=11621.3 5402.76 2165.99 1574.42 2173.15 1280.61 648.449 525.12 378.617 365.794 329.303 315.681 319.945 245.122 226.374 177.502 141.722 133.098 127.274 119.999 107.559 85.763 82.8265 82.2945 74.7233 69.6444 68.5111 68.5103 65.7263 61.5833
threshold=110000.00000000001 1.5000000000000002 460000.00000000006 1.5000000000000002 28.500000000000004 160000.00000000003 60000.000000000007 1907.0000000000002 inf 2.5000000000000004 1.5000000000000002 42.500000000000007 250000.00000000003 680000.00000000012 81.500000000000014 829.50000000000011 59.500000000000007 77.500000000000014 510000.00000000006 297.50000000000006 21.500000000000004 164.50000000000003 1694.5000000000002 180000.00000000003 170000.00000000003 40000.000000000007 310000.00000000006 1400000.0000000002 289.50000000000006 260000.00000000003
decision_type=2 2 2 2 10 2 2 8 8 2 2 10 2 2 10 2 8 10 2 10 10 10 2 2 2 2 2 2 10 2
left_child=1 6 3 4 20 17 25 9 -3 24 13 12 -7 14 -4 29 -8 -6 -16 22 -2 -15 -17 -22 -5 -1 -21 -23 -20 -13
right_child=2 8 10 7 5 11 16 -9 -10 -11 -12 15 -14 21 18 19 -18 -19 28 26 23 27 -24 -25 -26 -27 -28 -29 -30 -31
leaf_value=-0.064658108432649922 -0.071614747938079357 0.0073660222224787566 -0.066781267202102396 0.04634879725533371 -0.0099530678126588668 -0.0054268421324898709 -0.034379439605724635 0.053033272586687691 0.052474193475353571 0.0060765792988603691 0.024434955556839645 -0.0049690013685121026 -0.075634182027329661 -0.067406622291444271 -0.033383213786973134 0.0094877394665669502 -0.047844625994365508 -0.024215668594230341 -0.0073262118512974865 -0.022502470839698668 -0.029397241353151967 -0.035076264768580057 0.015825006098724118 -0.077520963966165646 0.024442316887655528 -0.056295515690536348 0.0062849525029049684 -0.060653931811591927 -0.031910597819446787 0.0062390842154013276
leaf_weight=5834.8026963323355 873.0363425463438 764.66311174631119 265.58420085906982 969.43923760950565 3889.7453031539917 1004.0352584272623 3432.499135389924 1709.3328084349632 1187.7917794808745 2145.6946906000376 281.3941750228405 2356.7497740983963 193.55764602124691 346.87946972250938 976.27608750760555 12531.40632134676 4537.0963979512453 2822.8131087571383 1664.6260626912117 391.11714294552803 344.11981594562531 1339.0913494378328 8760.190277531743 119.75128474831581 650.45362031459808 4342.6973302513361 438.27842473983765 325.42586882412434 324.93902303278446 2553.4337620586157
leaf_count=17434 2404 3111 739 5665 14536 3926 10760 13993 10121 10496 1257 9634 531 957 3231 56120 13794 9856 5849 1461 1098 4131 41742 313 3730 13049 1809 999 1037 10948
internal_value=0 -0.884461 0.0232804 0.101136 0.0256999 0.0735743 -1.05452 0.600998 0.696159 0.392339 -0.565172 0.166929 -0.335478 -0.621735 -0.451143 0.189188 -0.840904 -0.319018 -0.371939 0.227366 -1.22554 -0.895802 0.241903 -0.836414 0.751049 -1.2218 -0.145806 -0.801538 -0.226827 0.0171904
internal_weight=0 20099.6 47277.4 41753.2 36278.2 34941.3 18147.1 5474.92 1952.45 3765.59 5524.22 28228.8 1197.59 5242.82 3231.43 27031.2 7969.6 6712.56 2965.84 22121 1336.91 2011.4 21291.6 463.871 1619.89 10177.5 829.396 1664.52 1989.57 4910.18
internal_count=274731 68269 206462 188262 154378 150563 55037 33884 13232 19891 18200 126171 4457 16943 10856 121714 24554 24392 10117 101132 3815 6087 97862 1411 9395 30483 3270 5130 6886 20582
shrinkage=0.05


Tree=22
num_leaves=31
num_cat=0
split_feature=5 5 5 1 1 0 1 1 0 1 1 1 0 0 0 1 1 1 1 0 0 1 0 5 0 5 1 0 0 0
split_gain=13361.5 7170.24 6139.6 1521.11 1550.86 1356.71 851.864 310.669 298.928 284.935 210.859 184.029 127.835 123.727 123.286 118.753 102.17 95.648 181.285 110.037 82.2063 70.0336 66.0853 63.6594 56.1945 53.7589 53.4396 55.3283 52.0571 48.5313
threshold=1.5000000000000002 4.5000000000000009 18.000000000000004 460000.00000000006 90000.000000000015 21.500000000000004 130000.00000000001 700000.00000000012 33.500000000000007 40000.000000000007 130000.00000000001 680000.00000000012 71.500000000000014 70.500000000000014 27.500000000000004 80000.000000000015 110000.00000000001 460000.00000000006 360000.00000000006 64.500000000000014 47.500000000000007 160000.00000000003 159.50000000000003 31.500000000000004 297.50000000000006 3.0000000000000004 1500000.0000000002 164.50000000000003 25.500000000000004 48.500000000000007
decision_type=2 2 2 2 2 10 2 2 10 2 2 2 10 10 10 2 2 2 2 10 8 2 10 2 10 2 2 10 8 10
left_child=3 16 -3 4 9 -6 15 8 28 -1 12 13 -7 -5 -12 -4 -2 18 21 -20 -11 -10 23 29 -16 -18 27 -13 -8 -23
right_child=1 2 6 11 5 10 7 -9 17 20 14 26 -14 -15 24 -17 25 -19 19 -21 -22 22 -24 -25 -26 -27 -28 -29 -30 -31
leaf_value=-0.058115842597731761 -0.061907289253322888 0.057410861227452148 -0.052686811247408143 -0.070355489915140387 -0.069170652978076383 0.01668073897497525 -0.063250332391741562 -0.053034146990078759 -0.024944550945470267 -0.0026751945060665846 -0.032884696389768861 -0.05884238751059169 -0.0062113329834430743 -0.0073432175270164825 0.02430270766384381 -0.036333788406093831 -0.059690925801428187 -0.028761031750834595 -0.053470652458460277 0.0039036509880870313 -0.022798352179685205 -0.028205763076979102 -0.025711589626875721 -0.015609911878068261 0.0093181683186685307 -0.04634114294999972 -0.058906661217481684 -0.025451021677238058 -0.036757253408425276 -0.00341300385273337
leaf_weight=431.12426756322384 11293.738854438066 2626.5163560211658 1792.7508304864168 81.071812897920609 415.70438413321972 1759.9336680322886 260.38832446932793 610.01610904932022 1791.636078312993 954.5093616694212 96.190852105617523 142.19966961443424 933.22473502159119 1993.2266324162483 20647.508472651243 2915.7701973170042 1261.0160947293043 1101.9226885288954 87.793025687336922 1736.9692260921001 1083.7659434974194 217.10785323381424 1061.546746045351 4927.2103917449713 645.22397461533546 1876.0554044395685 182.39131344854832 972.29686884582043 644.01593478024006 2172.7104404270649
leaf_count=1201 35193 23771 5184 225 1137 7763 704 1839 5392 3322 343 401 3538 7468 110123 8501 3636 3288 243 6129 3429 665 3393 16127 2894 5693 577 3080 1851 7621
internal_value=0 -0.646294 -0.286282 0.25244 0.331609 0.407747 -0.481301 -0.3621 -0.331664 -0.42372 0.438666 -0.380863 0.174965 -0.19612 0.47187 -0.851203 -1.1938 -0.293267 -0.267365 0.0228651 -0.267497 -0.319439 -0.281066 -0.247238 0.476973 -1.03415 -0.676348 -0.594229 -0.887698 -0.113307
internal_weight=0 36377.2 21946.4 30338.4 26967.2 24497.8 19319.8 14611.3 14001.3 2469.4 24082.1 3371.19 2693.16 2074.3 21388.9 4708.52 14430.8 13096.9 11995 1824.76 2038.28 10170.2 8378.58 7317.03 21292.7 3137.07 1296.89 1114.5 904.404 2389.82
internal_count=274731 129230 84708 145501 133750 125798 60937 47252 45413 7952 124661 11751 11301 7693 113360 13685 44522 42858 39570 6372 6751 33198 27806 24413 113017 9329 4058 3481 2555 8286
shrinkage=0.05


Tree=23
num_leaves=31
num_cat=0
split_feature=2 5 5 5 0 0 2 2 2 0 3 0 2 0 2 2 3 3 0 0 3 0 5 2 2 5 2 3 3 0
split_gain=21576.1 17395.5 9953.93 3560.62 1413.85 839.815 389.275 355.844 332.997 273.558 431.965 188.684 209.095 183.138 178.114 149.244 142.405 136.49 120.883 117.428 102.946 99.2942 98.0674 65.1055 64.8067 61.0255 57.5348 51.4201 210.674 49.9966
threshold=1790000.0000000002 1.5000000000000002 4.5000000000000009 18.000000000000004 19.500000000000004 34.500000000000007 650000.00000000012 190000.00000000003 110000.00000000001 inf 2.5000000000000004 43.500000000000007 320000.00000000006 99.500000000000014 850000.00000000012 5925000.0000000009 1.5000000000000002 2.5000000000000004 21.500000000000004 61.500000000000007 1.5000000000000002 12.500000000000002 1.5000000000000002 500000.00000000006 310000.00000000006 31.500000000000004 410000.00000000006 2.5000000000000004 1.5000000000000002 45.500000000000007
decision_type=8 2 2 2 10 10 10 10 10 8 2 10 10 10 10 8 2 2 10 10 2 10 2 10 10 2 10 2 2 10
left_child=1 4 -3 -4 21 18 8 27 16 15 -11 12 20 29 17 -2 -6 19 -5 23 -10 -1 -17 -9 -21 -19 -27 28 -7 -8
right_child=9 2 3 5 6 7 13 14 11 10 -12 -13 -14 -15 -16 22 -18 25 -20 24 -22 -23 -24 -25 -26 26 -28 -29 -30 -31
leaf_value=-0.074159936345820576 -0.045553715039297026 -0.057977251128947471 0.056821216600856275 -0.059447872469745734 0.0046339276179166175 -0.025065074942671024 -0.088095602584131308 -0.0040215717250827064 0.02260461198400953 -0.059023774226586813 0.047908771976494013 0.041053407407221604 -0.033393217335215379 0.020039501660089217 -0.019845951336865099 -0.076671897933180355 0.039520264891168812 -0.10471764404423688 -0.031224804185861644 -0.00077595687270908952 0.048792400599670223 -0.022484879288677637 -0.06757392896673671 -0.031564999269867305 0.0094600275440524795 -0.040840052486228955 0.014243035760388345 -0.057568064068414908 0.043417812826226393 -0.018935967439774441
leaf_weight=279.0853259563446 558.67719605565071 12111.548776015639 2480.1992411389947 626.75803811848164 1032.2365633845329 1859.646376028657 30.429314464330673 1966.2664346396923 1435.9129693955183 404.32288789749146 123.22636212408543 18032.063716903329 142.03987842798233 1824.1180125027895 1029.2079354971647 5765.8301085978746 408.19698920845985 27.022732526063919 961.33084623515606 2276.1762576699257 508.05690537393093 139.39159522950649 6090.8292977809906 240.82390207052231 4822.5046787858009 168.82006800174713 65.915810391306877 100.63152571022511 119.51923136413097 185.04863092303276
leaf_count=696 1697 38035 23589 1724 3482 5446 75 6393 6610 1296 473 104921 503 7280 3032 14726 1986 61 2774 7732 3199 419 18383 700 17424 475 218 262 447 673
internal_value=0 0.0543231 -0.46896 0.0305404 0.683058 -0.16174 0.715369 -0.0758591 0.754874 -1.3862 -0.680924 0.788129 0.503396 0.297801 -0.00163337 -1.41616 0.290404 0.0408887 -0.847267 0.0609207 0.588976 -1.13895 -1.43996 -0.140539 0.123558 -0.67127 -0.507445 -0.454045 -0.41859 -0.574051
internal_weight=0 52873 28856.4 16744.8 24016.6 14264.6 23598.1 12676.5 21558.5 12942.9 527.549 20118.1 2086.01 2039.6 10596.7 12415.3 1440.43 9567.53 1588.09 9305.77 1943.97 418.477 11856.7 2207.09 7098.68 261.759 234.736 2079.8 1979.17 215.478
internal_count=274731 238156 108312 70277 129844 46688 128729 42190 120701 36575 1769 115233 10312 8028 36035 34806 5468 33003 4498 32249 9809 1115 33109 7093 25156 754 693 6155 5893 748
shrinkage=0.05


Tree=24
num_leaves=31
num_cat=0
split_feature=5 5 5 1 1 0 1 1 1 0 1 1 1 1 0 0 0 1 1 0 0 1 0 5 1 0 0 5 0 0
split_gain=11332.4 6477.7 5303.22 1276.26 1363.87 1161.04 768.087 282.77 266.221 260.735 194.268 157.34 118.811 115.737 115.304 110.808 108.88 83.6018 160.465 99.8399 76.4371 59.0328 60.9803 53.6391 49.3815 53.2253 48.7328 45.9257 52.9583 45.7104
threshold=1.5000000000000002 4.5000000000000009 18.000000000000004 460000.00000000006 90000.000000000015 21.500000000000004 130000.00000000001 700000.00000000012 40000.000000000007 32.500000000000007 130000.00000000001 680000.00000000012 80000.000000000015 110000.00000000001 71.500000000000014 27.500000000000004 79.500000000000014 460000.00000000006 360000.00000000006 70.500000000000014 47.500000000000007 160000.00000000003 117.50000000000001 3.0000000000000004 1500000.0000000002 185.50000000000003 297.50000000000006 31.500000000000004 48.500000000000007 25.500000000000004
decision_type=2 2 2 2 2 10 2 2 2 10 2 2 2 2 10 10 10 2 2 10 8 2 10 2 2 10 10 2 10 8
left_child=3 13 -3 4 8 -6 12 9 -1 29 14 16 -4 -2 -7 -12 -5 18 21 -20 -10 -11 27 -15 25 -13 -17 28 -23 -8
right_child=1 2 6 11 5 10 7 -9 20 17 15 24 -14 23 -16 26 -18 -19 19 -21 -22 22 -24 -25 -26 -27 -28 -29 -30 -31
leaf_value=-0.056440370445843671 -0.059834536606861444 0.056642903743643093 -0.05028262368202642 -0.059945460509028298 -0.065019962629578057 0.015400657412499878 -0.060131068189096706 -0.050552085893183218 -0.0022848630737310137 -0.022743164267786692 -0.031492383789652661 -0.050130756264114035 -0.033663354981068178 -0.056881699117846123 -0.0065435750921099024 0.022855540712236683 -0.0063872163319837437 -0.026564289138739657 -0.038793670315111481 0.0050473153566441987 -0.021791618644228933 -0.026462233041860791 -0.019592568537855314 -0.043199523003234631 -0.056490588507021856 -0.022137010169740432 0.0087356975007621303 -0.013070952964865405 -0.00066164603085329052 -0.034508647091369124
leaf_weight=419.37383882701397 10581.982297182083 2410.0046658664942 1726.4625711739063 99.775634005665779 403.31643959879875 1721.1763760447502 249.56996257603168 582.73438893258572 944.497135668993 1794.9057080298662 95.739889293909073 210.68949896097183 2851.7382308989763 1195.4703613072634 917.81445762515068 19964.074460595846 1939.2168733477592 1085.167611181736 140.80882932245731 1670.477947473526 1072.4029137343168 225.39668475091457 2343.2423840910196 1787.2441727519035 170.82750724256039 874.90109802782536 630.37983766198158 4101.5859458744526 1691.2902815043926 575.35715235769749
leaf_count=1201 35193 23771 5184 298 1137 7763 704 1839 3322 5458 343 624 8501 3636 3538 110123 7395 3289 419 5954 3429 692 7725 5693 577 2857 2894 13501 5987 1684
internal_value=0 -0.606785 -0.264729 0.234804 0.30866 0.381805 -0.441642 -0.328625 -0.403871 -0.299971 0.410887 -0.351684 -0.798611 -1.14765 0.155373 0.443477 -0.18016 -0.265512 -0.241413 0.0327826 -0.253135 -0.290313 -0.25499 -0.973667 -0.630043 -0.5514 0.448467 -0.201703 -0.0739144 -0.845207
internal_weight=0 35013.4 21448.7 29464.2 26168.8 23732.5 19038.7 14460.5 2436.27 13877.8 23329.2 3295.41 4578.2 13564.7 2638.99 20690.2 2038.99 13052.9 11967.7 1811.29 2016.9 10156.4 8361.52 2982.71 1256.42 1085.59 20594.5 6018.27 1916.69 824.927
internal_count=274731 129230 84708 145501 133750 125798 60937 47252 7952 45413 124661 11751 13685 44522 11301 113360 7693 43025 39736 6373 6751 33363 27905 9329 4058 3481 113017 20180 6679 2388
shrinkage=0.05


Tree=25
num_leaves=31
num_cat=0
split_feature=5 5 5 1 1 0 1 1 1 0 3 3 3 1 3 3 0 1 1 3 1 1 0 1 1 0 1 3 0 0
split_gain=10421.2 6182.47 4924 1161.69 1242.33 1062.82 717.792 266.97 248.486 241.529 289.285 214.826 190.49 395.566 178.598 147.448 142.968 172.847 140.821 123.2 119.724 115.758 106.212 88.6818 131.204 94.6046 63.6289 124.833 61.3068 60.3575
threshold=1.5000000000000002 4.5000000000000009 18.000000000000004 460000.00000000006 90000.000000000015 21.500000000000004 130000.00000000001 700000.00000000012 40000.000000000007 32.500000000000007 1.5000000000000002 2.5000000000000004 1.5000000000000002 160000.00000000003 1.5000000000000002 1.5000000000000002 39.500000000000007 200000.00000000003 680000.00000000012 2.5000000000000004 110000.00000000001 80000.000000000015 82.500000000000014 460000.00000000006 370000.00000000006 71.500000000000014 160000.00000000003 1.5000000000000002 73.500000000000014 159.50000000000003
decision_type=2 2 2 2 2 10 2 2 2 10 2 2 2 2 2 2 10 2 2 2 2 2 10 2 2 10 2 2 10 10
left_child=3 20 -3 4 8 -6 21 9 -1 10 -8 23 13 28 18 -10 17 -15 22 -14 -2 -4 -5 24 26 -26 27 -11 -7 -28
right_child=1 2 6 14 5 12 7 -9 15 11 -12 -13 19 16 -16 -17 -18 -19 -20 -21 -22 -23 -24 -25 25 -27 29 -29 -30 -31
leaf_value=-0.054654310548238216 -0.058867032012929088 0.056281846581998397 -0.048843914535965878 -0.061469762046498205 -0.06284712096313487 0.0091209101839936062 -0.054366881399984981 -0.049210958571545012 -0.017954253457525021 -0.02383788651195139 0.024230266650030054 -0.046182563331964077 0.04264415912029635 0.016417108216367614 0.029153886285970734 0.018804623264348515 0.022242217532754925 -0.053856305461117651 -0.0330921857076125 0.022244408843697015 -0.047377918460902231 -0.032298121443755302 -0.0083813259805864595 -0.0252828126228276 -0.039781830161696431 0.0069067216548186336 -0.0087396817237751622 0.041742334040046708 -0.0033414635423258407 -0.021400438723971651
leaf_weight=411.62319414317608 10227.122159406543 2306.801247343421 1689.4002528637648 99.473533093929291 396.56974810361862 2453.284499078989 672.57766743004322 569.03556816279888 1691.3984845131636 1651.3022453784943 141.7447285503149 459.9254605025053 1353.5373389720917 244.05363933742046 198.86817392706871 325.2691171169281 15640.296413704753 136.41026163101196 1203.1597263813019 1633.1006657481194 2913.4612101465464 2824.3749219030142 1781.5985257923603 1052.8694514483213 117.35549230873585 1437.9502117037773 7167.4593784958124 75.89988186955452 1650.932454302907 1083.6796576827765
leaf_count=1201 35193 23771 5184 295 1137 10876 1913 1839 5365 4983 475 1299 9015 1171 923 1386 86749 484 3893 9493 9329 8501 6640 3209 346 5156 24221 294 6873 3517
internal_value=0 -0.587213 -0.2538 0.224991 0.295931 0.366272 -0.421777 -0.312907 -0.38503 -0.285347 -0.813718 -0.252368 0.394124 0.35915 -0.33544 -0.240508 0.430111 -0.17557 -0.394665 0.629791 -1.12639 -0.769816 -0.223774 -0.227838 -0.202477 0.0676768 -0.244585 -0.419121 0.0821577 -0.20805
internal_weight=0 34391 21250.4 29219.6 25936.5 23508.2 18943.6 14429.8 2428.29 13860.8 814.322 13046.4 23111.6 20125 3283.1 2016.67 16020.8 380.464 3084.23 2986.64 13140.6 4513.78 1881.07 12586.5 11533.6 1555.31 9978.34 1727.2 4104.22 8251.14
internal_count=274731 129230 84708 145501 133750 125798 60937 47252 7952 45413 2388 43025 124661 106153 11751 6751 88404 1655 10828 18508 44522 13685 6935 41726 38517 5502 33015 5277 17749 27738
shrinkage=0.05


Tree=26
num_leaves=31
num_cat=0
split_feature=5 5 5 0 3 0 0 0 3 4 3 0 0 4 0 3 3 5 4 0 3 5 3 5 4 0 0 0 0 0
split_gain=9585.95 5902.27 4575.74 1052.63 451.812 336.6 326.55 205.728 200.812 169.64 159.267 106.803 101.704 86.9537 85.1879 83.2888 57.4471 56.6035 50.2573 41.0966 39.8918 39.7033 31.9781 33.5247 58.1421 27.4326 25.6615 22.6808 22.1631 22.0348
threshold=1.5000000000000002 4.5000000000000009 18.000000000000004 17.500000000000004 1.5000000000000002 248.50000000000003 34.500000000000007 36.500000000000007 1.5000000000000002 772.50000000000011 2.5000000000000004 289.50000000000006 15.500000000000002 1704.5000000000002 50.500000000000007 2.5000000000000004 1.5000000000000002 31.500000000000004 287.50000000000006 900.50000000000011 1.5000000000000002 3.0000000000000004 1.5000000000000002 31.500000000000004 755.50000000000011 80.500000000000014 27.500000000000004 105.50000000000001 167.50000000000003 8.5000000000000018
decision_type=2 2 2 10 2 10 10 10 2 2 2 10 10 2 10 2 2 2 2 10 2 2 2 2 2 10 8 10 10 10
left_child=3 21 -3 16 5 7 8 -5 12 18 11 14 -4 28 20 25 29 -12 -9 -7 -8 -2 23 24 -16 -6 -10 -23 -11 -1
right_child=1 2 6 4 15 19 10 9 26 13 17 -13 -14 -15 22 -17 -18 -19 -20 -21 -22 27 -24 -25 -26 -27 -28 -29 -30 -31
leaf_value=-0.07034016703605861 -0.057863097317614645 0.055942473864313697 -0.064828812328222865 -0.0070746538236069025 0.041067970225763549 -0.0069357866511263319 -0.026104121520383935 -0.01387409924087674 -0.032959798330893526 0.012882178019878277 -0.083113058597315381 -0.03529854506062545 -0.037831470631549617 0.019113608943689547 -0.024016457063189101 0.022060129881730051 -0.0097526781697162123 -0.037732201283764588 0.0048702960713976739 -0.03747456766417296 0.011338212649925843 -0.054501599232962245 0.0052184038291475804 -0.016821955934151925 -0.0092446388076107174 0.024587060147553776 0.0086101168353980798 -0.047906729320650265 0.0063928997647610345 -0.044828050314895805
leaf_weight=367.66047570109367 6918.4769915640354 2207.2716174870729 476.14669060707092 1386.2044028043747 1224.5102935880423 2186.6293917000294 2239.2809195518494 404.94628593325615 44.648619443178177 9293.6619145721197 80.677059054374695 756.92601791024208 1304.8477202355862 7002.060653835535 792.24240367114544 1916.0093198567629 53.330495521426201 463.3436831086874 3058.4398591667414 116.00928422808647 73.471503347158432 3827.8359778374434 202.23619773983955 8003.6750109493732 4184.891355663538 318.07688446342945 220.31072455644608 1977.1132760196924 1532.7691888213158 109.94610843062401
leaf_count=1095 24269 23771 1422 5144 7942 8827 6926 1706 132 47597 197 2451 4029 37948 2556 10847 174 1353 14294 426 257 13375 722 25976 14206 2040 710 6878 7142 319
internal_value=0 -0.568386 -0.243375 0.215655 0.2417 0.194801 -0.402949 0.231789 -0.780145 0.256091 -0.357004 -0.339188 -0.900984 0.295433 -0.321272 0.580444 -1.17943 -0.889242 0.0535733 -0.169487 -0.498293 -1.10609 -0.290216 -0.296364 -0.231919 0.753393 0.0321024 -1.04511 0.239269 -1.28934
internal_weight=0 33773.4 21050 28970.3 28439.3 24980.7 18842.7 22678.1 2045.95 21291.9 16796.7 16252.7 1780.99 17828.5 15495.8 3458.6 530.937 544.021 3463.39 2302.64 2312.75 12723.4 13183 12980.8 4977.13 1542.59 264.959 5804.95 10826.4 477.607
internal_count=274731 129230 84708 145501 143913 123084 60937 113831 6293 108687 54644 53094 5451 92687 50643 20829 1588 1550 16000 9253 7183 44522 43460 42738 16762 9982 842 20253 54739 1414
shrinkage=0.05


Tree=27
num_leaves=31
num_cat=0
split_feature=2 5 5 5 1 1 2 2 1 1 5 1 2 3 5 3 2 1 3 2 1 2 1 5 1 2 1 1 1 1
split_gain=20368.7 13185.7 8254.58 2627.91 1188.08 916.456 449.924 443.054 306.15 203.23 196.597 195.52 204.464 194.049 185.323 176.112 184.757 180.601 153.946 134.493 118.444 111.311 105.445 102.636 92.0339 87.5758 83.7332 79.4404 77.3455 75.3705
threshold=1960000.0000000002 1.5000000000000002 4.5000000000000009 18.000000000000004 90000.000000000015 110000.00000000001 600000.00000000012 130000.00000000001 260000.00000000003 110000.00000000001 1.5000000000000002 130000.00000000001 270000.00000000006 2.5000000000000004 31.500000000000004 2.5000000000000004 850000.00000000012 160000.00000000003 1.5000000000000002 250000.00000000003 30000.000000000004 210000.00000000003 50000.000000000007 3.0000000000000004 280000.00000000006 410000.00000000006 60000.000000000007 680000.00000000012 700000.00000000012 680000.00000000012
decision_type=8 2 2 2 2 2 10 10 2 2 2 2 10 2 2 2 10 2 2 10 2 10 2 2 2 10 2 2 2 2
left_child=1 4 9 -4 7 19 11 20 -8 -3 29 12 -6 -12 -15 16 17 18 -7 22 -1 -19 -5 -11 -18 -17 -9 -10 -26 -2
right_child=10 2 3 5 6 15 8 26 27 23 13 -13 -14 14 -16 25 24 21 -20 -21 -22 -23 -24 -25 28 -27 -28 -29 -30 -31
leaf_value=-0.050994524183415615 -0.076665853025520869 -0.056897023194081603 0.05544581891860887 -0.051378551627518747 0.02879028043533946 -0.011184983736763576 -0.049892621445698039 -0.062372994261042591 0.025556433996321515 -0.052048629439694849 -0.063954614305528901 0.040058269540227766 -0.025910209407754532 0.01152818592258853 -0.065666579555351712 -0.045141642319175369 -0.050307676134924297 -0.027785361685522803 0.04587024323556272 -0.053552291265807454 0.013008871380181917 0.0087429570400449144 -0.020415426079327642 -0.029261305737674825 -0.0026124171751885335 0.012563835265634794 -0.022871023746813813 0.0042516646695927498 -0.036878665486430859 -0.058557409682993479
leaf_weight=76.589385390281677 5224.8167071640491 8704.2093402296305 2078.6356869786978 336.38960705697536 1975.5474951565266 2188.3083044439554 166.28162930905819 290.25945031642914 1775.2286426126957 879.64407408237457 5922.2696161717176 16341.386422708631 187.00503666698933 170.89430645108223 142.64625854790211 297.29040536284447 179.54225811362267 214.30410107970238 124.97974808514118 586.9900010228157 1286.0559210330248 7772.6515862494707 1505.852421656251 1127.5541888773441 668.52009080350399 84.41944220662117 249.43988046050072 580.67082653939724 218.50642824172974 645.6221426576376
leaf_count=223 13366 31635 23589 1025 9534 6592 561 748 8121 2797 19603 102834 634 612 434 804 481 629 480 1624 4641 27574 4636 3714 2074 274 783 1862 653 2194
internal_value=0 0.0837844 -0.39022 0.0588725 0.641295 -0.0950771 0.709765 -0.115487 0.313547 -1.07179 -1.36215 0.763771 0.481202 -1.2385 -0.471836 0.0205328 0.0429691 0.0839943 -0.162049 -0.654203 0.188229 0.155257 -0.521385 -0.784955 -0.353227 -0.647588 -0.882317 0.406107 -0.221068 -1.49349
