tree
version=v3
num_class=1
num_tree_per_iteration=1
label_index=0
max_feature_idx=6
objective=binary sigmoid:1
feature_names=income loan_amount property_value loan_type tract_owner_occupied_units loan_purpose business_or_commercial_purpose
feature_infos=[-4868:220027] [5000:85005000] [5000:59395000] [1:4] [0:19529] [1:32] [1:2]
tree_sizes=3364 3356 3372 3347 3356 3368 3339 3371 3384 3362 3360 3382 3355 3346 3345 3365 3350 3385 3369 3367 3386 3389 3392 3356 3406 3395 3381 3368 3400 3366 3370 3366 3359 3403 3367 3404 3388 3398 3383 3379 3390 3368 3375 3371 3341 3390 3371 3370 3381 3367 3369 3359 3372 3413 3373 3382 3384 3375 3392 3369 3358 3379 3370 3387 3370 3361 3362 3404 3378 3363 3376 3370 3371 3384 3400 3387 3391 3387 3374 3394 3384 3349 3378 3370 3364 3393 3399 3378 3366 3383 3390 3374 3362 3401 3383 3386 3373 3385 3358 3410 3377 3373 3354 3375 3370 3382 3364 3370 3382 3380 3383 3362 3364 3342 3370 3342 3363 3383 3364 3365 3363 3346 3364 3372 3387 3375 3377 3397 3344 3365 3343 3334 3354 3402 3341 3400 3365 3373 3377 3370 3385 3388 3399 3374 3363 3370 3387 3388 3395 3405 3375 3377 3353 3394 3402 3359 3373 3368 3389 3367 3369 3361 3364 3351 3370 3343 3367 3362 3370 3372 3366 3368 3346 3372 3365 3359 3331 3351 3390 3345 3363 3342 3364 3380 3363 3351 3368 3400 3366 3354 3401 3363 3371 3347 3336 3336 3346 3368 3364 3361 3357 3376 3375 3349 3407 3374 3353 3401 3333 3356 3327 3340 3371 3330 3360 3345 3336 3364 3363 3353 3334 3330 3368 3341 3331 3380 3353 3329 3346 3331 3323 3320 3386 3343 3360 3336 3355 3353 3333 3326 3369 3371 3380 3363 3376 3363 3367 3370 3345 3332 3329 3365 3348 3337 3351 3370 3371 3348 3364 3342 3379 3369 3394 3398 3393 3408 3364 3356 3341 3407 3369 3414 3402 3365 3409 3336 3375 3360 3337 3378 3357 3362 3357 3379 3384 3401 3354 3385 3375 3349 3362 3392 3343 3357 3341 3392 3354 3342 3357 3354 3379 3381 3331 3318 3372 3375 3342 3358 3365 3341 3384 3358 3394 3324 3389 3380 3322 3358 3367 3348 3342 3332 3349 3340 3330 3357 3341 3348 3339 3342 3341 3357 3333 3343 3403 3337 3331 3368 3358 3334 3344 3385 3355 3351 3378 3384 3385 3360 3362 3366 3386 3347 3390 3342 3369 3382 3341 3351 3348 3379 3342 3361 3330 3361 3343 3399 3349 3377 3370 3353 3335 3381 3352 3383 3338 3361 3371 3355 3332 3349 3371 3370 3367 3374 3393 3386 3342 3374 3369 3382 3381 3358 3369 3385 3390 3351 3365 3321 3360 3326 3374 3390 3366 3338 3348 3400 3386 3365 3359 3357 3361 3380 3354 3362 3356 3376 3388 3329 3348 3359 3376 3367

Tree=0
num_leaves=31
num_cat=0
split_feature=5 3 5 0 0 0 0 3 0 0 5 5 0 0 5 0 3 5 0 0 0 0 3 0 0 5 0 0 5 0
split_gain=10014.2 6565.39 2374 1174.97 831.715 294.382 220.892 178.983 160.605 137.846 128.71 93.064 85.0946 83.3426 63.8672 61.3348 40.4276 44.1793 35.6995 22.7639 23.0984 22.4177 22.3155 18.7248 13.0886 12.8114 12.2335 12.0076 11.1036 11.2286
threshold=1.5000000000000002 1.5000000000000002 4.5000000000000009 1.0000000180025095e-35 290.50000000000006 46.500000000000007 20.500000000000004 1.5000000000000002 837.00000000000011 36.500000000000007 4.5000000000000009 18.000000000000004 282.50000000000006 194.50000000000003 18.000000000000004 23.500000000000004 2.5000000000000004 18.000000000000004 60.500000000000007 54.500000000000007 149.50000000000003 14.500000000000002 2.5000000000000004 158.50000000000003 378.50000000000006 31.500000000000004 527.50000000000011 166.50000000000003 31.500000000000004 80.500000000000014
decision_type=2 2 2 10 8 10 10 2 8 10 2 2 10 10 2 10 2 2 10 10 10 10 2 10 10 2 10 10 2 10
left_child=4 2 -2 10 6 14 21 9 24 -8 -3 -12 18 19 -4 -16 17 -5 -7 -11 -21 -1 -9 28 -6 -18 -14 -24 29 -20
right_child=1 3 5 16 8 12 7 22 -10 13 11 -13 26 -15 15 -17 25 -19 23 20 -22 -23 27 -25 -26 -27 -28 -29 -30 -31
leaf_value=-0.076233753981224867 -0.086549480818999089 -0.081227784596724306 0.10805112062754409 -0.091952465580423359 0.010678130918760057 -0.026718747639444443 0.0193054567071788 0.09125424607487953 -0.078148460074972489 0.052321565339171705 0.10805112062754409 0.0029754252551112605 -0.043364186422675616 0.039515168503688518 -0.082687676301353111 -0.0460888873723512 -0.091952465580423359 0.010737192817072335 -0.012244751870505223 0.064743147066129048 0.053644137141707605 -0.010455704918223853 0.076508080723717189 -0.020205480392824965 -0.011558723340260662 -0.048657712940605405 -0.076387961042322858 0.035658924647142196 -0.010563735239952332 0.0028291388231887465
leaf_weight=25.447378009557724 2841.0222349315882 9.3242865800857526 5.9998923540115348 12.858259230852125 139.82184983789921 363.30904483795166 227.84894071519375 387.26746760308743 86.931288689374924 583.61160770058632 870.48438236117363 21.595338955521584 102.90547505021095 483.38893286883831 156.5065260976553 426.26416347920895 21.430432051420212 56.480857282876968 178.15088644623756 2958.6022697389126 557.01848566532135 26.381416395306587 414.04353015124798 340.0839726626873 125.63166752457619 84.305827841162682 38.549251109361649 18.807098418474197 950.99160388112068 403.03178921341896
leaf_count=101 11271 37 24 51 557 1445 908 1548 345 2329 3482 86 409 1928 621 1694 85 225 709 11813 2223 105 1654 1353 500 335 153 75 3785 1605
internal_value=0 -0.826662 -1.24716 1.44163 0.938067 -0.621359 1.03051 1.04943 -0.552714 0.975815 1.90206 1.94069 -0.46456 1.01356 -1.2544 -1.28781 -0.928974 -0.335572 -0.416967 1.05987 1.09023 -1.0245 1.48123 -0.3613 -0.166379 -1.31811 -1.21674 1.3252 -0.314185 -0.205289
internal_weight=0 6883.29 5806.81 1076.48 6034.8 2965.79 5682.42 5630.59 352.385 4810.47 901.404 892.08 2377.02 4582.62 588.771 582.771 175.075 69.3391 2235.57 4099.23 3515.62 51.8288 820.118 1872.26 265.454 105.736 141.455 432.851 1532.17 581.183
internal_count=51456 27370 23069 4301 24086 11798 22684 22478 1402 19201 3605 3568 9459 18293 2339 2315 696 276 8897 16365 14036 206 3277 7452 1057 420 562 1729 6099 2314
shrinkage=1


Tree=1
num_leaves=31
num_cat=0
split_feature=2 1 3 5 5 5 5 2 5 1 1 2 5 2 3 2 2 5 1 1 2 5 5 3 5 5 2 5 5 2
split_gain=11011.2 10635.9 4254.58 2568.1 1251.19 1226.08 1010.88 161.334 147.358 135.493 129.291 124.783 113.526 85.3937 74.8849 58.1057 52.1878 40.9122 40.5417 49.0011 36.6194 36.1898 23.4933 23.3414 29.7492 59.3717 20.1548 19.6203 19.3625 18.8525
threshold=1190000.0000000002 110000.00000000001 1.5000000000000002 1.5000000000000002 4.5000000000000009 1.5000000000000002 18.000000000000004 2795000.0000000005 18.000000000000004 60000.000000000007 160000.00000000003 650000.00000000012 4.5000000000000009 800000.00000000012 2.5000000000000004 80000.000000000015 240000.00000000003 1.5000000000000002 260000.00000000003 680000.00000000012 90000.000000000015 31.500000000000004 4.5000000000000009 2.5000000000000004 4.5000000000000009 31.500000000000004 320000.00000000006 18.000000000000004 4.5000000000000009 200000.00000000003
decision_type=8 2 2 2 2 2 2 8 2 2 2 10 2 10 2 10 10 2 2 2 10 2 2 2 2 2 10 2 2 10
left_child=1 2 5 11 -5 9 -6 17 22 15 -8 -3 -7 14 21 -1 20 -2 -13 -20 -11 -12 -4 -9 -25 27 -14 -26 -19 -23
right_child=7 3 8 4 6 12 10 23 -10 16 13 18 26 -15 -16 -17 -18 28 19 -21 -22 29 -24 24 25 -27 -28 -29 -30 -31
leaf_value=-0.0031079692788109885 -0.022729178338268534 0.082277565250490126 0.067284065956704012 -0.07251718533704575 0.094879086044510563 -0.092670429954608557 -0.013968373254153055 -0.099450485906372635 -0.046431505445913554 -0.0044755876186203698 0.037419151591431693 -0.026155000710653464 -0.058655262641850794 -0.020656331077502844 -0.040885594705416577 -0.074034029308307256 -0.02714673580481862 -0.08509461126429621 0.062935474787788923 0.0077973353706664132 0.045406368822507426 -0.072326046217590451 0.094879086044510563 -0.10204357590806895 0.094879086044510508 -0.097625358353850833 -0.088921494883942326 -0.015673148209296606 -0.052494424353452418 0.020238332151507332
leaf_weight=59.212392687797546 67.566810548305511 4206.6153859049082 96.698599800467491 336.38168850541115 483.83640977740288 2041.4064100086689 350.34846059978008 2149.9343867599964 20.871496632695198 45.669677346944809 446.8867184817791 17.076544761657715 336.36514489352703 118.0799358189106 43.230880036950111 56.364379331469536 38.420729219913483 88.290797412395477 228.68309827148914 48.912560626864433 189.29475308954716 5.5399989187717429 381.13646087050438 54.887852981686592 4.9854344129562405 30.23736834526062 65.758387371897697 20.583986669778824 94.081402346491814 776.52851438522339
leaf_count=236 269 16833 387 1338 1941 8113 1395 8534 83 182 1783 68 1337 470 172 224 153 351 914 195 756 22 1529 218 20 120 261 82 374 3096
internal_value=0 0.45187 -1.02104 1.14664 0.347146 -1.49525 0.618963 -1.88166 1.67229 0.153788 0.263547 1.60148 -1.75774 0.400362 0.475867 -0.753943 0.537541 -1.11928 0.972405 1.0644 0.714218 0.521371 1.78589 -1.96595 -1.51814 -1.00401 -1.27209 0.117639 -1.36554 0.391653
internal_weight=0 10393.3 3331.2 7062.12 2560.83 2832.49 2224.45 2510.57 498.707 388.962 1740.61 4501.29 2443.53 1390.27 1272.19 115.577 273.385 249.939 294.672 277.596 234.964 1228.96 477.835 2260.63 110.695 55.8068 402.124 25.5694 182.372 782.069
internal_count=51456 41488 13261 28227 10217 11262 8879 9968 1999 1551 6938 18010 9711 5543 5073 460 1091 994 1177 1109 938 4901 1916 8974 440 222 1598 102 725 3118
shrinkage=0.05


Tree=2
num_leaves=31
num_cat=0
split_feature=5 5 5 1 1 1 1 1 1 1 1 4 1 5 1 1 1 1 1 4 1 4 1 4 4 1 1 5 4 4
split_gain=8190.71 4665.48 3877.13 955.591 955.351 531.403 247.856 226.003 163.915 56.4768 42.7322 42.0941 39.4577 37.4869 30.0824 27.8612 26.9698 22.5056 21.0863 18.9895 13.3932 12.7428 11.677 13.2053 9.50111 9.35432 9.14887 8.2732 7.66664 7.29163
threshold=1.5000000000000002 4.5000000000000009 18.000000000000004 460000.00000000006 110000.00000000001 140000.00000000003 460000.00000000006 680000.00000000012 60000.000000000007 110000.00000000001 180000.00000000003 788.50000000000011 30000.000000000004 31.500000000000004 680000.00000000012 110000.00000000001 160000.00000000003 960000.00000000012 80000.000000000015 1728.5000000000002 50000.000000000007 142.50000000000003 350000.00000000006 684.50000000000011 2873.5000000000005 130000.00000000001 290000.00000000006 31.500000000000004 804.50000000000011 1473.5000000000002
decision_type=2 2 2 2 2 2 2 2 2 2 2 2 2 2 2 2 2 2 2 2 2 2 2 2 2 2 2 2 2 2
left_child=3 15 -3 4 8 9 10 29 12 20 -7 21 -1 22 -8 -2 -13 -9 -10 -18 -4 -6 23 -12 -25 -23 -15 -22 -20 -5
right_child=1 2 5 7 11 6 14 17 18 -11 13 16 -14 26 -16 -17 19 -19 28 -21 27 25 -24 24 -26 -27 -28 -29 -30 -31
leaf_value=-0.089921713262817837 -0.088905854304364734 0.090851321896560366 -0.087038782084157468 0.011770146742846852 0.0040507662984182371 -0.023372863451851134 -0.046167524352621406 -0.043049324263133237 -0.0089940276535416981 -0.043012864958990482 -0.021843329753912781 0.049743736885126844 -0.03573350478226154 -0.015282346410644186 -0.079159489814007944 -0.07650422497335195 0.057282932625545915 -0.074790344875774017 -0.0004397073504989323 0.064903174241244241 -0.074415252836551676 0.02455396764808233 0.018707315604518708 0.0023291876505577985 0.033795569655292242 0.048119388447325981 -0.0055464556241026051 -0.061388585145548527 0.018392879326873987 -0.003102202609089293
leaf_weight=45.076777786016464 2279.902040079236 867.57714878022671 100.00999371707439 223.13516466319561 18.00754502415657 426.4568981975317 184.5782093256712 119.57958461344242 140.38121737539768 276.52733463048935 54.463804706931114 708.19404365122318 131.87765671312809 583.48051449656487 110.43128395080566 565.13841740787029 1947.9446602761745 104.77938732504845 69.119458273053169 1408.8517580330372 213.71436843276024 44.936720594763756 121.80030292272568 341.79220506548882 25.800321772694588 669.83536441624165 411.45850174129009 283.65804636478424 247.7276104837656 130.68216879665852
leaf_count=179 9117 3506 398 892 72 1699 735 476 560 1101 217 2841 525 2325 440 2259 7815 417 276 5655 851 180 486 1363 103 2686 1640 1130 990 522
internal_value=0 -0.749842 -0.053818 0.849878 0.979969 -0.571691 -0.315653 -0.372322 -0.173527 -1.2339 -0.187352 1.13244 -0.990745 -0.109724 -1.17035 -1.72885 1.17221 -1.15746 0.142749 1.20962 -1.40686 0.911826 0.101384 0.0226682 0.0907546 0.932757 -0.225121 -1.33972 0.285692 0.125541
internal_weight=0 6846.79 4001.75 6010.13 5431.95 3134.17 2260.26 578.176 634.183 873.91 1965.25 4797.77 176.954 1538.8 295.009 2845.04 4064.99 224.359 457.228 3356.8 597.382 732.78 543.857 422.056 367.593 714.772 994.939 497.372 316.847 353.817
internal_count=51456 27370 15994 24086 21779 12488 9008 2307 2530 3480 7833 19249 704 6134 1175 11376 16311 893 1826 13470 2379 2938 2169 1683 1466 2866 3965 1981 1266 1414
shrinkage=0.05


Tree=3
num_leaves=31
num_cat=0
split_feature=2 1 3 5 5 5 5 2 5 1 1 2 5 2 2 3 2 1 1 5 5 1 3 5 5 2 1 3 2 1
split_gain=9775.27 8895.17 3537.69 2130.89 1044.32 1041.3 816.703 160.608 121.213 114.529 108.319 102.705 101.842 73.8858 73.3547 67.1896 41.1288 38.673 38.803 36.9975 30.2483 27.6982 19.1533 29.5288 46.6414 18.4905 17.2184 29.7038 21.3025 17.1654
threshold=1190000.0000000002 110000.00000000001 1.5000000000000002 1.5000000000000002 4.5000000000000009 1.5000000000000002 18.000000000000004 2915000.0000000005 18.000000000000004 50000.000000000007 160000.00000000003 650000.00000000012 4.5000000000000009 800000.00000000012 300000.00000000006 2.5000000000000004 70000.000000000015 260000.00000000003 680000.00000000012 1.5000000000000002 31.500000000000004 80000.000000000015 2.5000000000000004 3.0000000000000004 31.500000000000004 270000.00000000006 170000.00000000003 1.5000000000000002 440000.00000000006 60000.000000000007
decision_type=8 2 2 2 2 2 2 8 2 2 2 10 2 10 10 2 10 2 2 2 2 2 2 2 2 10 2 2 10 2
left_child=1 2 5 11 -5 9 -6 19 -4 16 -8 26 -7 15 21 20 -1 -13 -19 -2 -12 -11 -9 -24 -25 29 27 28 -3 -14
right_child=7 3 8 4 6 12 10 22 -10 14 13 17 25 -15 -16 -17 -18 18 -20 -21 -22 -23 23 24 -26 -27 -28 -29 -30 -31
leaf_value=-0.0083713508325777442 -0.019577352233772341 0.0650554066347446 0.082543254719732784 -0.065887733171711538 0.087271966022669428 -0.085004989890919341 -0.011569732815446652 -0.094178659315206636 -0.040853895413705918 0.0095915219557973531 0.035596445061279389 -0.027562572723479135 -0.069477572165660487 -0.018306128519601464 -0.051498759793975481 -0.038268142701638808 -0.08303028159211942 0.058679424887293025 0.0095990102525395499 -0.062700160434324623 0.019288561092376366 0.041612691555475666 -0.1003846800705534 -0.0029195610407583752 -0.092093198436369095 -0.078489778974630539 0.077773534881020248 0.083324311844606799 -0.0053218478798451076 -0.044194704542485225
leaf_weight=34.640123009681702 67.996482104063034 606.41320426762104 470.43008108437061 332.37902933359146 474.92859899997711 2008.9091715216637 349.9163948148489 2132.6963263005018 20.780312269926071 111.3240888863802 446.78675039112568 17.062570571899414 96.4769257158041 117.92858251929283 31.43016542494297 43.139181569218636 39.46092377603054 227.70595225691795 48.922895297408104 185.24596744775772 782.07717950642109 171.6805694103241 51.655682370066643 28.657485023140907 30.028650403022766 82.236319467425346 3266.8597675263882 284.93558743596077 10.946519985795019 220.72848817706108
leaf_count=138 271 2444 1916 1338 1941 8113 1395 8514 83 444 1783 68 386 470 125 172 157 914 195 743 3118 687 205 115 120 329 13192 1153 44 883
internal_value=0 0.428387 -0.92863 1.06491 0.335113 -1.36332 0.583165 -1.77733 1.54646 0.155806 0.265897 1.48143 -1.6084 0.391091 0.419371 0.461293 -0.962587 0.909865 0.999987 -1.02243 0.504355 0.580334 -1.86255 -1.4563 -0.970962 -1.14724 1.5217 1.39941 1.27615 -1.03769
internal_weight=0 10298.1 3288.1 7010 2547.16 2796.89 2214.78 2496.28 491.21 388.536 1739.85 4462.85 2408.35 1389.93 314.435 1272 74.101 293.691 276.629 253.242 1228.86 283.005 2243.04 110.342 58.6861 399.442 4169.16 902.295 617.36 317.205
internal_count=51456 41488 13261 28227 10217 11262 8879 9968 1999 1551 6938 18010 9711 5543 1256 5073 295 1177 1109 1014 4901 1131 8954 440 235 1598 16833 3641 2488 1269
shrinkage=0.05


Tree=4
num_leaves=31
num_cat=0
split_feature=2 1 3 5 5 5 5 2 5 1 1 5 2 2 2 3 2 1 1 5 5 1 3 5 5 2 5 2 1 1
split_gain=8893.33 8095.96 3229.4 1951.36 958.147 948.789 754.627 147.487 111.121 103.623 97.7939 96.742 95.5389 67.022 66.276 61.0172 37.4862 35.0852 35.407 33.9849 27.9529 25.1334 18.0271 26.8054 48.9034 17.2932 17.2102 16.9471 16.8607 16.5213
threshold=1190000.0000000002 110000.00000000001 1.5000000000000002 1.5000000000000002 1.5000000000000002 4.5000000000000009 18.000000000000004 2915000.0000000005 18.000000000000004 50000.000000000007 160000.00000000003 4.5000000000000009 650000.00000000012 780000.00000000012 300000.00000000006 2.5000000000000004 70000.000000000015 260000.00000000003 680000.00000000012 1.5000000000000002 31.500000000000004 80000.000000000015 2.5000000000000004 4.5000000000000009 31.500000000000004 320000.00000000006 4.5000000000000009 200000.00000000003 90000.000000000015 360000.00000000006
decision_type=8 2 2 2 2 2 2 8 2 2 2 2 10 10 10 2 10 2 2 2 2 2 2 2 2 10 2 10 2 2
left_child=1 2 4 12 9 -5 -7 19 26 16 -8 -6 -3 15 21 20 -1 -14 -19 -2 -12 -11 -9 -24 -25 28 -4 -22 -13 -15
right_child=7 3 8 5 11 6 10 22 -10 14 13 25 17 29 -16 -17 -18 18 -20 -21 27 -23 23 24 -26 -27 -28 -29 -30 -31
leaf_value=-0.0079534356024498591 -0.01860734167338465 0.07294901470154723 0.060513701904272112 -0.063160126813772074 -0.08184602513753883 0.084157062906373051 -0.010996448278324361 -0.090209104392276432 -0.038936040339001755 0.0091132869895948296 0.034165563842736481 -0.058033106620629195 -0.026162918768791704 -0.04799554945748967 -0.048937339701392329 -0.036442677863467471 -0.079322751849148734 0.056022568343749961 0.0091190278940703248 -0.059982057252053834 -0.068795440133305713 0.039632075075618139 -0.094224692080486228 0.0060451213101033663 -0.088390547023854085 -0.078470725517119186 0.084318971935537779 0.019045822221927283 -0.034006155760740703 -0.0058592311496968716
leaf_weight=34.637351706624031 67.964890539646149 4131.8839548230171 95.591191679239273 329.46927773952484 1982.7731943130493 468.05290009081364 349.75496990978718 2115.6220593303442 20.715316414833069 111.30809436738491 442.43420115113258 224.2665950357914 17.076220631599426 30.655257910490036 31.421527922153473 43.037608176469803 39.245117500424385 226.60672052204609 48.92304439842701 183.98972904682159 5.5301891118288031 171.25776594877243 54.758626043796539 25.440196126699448 29.729475826025009 64.65928453207016 369.02954234182835 771.30066819489002 108.26472152769566 96.475727185606956
leaf_count=138 271 16833 387 1338 8113 1941 1395 8514 83 444 1767 902 68 122 125 172 157 914 195 743 22 687 218 102 120 261 1529 3075 435 385
internal_value=0 0.41037 -0.891948 1.01898 -1.30916 0.319746 0.556029 -1.70157 1.48739 0.14827 0.252699 -1.54668 1.41988 0.371671 0.398997 0.441371 -0.917272 0.867683 0.953888 -0.976424 0.482678 0.552203 -1.78367 -1.38884 -0.896875 -1.09622 1.58843 0.36841 -1.00421 -0.320392
internal_weight=0 10214.4 3253.17 6961.2 2767.83 2536.71 2207.24 2477.5 485.336 387.87 1739.19 2379.96 4424.49 1389.43 313.987 1262.3 73.8825 292.606 275.53 251.955 1219.27 282.566 2225.55 109.928 55.1697 397.191 464.621 776.831 332.531 127.131
internal_count=51456 41488 13261 28227 11262 10217 8879 9968 1999 1551 6938 9711 18010 5543 1256 5036 295 1177 1109 1014 4864 1131 8954 440 222 1598 1916 3097 1337 507
shrinkage=0.05


Tree=5
num_leaves=31
num_cat=0
split_feature=2 0 0 2 2 2 0 2 2 0 0 2 2 2 0 2 2 2 0 4 2 0 2 0 2 2 0 0 0 2
split_gain=8117.99 1072.2 609.661 336.571 312.512 188.947 172.668 139.145 137.15 130.093 111.612 179.945 86.0662 48.3919 36.1105 34.5406 32.2007 28.9522 28.2304 26.017 25.7333 23.9109 21.5376 20.3597 17.6987 17.108 15.9736 13.308 13.1779 51.1083
threshold=1190000.0000000002 36.500000000000007 36.500000000000007 130000.00000000001 600000.00000000012 430000.00000000006 22.500000000000004 250000.00000000003 2915000.0000000005 102.50000000000001 56.500000000000007 300000.00000000006 210000.00000000003 90000.000000000015 inf 200000.00000000003 800000.00000000012 400000.00000000006 62.500000000000007 1765.5000000000002 120000.00000000001 180.50000000000003 60000.000000000007 200.50000000000003 350000.00000000006 700000.00000000012 18.500000000000004 495.50000000000006 80.500000000000014 450000.00000000006
decision_type=8 8 10 10 10 10 10 10 8 10 10 10 10 10 8 10 10 10 10 2 10 10 10 10 10 10 10 10 10 10
left_child=1 6 5 13 10 15 20 22 21 18 11 -5 -12 -4 -10 -3 -11 -13 -6 28 26 -2 -8 -18 -9 -20 -1 -25 29 -14
right_child=8 2 3 4 9 -7 7 24 14 16 12 17 19 -15 -16 -17 23 -19 25 -21 -22 -23 -24 27 -26 -27 -28 -29 -30 -31
leaf_value=-0.0624872001792601 -0.06286318882392368 0.074075835151150682 -0.036880124011615174 0.024020044383289672 -0.067288825311265607 -0.035346198974586844 -0.047612689186188523 -0.042869285577733153 -0.08713846527672231 0.015496812371750846 0.016365452092020862 -0.0087264706913115133 0.029516773101409356 -0.0060585023207846032 -0.056535060566122924 0.051052745229524792 -0.018295596852563902 -0.041243858419299007 -0.0092068886723992351 0.038233183605609636 -0.07861408328221467 -0.031927737300703626 -0.0032101737540370431 0.014939649928210961 -0.075525397323863111 -0.040101894840506719 -0.015288890581180478 -0.037570157636512468 0.03223978940964406 -0.0080664696860639606
leaf_weight=44.205102935433388 119.39560271799564 665.53579349815845 199.60621801018715 953.79907032847404 54.790968477725983 46.149306654930115 28.968720778822899 86.831988662481308 2098.9656827300787 433.93953983485699 952.89719839394093 185.639942958951 731.32159221172333 351.80845105648041 101.03012670576572 215.70845440030098 155.60446541011333 108.43772982060909 80.822836011648178 1518.2950482964516 169.92213223874569 130.99359530210495 476.95459932088852 107.48350955545902 79.458495616912842 100.55915682017803 30.154878780245781 13.592112630605696 2216.1836240291595 103.22506137192249
leaf_count=181 484 2802 813 3911 223 190 118 354 8540 1765 3910 758 2995 1438 414 905 630 442 329 6235 694 530 1949 434 324 408 123 55 9081 421
internal_value=0 0.393887 0.496689 0.410452 0.464386 1.26551 -0.637548 -0.375891 -1.63485 -0.0737363 0.539646 0.269545 0.600685 -0.344312 -1.71466 1.36881 0.13996 -0.414338 -0.716726 0.657699 -1.35757 -0.93358 -0.115052 -0.126628 -1.16947 -0.526705 -0.866942 0.180897 0.604464 0.497362
internal_weight=0 10111.9 9195.4 8268.01 7716.59 927.394 916.496 672.214 2450.39 946.793 6769.8 1247.88 5521.92 551.415 2200 881.244 710.62 294.078 236.173 4569.03 244.282 250.389 505.923 276.68 166.29 181.382 74.36 121.076 3050.73 834.547
internal_count=51456 41488 37745 33848 31597 3897 3743 2745 9968 3844 27753 5111 22642 2251 8954 3707 2884 1200 960 18732 998 1014 2067 1119 678 737 304 489 12497 3416
shrinkage=0.05


Tree=6
num_leaves=31
num_cat=0
split_feature=2 1 0 2 2 1 0 1 2 0 2 0 2 1 2 1 1 0 1 2 2 0 1 2 2 2 1 1 0 2
split_gain=7417.59 7313.57 1964.87 548.087 546.786 446.411 419.542 330.385 248.334 148.761 148.697 131.806 129.179 110.671 278.395 56.5729 53.3154 52.2219 44.8227 41.023 39.8366 34.0053 32.5112 31.8741 31.2732 26.6189 26.0435 24.7595 21.6026 65.0521
threshold=1190000.0000000002 110000.00000000001 inf 150000.00000000003 600000.00000000012 60000.000000000007 24.500000000000004 310000.00000000006 160000.00000000003 41.500000000000007 300000.00000000006 69.500000000000014 2915000.0000000005 160000.00000000003 250000.00000000003 90000.000000000015 40000.000000000007 329.50000000000006 70000.000000000015 270000.00000000006 80000.000000000015 inf 260000.00000000003 800000.00000000012 400000.00000000006 120000.00000000001 260000.00000000003 260000.00000000003 63.500000000000007 350000.00000000006
decision_type=8 2 8 10 10 2 8 2 10 8 10 10 8 2 10 2 2 8 2 10 10 8 2 10 10 10 2 2 8 10
left_child=1 2 3 5 6 16 -3 27 -4 10 -8 -9 22 14 17 25 -1 -11 -5 -20 -18 -14 -2 -13 -16 -7 -12 -6 29 -15
right_child=12 4 8 18 7 15 9 11 -10 13 26 23 21 28 24 -17 20 -19 19 -21 -22 -23 -24 -25 -26 -27 -28 -29 -30 -31
leaf_value=-0.076094276359025853 -0.074651431270375185 -0.07509202924945077 0.072371140053413982 -0.079490942353973748 -0.056284164270584726 -0.0007505275944608426 0.039544102001934277 -0.055636737988069888 -0.047652355190898325 0.045693557957530183 -0.021335807483549168 0.043220294300508999 -0.08405431303199716 0.059386321587863666 -0.0028693100817115623 0.025267044091073072 -0.01653711259986769 0.072874407089571561 -0.043493011772076692 -0.07230617271615003 -0.064422102977935422 -0.054215938211031038 -0.03375285231998177 0.018666234748551169 -0.049586761695684885 -0.038350733720584423 -0.090432808531111769 -0.014982526681418935 0.061620878607949486 0.02203114153783647
leaf_weight=286.42274907231331 66.212217509746552 63.241866409778595 364.4138768017292 1301.7306053191423 152.56740483641624 209.25113159418106 360.49539044499397 44.14317661523819 48.877047553658485 693.2736447006464 57.013127222657204 354.71616978943348 2067.9554062485695 623.30597904324532 100.45279259979725 212.77107891440392 85.048482611775398 237.164236292243 187.69556817412376 361.37837274372578 88.764365717768669 100.10759317874908 182.58386026322842 210.66476303339005 55.677272021770477 60.732167422771454 17.924451798200607 47.610341787338257 3711.515166759491 143.35044828057289
leaf_count=1188 273 255 1560 5383 620 847 1472 178 203 2835 230 1437 8540 2562 407 862 345 1015 766 1493 366 414 741 847 226 248 72 193 15297 581
internal_value=0 0.375417 -0.87154 -1.17259 0.957263 -0.552075 1.06033 0.185422 1.16354 1.08734 0.524448 0.551488 -1.57521 1.13138 0.845088 0.119726 -1.25675 1.05244 -1.48875 -1.24913 -0.819829 -1.65353 -0.892744 0.681426 -0.390583 -0.184172 -0.757265 -0.929219 1.20085 1.04803
internal_weight=0 10080.2 3207.09 2793.79 6873.12 942.99 6063.41 809.702 413.291 6000.17 435.433 609.524 2416.86 5564.74 1086.57 482.754 460.236 930.438 1850.8 549.074 173.813 2168.06 248.796 565.381 156.13 269.983 74.9376 200.178 4478.17 766.656
internal_count=51456 41488 13261 11498 28227 3856 24952 3275 1763 24697 1774 2462 9968 22923 4483 1957 1899 3850 7642 2259 711 8954 1014 2284 633 1095 302 813 18440 3143
shrinkage=0.05


Tree=7
num_leaves=31
num_cat=0
split_feature=5 3 5 1 1 5 1 5 1 1 3 1 3 1 1 3 3 1 1 4 1 1 3 3 5 1 1 4 1 1
split_gain=5804.42 3618.11 1461.51 633.575 613.406 585.498 376.432 225.999 181.039 144.149 118.784 76.5055 51.211 79.7475 37.2276 36.0225 32.9346 28.7311 25.7513 25.129 22.9878 22.6376 18.4719 18.4636 13.8725 13.8479 13.2679 11.6904 11.4314 13.6378
threshold=1.5000000000000002 1.5000000000000002 4.5000000000000009 460000.00000000006 110000.00000000001 18.000000000000004 150000.00000000003 4.5000000000000009 460000.00000000006 680000.00000000012 1.5000000000000002 40000.000000000007 1.5000000000000002 160000.00000000003 90000.000000000015 2.5000000000000004 1.5000000000000002 280000.00000000006 80000.000000000015 1392.5000000000002 160000.00000000003 680000.00000000012 2.5000000000000004 1.5000000000000002 31.500000000000004 1500000.0000000002 60000.000000000007 306.50000000000006 80000.000000000015 160000.00000000003
decision_type=2 2 2 2 2 2 2 2 2 2 2 2 2 2 2 2 2 2 2 2 2 2 2 2 2 2 2 2 2 2
left_child=3 2 20 4 10 7 14 -3 17 23 11 -1 13 -6 -4 28 25 -8 -13 27 -2 -10 -14 -5 -19 -11 -12 -15 -7 -30
right_child=1 5 6 9 12 15 8 -9 21 16 26 18 22 19 -16 -17 -18 24 -20 -21 -22 -23 -24 -25 -26 -27 -28 -29 29 -31
leaf_value=-0.063200619348724493 -0.076540224103780752 -0.076313729739050831 -0.063050617055377553 0.0021713322571598778 0.028793279292216312 -0.057470027753779976 -0.010523428475478991 0.077667548555461763 -0.038064725657459504 -0.043750185020546888 -0.0014741301380890286 -0.020440103332932381 0.069982668353893038 0.022137223359229598 -0.042145340770478351 -0.043497728995927867 0.07526561696128764 0.012448040670432226 0.0037026970415998638 0.052948530482990731 -0.062805507021126319 -0.06769118587172096 0.053157565324661038 0.041611251116326076 -0.0026955614166991899 -0.078919336449567792 0.050281872540836742 0.045134498280627086 0.036163008638823761 -0.014851620336371989
leaf_weight=70.200606048107147 2317.2957012653351 24.563182696700096 359.09786038100719 311.54304811358452 580.70940706133842 6.6359873563051215 1077.7937086075544 797.48679032921791 172.79234899580479 177.59456576406956 14.30555312335491 199.21881929039955 305.44413807988167 57.310611143708229 523.28142213821411 116.86276389658451 5.4439831823110572 235.9209718555212 247.87388084828854 1775.5367637425661 350.76055285334587 102.86079721152782 350.1247460693121 32.798557922244072 421.27233117818832 33.226547390222549 92.133143782615662 1544.9316381067038 27.857455179095268 24.731239035725594
leaf_count=288 9801 105 1490 1278 2397 27 4372 3482 707 730 58 804 1282 238 2136 475 22 957 1003 7427 1470 432 1466 136 1704 141 377 6439 112 100
internal_value=0 -0.646213 -0.960865 0.727091 0.835235 1.10686 -0.46855 1.46133 -0.229588 -0.283301 -0.0955357 -0.293488 0.961057 0.918184 -1.01306 -0.547969 -0.923151 -0.109982 -0.141101 0.977035 -1.49469 -0.982399 1.21994 0.11856 0.0548146 -0.985861 0.866515 0.886238 0.0873757 0.24344
internal_weight=0 6559.21 5561.08 5798.4 5237.79 998.137 2893.02 822.05 2010.64 560.607 623.732 517.293 4614.06 3958.49 882.379 176.087 216.265 1734.99 447.093 3377.78 2668.06 275.653 655.569 344.342 657.193 210.821 106.439 1602.24 59.2247 52.5887
internal_count=51456 27370 23069 24086 21779 4301 11798 3587 8172 2307 2530 2095 19249 16501 3626 714 893 7033 1807 14104 11271 1139 2748 1414 2661 871 435 6677 239 212
shrinkage=0.05


Tree=8
num_leaves=31
num_cat=0
split_feature=1 3 1 3 0 1 1 1 0 0 0 4 3 1 3 0 0 3 0 0 0 1 1 0 3 0 0 4 0 4
split_gain=4315.52 2409.3 853.011 508.444 681.004 389.702 168.573 136.467 107.441 101.514 82.3841 68.9477 55.0174 50.8157 43.4203 43.1687 38.9669 38.7064 51.2441 31.6868 28.7137 66.6997 25.9849 31.5993 25.2949 24.3713 22.7173 20.1051 20.0305 17.3525
threshold=110000.00000000001 1.5000000000000002 460000.00000000006 1.5000000000000002 33.500000000000007 160000.00000000003 60000.000000000007 680000.00000000012 -1.0000000180025095e-35 24.500000000000004 300.50000000000006 1667.5000000000002 2.5000000000000004 190000.00000000003 1.5000000000000002 56.500000000000007 69.500000000000014 1.5000000000000002 86.500000000000014 298.50000000000006 57.500000000000007 290000.00000000006 260000.00000000003 150.50000000000003 3.5000000000000004 290.50000000000006 34.500000000000007 684.50000000000011 75.500000000000014 352.50000000000006
decision_type=2 2 2 2 10 2 2 2 10 10 8 2 2 2 2 8 10 2 10 10 10 2 2 10 2 10 10 2 10 2
left_child=1 6 3 4 9 16 -1 17 -3 -2 12 19 -5 -11 -9 -8 -6 18 -4 20 21 -7 23 27 26 -20 -14 -22 -10 -24
right_child=2 8 7 10 5 11 15 14 28 13 -12 -13 24 -15 -16 -17 -18 -19 25 -21 22 -23 29 -25 -26 -27 -28 -29 -30 -31
leaf_value=-0.071703619985714825 -0.079474976380759038 0.072106448008600763 -0.06925706039464273 0.058959308631664036 0.0049284102631911991 0.01973011570180886 -0.037549863317085791 -0.054561821088947637 0.026652475094038227 -0.0062054186634249485 0.071141693100630843 0.036354407149650242 -0.034491160762678531 -0.076248921274246026 0.062830916484996113 -0.055716151004599035 -0.014374321457521376 0.032196964490532255 -0.0060349905168302813 -0.00067057816525046155 0.0096758538770881485 -0.045332976033467795 0.0064923686174144183 0.0025047423187272008 0.062939464036085177 -0.036966449045605684 0.029817874731465518 0.02817847639059964 -0.034560598077790043 0.03258167988124961
leaf_weight=1799.4193643629551 167.17613412439823 352.75331935286522 40.899367660284042 349.53579288721085 505.62651501595974 409.0411192625761 549.25966142117977 330.9508303552866 122.15804743766785 112.09079782664776 452.44364494085312 1786.3626821190119 14.291022613644598 33.673012658953667 8.0688470005989057 808.23024566471577 541.42144159972668 46.245112493634224 401.5199308693409 123.62536063790321 177.09308660030365 43.588310927152634 66.669013246893883 183.51734404265881 57.650394409894943 75.686279699206352 351.45883998274803 858.81229761242867 15.005867600440977 1448.2205320745707
leaf_count=7728 690 1577 169 1481 2086 1693 2299 1393 503 460 2013 7476 59 137 33 3408 2241 193 1649 513 736 178 276 764 244 315 1477 3576 62 6027
internal_value=0 -0.913167 0.385297 0.493385 0.381312 0.454606 -1.23336 -0.533888 1.15011 -1.05767 1.08393 0.568755 0.885551 -0.447724 -1.03536 -0.967316 -0.101058 -0.232644 -0.310886 0.483319 0.502588 0.269291 0.541207 0.432552 0.643142 -0.218816 0.546102 0.500307 0.399114 0.62867
internal_weight=0 3646.83 8585.67 7682.3 6456.92 6143.98 3156.91 903.37 489.917 312.94 1225.38 5096.93 772.936 145.764 339.02 1357.49 1047.05 564.351 518.106 3310.57 3186.94 452.629 2734.31 1219.42 423.4 477.206 365.75 1035.91 137.164 1514.89
internal_count=51456 15577 35879 32127 26853 25566 13435 3752 2142 1287 5274 21239 3261 597 1426 5707 4327 2326 2133 13763 13250 1871 11379 5076 1780 1964 1536 4312 565 6303
shrinkage=0.05


Tree=9
num_leaves=31
num_cat=0
split_feature=5 0 5 1 1 5 5 0 1 1 1 1 0 0 1 1 0 0 0 1 0 1 0 0 0 1 1 5 1 1
split_gain=5130.9 2927.33 1302.83 535.766 492.957 485.755 434.289 408.681 296.837 127.142 121.82 97.7624 79.3726 45.9069 30.664 29.0254 44.664 27.4177 19.3416 60.2188 21.4499 19.161 23.7684 18.537 18.2095 17.6154 17.5579 17.3566 16.9708 16.3019
threshold=1.5000000000000002 inf 18.000000000000004 460000.00000000006 110000.00000000001 4.5000000000000009 18.000000000000004 22.500000000000004 140000.00000000003 460000.00000000006 680000.00000000012 50000.000000000007 33.500000000000007 63.500000000000007 90000.000000000015 270000.00000000006 60.500000000000007 55.500000000000007 35.500000000000007 200000.00000000003 149.50000000000003 140000.00000000003 66.500000000000014 14.500000000000002 168.50000000000003 30000.000000000004 270000.00000000006 31.500000000000004 80000.000000000015 680000.00000000012
decision_type=2 8 2 2 2 2 2 10 2 2 2 2 10 8 2 2 10 10 10 2 10 2 10 10 10 2 2 2 2 2
left_child=3 2 -2 4 11 -3 -7 -6 14 12 17 25 -10 23 -4 24 -17 -5 19 -9 21 22 -20 -13 -14 -1 -22 -18 -15 -11
right_child=1 5 8 10 7 6 -8 18 9 29 -12 13 15 28 -16 16 27 -19 20 -21 26 -23 -24 -25 -26 -27 -28 -29 -30 -31
leaf_value=-0.071084199527728195 -0.070919661679930177 -0.073189275933285183 -0.058885762600494967 -0.08866055660258193 -0.086846598561970995 0.073958535908156417 -0.057063894313651921 0.040443485665840821 -0.056816387720946548 -0.035440298995100282 -0.042109738237397693 -0.062986475028228781 -0.009029774741638014 -0.03187899825383516 -0.039286111619781072 -0.040624457295072941 0.016628785302209625 0.0081679294824767972 0.048344321265675574 -0.059688496182823118 0.030200929300462351 0.050263759889577354 0.020471070876978966 0.01984210104635269 -0.034003066425545632 -0.02959605872297957 0.045345683192953436 -0.00030529579841727101 -0.0011459126486545836 -0.061133682340166688
leaf_weight=42.21166855096817 2528.4095299094915 70.888047784566879 356.94668927788734 7.473171815276145 57.997403293848038 765.94481259584427 68.937415719032288 130.63825196027756 79.351367175579071 173.59601020812988 212.20019215345383 6.9027203470468512 1024.5062458515167 72.781033664941788 452.5896565169096 56.239823624491692 236.71389155089855 336.45806795358658 195.6265114992857 16.96491003036499 288.24937789142132 3163.9721348583698 125.58078621327877 315.42046722769737 78.593679189682007 64.954536199569702 569.44699656963348 419.41941921412945 117.33685377240181 95.807239264249802
leaf_count=179 11070 306 1520 31 237 3506 286 546 323 715 893 28 4155 296 1867 227 962 1383 821 69 1206 13446 522 1283 321 268 2402 1698 476 414
internal_value=0 -0.616439 -0.890671 0.686273 0.786632 1.04941 1.2628 0.900621 -0.441981 -0.248752 -0.246348 -0.0501543 -0.15736 0.131495 -0.958563 -0.11457 0.0427727 0.121279 0.934687 0.578694 0.946786 0.98165 0.748937 0.361366 -0.216181 -0.918756 0.805119 0.116081 -0.258223 -0.891552
internal_weight=0 6407.94 5502.17 5724.22 5168.08 905.77 834.882 4548.48 2973.76 2164.23 556.131 619.607 1894.82 512.441 809.536 1815.47 712.373 343.931 4490.48 147.603 4342.88 3485.18 321.207 322.323 1103.1 107.166 857.696 656.133 190.118 269.403
internal_count=51456 27370 23272 24086 21779 4098 3792 19249 12202 8815 2307 2530 7686 2083 3387 7363 2887 1414 19012 615 18397 14789 1343 1311 4476 447 3608 2660 772 1129
shrinkage=0.05


Tree=10
num_leaves=31
num_cat=0
split_feature=5 0 5 1 1 5 5 0 1 1 1 1 0 1 0 4 5 0 1 0 0 1 0 0 1 1 0 1 1 4
split_gain=4686.57 2686.62 1234.6 489.303 452.239 450.17 403.557 372.658 273.497 111.467 104.759 89.1344 76.3159 47.8763 41.4639 30.2708 27.933 26.1454 24.0392 20.9214 19.0774 17.4992 17.4825 16.8021 16.618 16.1194 15.9145 15.9281 15.5746 14.798
threshold=1.5000000000000002 inf 18.000000000000004 460000.00000000006 110000.00000000001 4.5000000000000009 18.000000000000004 21.500000000000004 120000.00000000001 700000.00000000012 460000.00000000006 50000.000000000007 38.500000000000007 180000.00000000003 63.500000000000007 780.50000000000011 31.500000000000004 55.500000000000007 230000.00000000003 24.500000000000004 26.500000000000004 160000.00000000003 149.50000000000003 14.500000000000002 30000.000000000004 140000.00000000003 837.00000000000011 80000.000000000015 680000.00000000012 1502.5000000000002
decision_type=2 8 2 2 2 2 2 10 2 2 2 2 10 2 8 2 2 10 2 10 10 2 10 10 2 2 8 2 2 2
left_child=3 2 21 4 11 -3 -7 -6 -4 17 12 24 18 -14 23 -9 -15 -5 19 -10 25 -2 -22 -13 -1 -17 27 -16 -12 -24
right_child=1 5 8 9 7 6 -8 15 10 -11 28 14 13 16 26 20 -18 -19 -20 -21 22 -23 29 -25 -26 -27 -28 -29 -30 -31
leaf_value=-0.068826660619378449 -0.070607426005789883 -0.071101635797280058 -0.050653995019385084 -0.085264028262734354 -0.085066131705699544 0.072255975347209664 -0.054753073047025182 0.035010232410878778 -0.073024212677712128 -0.041672846873037253 -0.033849914644616307 -0.060272359264857051 -0.020033806410909252 0.007575019794264214 -0.028255499968711396 0.035336053842292374 -0.0071507199186001263 0.0070987293674465261 -0.08076621977106023 -0.022834745134493767 0.048463777341533454 -0.058269721538280854 0.031809237608758201 0.018858756381953112 -0.028262262679137413 -0.0582866222009134 -0.084867752836511337 0.0021663249007134698 -0.05912944180419593 0.046291399132927
leaf_weight=41.436083540320396 2140.0328973084688 69.359688952565193 618.73783597350121 7.8350212126970282 55.907902911305428 745.31575629115105 68.271466821432114 666.91330306231976 25.855694621801376 199.27881488204002 172.68788258731365 6.8540930747985831 496.88092504441738 495.6242123991251 69.402079626917839 11.086434721946718 919.46332113444805 346.93796102702618 32.471687778830528 105.43247352540493 3049.1966799348593 331.98602949082851 321.1077946126461 315.27745774388313 64.627425894141197 7.8550146967172614 7.2626414597034445 113.21393403410912 94.144384786486626 391.38574488461018
leaf_count=179 9633 306 2639 33 230 3506 286 2827 108 847 715 28 2024 2015 283 46 3725 1427 133 429 13091 1437 1355 1283 268 32 30 459 414 1668
internal_value=0 -0.59437 -0.85728 0.657719 0.754293 1.02348 1.23196 0.864379 -0.421753 -0.234987 -0.265567 -0.0478225 -0.189746 -0.133631 0.125018 0.896631 -0.0398627 0.101179 -0.844924 -0.65438 0.931281 -1.37901 0.936322 0.343501 -0.882193 -0.069785 -0.245641 -0.187906 -0.855382 0.795291
internal_weight=0 6316.26 5433.32 5675.58 5121.53 882.947 813.587 4503.45 2961.3 554.052 2342.56 618.074 2075.73 1911.97 512.01 4447.54 1415.09 354.773 163.76 131.288 3780.63 2472.02 3761.69 322.132 106.064 18.9414 189.879 182.616 266.832 712.494
internal_count=51456 27370 23272 24086 21779 4098 3792 19249 12202 2307 9563 2530 8434 7764 2083 19019 5740 1460 670 537 16192 11070 16114 1311 447 78 772 742 1129 3023
shrinkage=0.05


Tree=11
num_leaves=31
num_cat=0
split_feature=5 3 5 0 0 0 0 3 0 5 0 5 0 5 3 0 5 0 0 3 5 0 5 3 0 0 0 0 0 0
split_gain=4283.61 2571.76 1155.5 562.132 402.036 193.223 154.481 102.933 70.6711 56.694 38.4203 37.0867 39.1808 36.3312 29.9526 29.3399 24.2697 17.1975 16.5977 15.7919 12.0831 10.4378 8.1151 8.00658 7.31115 7.00499 6.66585 6.36782 6.26791 6.25374
threshold=1.5000000000000002 1.5000000000000002 4.5000000000000009 1.0000000180025095e-35 16.500000000000004 279.50000000000006 46.500000000000007 1.5000000000000002 39.500000000000007 4.5000000000000009 282.50000000000006 18.000000000000004 23.500000000000004 18.000000000000004 2.5000000000000004 175.50000000000003 18.000000000000004 70.500000000000014 549.50000000000011 2.5000000000000004 31.500000000000004 155.50000000000003 31.500000000000004 1.5000000000000002 476.50000000000006 56.500000000000007 114.50000000000001 135.50000000000003 35.500000000000007 26.500000000000004
decision_type=2 2 2 10 10 10 10 2 10 2 10 2 10 2 2 10 2 10 10 2 2 10 2 2 10 10 8 10 10 10
left_child=4 2 -2 9 23 7 11 8 28 -3 17 -4 -13 -11 16 25 -5 -8 -7 -9 -16 22 -19 -1 -12 -10 -18 -27 -6 -21
right_child=1 3 6 14 5 18 10 19 15 13 24 12 -14 -15 20 -17 26 21 -20 29 -22 -23 -24 -25 -26 27 -28 -29 -30 -31
leaf_value=-0.079396427160579833 -0.067161786812093643 -0.062867049206276102 0.083362333345633019 -0.074891045686591981 0.0046233655347946443 -0.00023454107001941402 -0.020276504903106937 0.060196576979774208 0.030807467942473937 0.070610050936446886 -0.03242949683154131 -0.067982056861700058 -0.037477640731865401 0.0043744345948094274 -0.085163864239305997 0.024116997959107114 0.011444453698607044 -0.0029495466017938456 -0.030783222091999109 -0.004582574249950319 -0.042237594095629855 -0.017988121417907905 -0.01133827588226928 -0.029011078605973753 -0.057346318036459766 0.038075195605033439 -0.046810508322941903 0.032239604949188337 0.019968662963984404 0.046492219139000646
leaf_weight=79.41999563574791 2457.3799369782209 8.279580891132353 5.6480515301227561 11.21748375892639 210.79836717247963 246.73730020225048 597.4092194288969 355.4820931404829 546.92284996807575 718.42575182020664 85.680978626012802 142.33363199234009 404.20312887430191 21.317471653223038 20.537237346172333 606.35312746465206 50.120523869991302 466.13951681554317 54.237490981817245 6.0858455151319495 81.250513941049576 344.8424631357193 755.65667521953583 8.7536063343286497 44.851122200489044 2440.4701822847128 5.4439103901386252 578.24158994853497 97.241536647081375 394.15959505736828
leaf_count=335 11271 37 24 51 866 1042 2463 1560 2320 3482 364 621 1694 86 85 2564 203 1919 236 25 335 1427 3088 36 198 10517 22 2472 407 1706
internal_value=0 -0.573588 -0.840873 0.97314 0.630631 0.664369 -0.407225 0.709159 0.651571 1.3449 -0.29295 -0.882092 -0.908437 1.37403 -0.676536 0.685699 -0.156126 -0.26117 -0.114792 1.05054 -1.01797 -0.20612 -0.162756 -1.48789 -0.819819 0.720281 0.114739 0.739147 0.189351 0.914312
internal_weight=0 6220.74 5304.14 916.592 5624.9 5536.73 2846.76 5235.76 4480.03 748.023 2294.58 552.185 546.537 739.743 168.57 4171.99 66.7819 2164.05 300.975 755.728 101.788 1566.64 1221.8 88.1736 130.532 3565.63 55.5644 3018.71 308.04 400.245
internal_count=51456 27370 23069 4301 24086 23715 11798 22437 19146 3605 9459 2339 2315 3568 696 17873 276 8897 1278 3291 420 6434 5007 371 562 15309 225 12989 1273 1731
shrinkage=0.05


Tree=12
num_leaves=31
num_cat=0
split_feature=2 5 5 5 0 0 2 2 2 2 0 0 2 0 2 5 5 5 2 0 2 2 0 0 5 2 0 0 2 2
split_gain=6468.68 4832.69 3294.88 962.453 298.389 243.347 122.339 80.6226 77.786 66.9066 52.3174 45.6894 44.7206 41.2146 50.2017 31.404 28.755 26.8072 24.8448 20.8839 19.3519 20.3817 19.2314 17.6561 17.5466 17.2033 16.3674 15.2655 15.2334 15.1888
threshold=1400000.0000000002 1.5000000000000002 4.5000000000000009 18.000000000000004 16.500000000000004 46.500000000000007 190000.00000000003 90000.000000000015 2915000.0000000005 690000.00000000012 23.500000000000004 inf 700000.00000000012 39.500000000000007 260000.00000000003 1.5000000000000002 4.5000000000000009 18.000000000000004 310000.00000000006 108.50000000000001 490000.00000000006 190000.00000000003 32.500000000000007 63.500000000000007 1.5000000000000002 130000.00000000001 61.500000000000007 197.50000000000003 1770000.0000000002 1000000.0000000001
decision_type=8 2 2 2 10 10 10 10 8 10 10 8 10 10 10 2 2 2 10 10 10 10 10 10 2 10 10 8 10 10
left_child=1 4 -3 -4 -1 10 -7 -6 24 13 -5 15 18 14 -9 -10 -13 -18 -8 -11 21 -12 -16 -14 27 -15 -20 -2 -29 -21
right_child=8 2 3 5 7 6 12 9 11 19 20 16 23 25 22 -17 17 -19 26 29 -22 -23 -24 -25 -26 -27 -28 28 -30 -31
leaf_value=-0.071439449810537292 -0.067101227681924919 -0.065048503318818215 0.069186370691340079 -0.062172965499635073 0.01873967974938923 -0.023370780075954278 0.010074857210128107 0.048734392984370524 -0.087991916173383353 -0.0063296173889994464 -0.032924531461865185 -0.070622572513965892 -0.060788137235284811 0.043773073817437391 -0.051782224097744939 -0.075340623034461041 0.082076187186821553 -0.031104566910199999 0.0047932395060541842 0.044959469697953988 -0.065378589627847136 -0.0070928356289348508 0.019207074134094681 -0.0019449706674718053 -0.052136273910722453 0.060752805517235192 0.027206883974559882 0.039473621788056745 -0.033854656965402151 0.014622865284407843
leaf_weight=46.45779637992382 9.6442422121763212 2050.4365008622408 696.29251576960087 106.35941323637962 141.27353824675083 235.64336405694485 479.3171903938055 279.93369814753532 908.64513921737671 30.885557323694229 137.2699231505394 50.31829197704792 13.613052397966383 155.46448487043381 17.026251941919327 1065.9596419334412 6.1289195865392676 35.739733561873436 92.426579535007477 168.63376350700855 23.76108106970787 172.09674917161465 21.699189588427544 200.60809375345707 108.75878195464611 3686.3474468290806 685.87082007527351 15.365060225129129 13.139175698161123 54.625106573104858
leaf_count=189 39 9589 3480 458 574 972 1930 1189 3724 127 576 230 56 651 69 4816 26 158 372 695 98 700 91 814 480 16247 2768 63 54 221
internal_value=0 0.357095 -0.334727 0.362086 1.09271 0.0307529 0.201556 1.11843 -1.54114 1.14222 -0.632844 -1.59112 0.308659 1.17265 0.827061 -1.62325 -0.902999 -0.290733 0.380601 0.644119 -0.43789 -0.371094 -0.24009 -0.113685 -0.838042 1.20131 0.490903 -0.254505 0.113451 0.750739
internal_weight=0 9496.04 4893.7 2843.26 4602.35 2146.97 1707.48 4555.89 2213.7 4414.62 439.487 2066.79 1471.84 4160.47 318.659 1974.6 92.1869 41.8687 1257.61 254.144 333.128 309.367 38.7254 214.221 146.907 3841.81 778.297 38.1485 28.5042 223.259
internal_count=51456 41866 21813 12224 20053 8744 6912 19864 9590 19290 1832 8954 5940 18247 1349 8540 414 184 5070 1043 1374 1276 160 870 636 16898 3140 156 117 916
shrinkage=0.05


Tree=13
num_leaves=31
num_cat=0
split_feature=2 1 0 2 2 1 0 1 2 0 0 2 1 2 2 1 0 1 1 2 2 0 2 0 1 0 2 0 2 1
split_gain=5958.87 4396.19 1088.3 433.338 413.17 307.888 267.14 254.344 151.014 114.635 103.321 99.7185 73.7256 180.024 73.6533 45.7533 42.3767 38.0963 35.4423 36.0271 34.3841 32.9983 30.2235 23.2307 22.5135 18.0559 57.1046 16.5388 15.179 14.8424
threshold=1400000.0000000002 110000.00000000001 inf 150000.00000000003 600000.00000000012 60000.000000000007 24.500000000000004 260000.00000000003 160000.00000000003 61.500000000000007 41.500000000000007 300000.00000000006 160000.00000000003 300000.00000000006 2915000.0000000005 40000.000000000007 inf 90000.000000000015 70000.000000000015 270000.00000000006 800000.00000000012 165.50000000000003 80000.000000000015 199.50000000000003 260000.00000000003 80.500000000000014 370000.00000000006 21.500000000000004 120000.00000000001 380000.00000000006
decision_type=8 2 8 10 10 2 8 2 10 10 8 10 2 10 8 2 8 2 2 10 10 8 10 10 2 8 10 10 10 2
left_child=1 2 3 5 6 15 -3 -6 -4 -9 11 -8 13 21 -2 -1 -16 28 -5 -20 29 -12 -17 -22 -13 26 -14 -19 -7 -11
right_child=14 4 8 18 7 17 10 9 -10 20 12 24 25 -15 16 22 -18 27 19 -21 23 -23 -24 -25 -26 -27 -28 -29 -30 -31
leaf_value=-0.062995255762873112 -0.040326336833756901 -0.060824632829985972 0.060776939070505069 -0.066413286417585329 -0.049567313912768224 0.0036448154401068074 0.033224503476344626 -0.056273056702436423 -0.039154431719711932 0.014771429728570228 0.037036035229297604 -0.015718528961543961 0.051187416813970335 -0.02779967140192598 -0.078771091586535155 -0.0071908785167959441 -0.043752026405621904 -0.045420509658843145 -0.032010821218936232 -0.06023354567794053 0.00028022290025937698 0.058687098099110817 -0.050766963482634646 0.029207977522023795 -0.081069495151117221 0.053181390049783298 0.026012772058920004 0.028876398219755323 -0.025760098816592865 0.040601854434651592
leaf_weight=247.27366656064987 145.07843261957169 59.204493150115013 303.54244095087051 1123.6198476850986 158.62107703089714 201.73450557887554 342.2198723256588 45.408852621912956 43.183693498373032 68.075565710663795 664.78610242903233 55.255559653043747 1147.5985519737005 100.41581349074841 1933.8256413042545 80.881378531455994 90.42857900261879 7.7839806824922553 173.67441253364086 324.07711198925972 161.05779598653316 239.34370170533657 78.324760764837265 121.95418627560139 17.306651279330254 2737.8465516865253 280.2749932706356 198.56900192797184 56.090519860386848 303.79755192995071
leaf_count=1188 636 255 1560 5401 692 847 1472 195 205 284 2863 230 5070 430 8540 345 414 33 766 1521 663 1190 366 503 72 12178 1192 829 248 1268
internal_value=0 0.344959 -0.69333 -0.924285 0.798192 -0.35523 0.89652 0.152047 0.966616 0.411033 0.918919 0.438713 0.957443 0.714271 -1.49481 -0.9907 -1.54413 0.20125 -1.22986 -1.00772 0.517571 0.855351 -0.572581 0.254913 -0.626105 1.01608 0.924919 0.521476 -0.055046 0.717466
internal_weight=0 9341.92 2838.76 2492.03 6503.17 870.658 5644.25 858.915 346.726 700.294 5585.05 414.782 5170.27 1004.55 2169.33 406.48 2024.25 464.178 1621.37 497.752 654.885 904.13 159.206 283.012 72.5622 4165.72 1427.87 206.353 257.825 371.873
internal_count=51456 41866 13309 11544 28557 3856 24952 3605 1765 2913 24697 1774 22923 4483 9590 1899 8954 1957 7688 2287 2718 4053 711 1166 302 18440 6262 862 1095 1552
shrinkage=0.05


Tree=14
num_leaves=31
num_cat=0
split_feature=2 5 5 5 0 0 2 2 2 2 0 0 0 2 2 5 5 2 5 0 5 2 2 2 0 0 2 0 2 0
split_gain=5497.01 4234.18 2824.62 890.217 267.731 202.753 104.515 70.6331 69.4242 62.0768 46.5223 40.5384 36.1819 50.9512 34.814 27.8348 24.5541 23.3652 20.6377 17.8409 16.8383 16.3769 16.1472 18.1098 14.8565 14.0068 13.939 13.7979 13.7377 12.5602
threshold=1400000.0000000002 1.5000000000000002 4.5000000000000009 18.000000000000004 16.500000000000004 46.500000000000007 190000.00000000003 2915000.0000000005 90000.000000000015 690000.00000000012 23.500000000000004 inf 35.500000000000007 240000.00000000003 700000.00000000012 4.5000000000000009 18.000000000000004 310000.00000000006 1.5000000000000002 108.50000000000001 1.5000000000000002 130000.00000000001 490000.00000000006 190000.00000000003 63.500000000000007 192.50000000000003 1770000.0000000002 61.500000000000007 1000000.0000000001 212.50000000000003
decision_type=8 2 2 2 10 10 10 8 10 10 10 8 10 10 10 2 2 10 2 10 2 10 10 10 10 8 10 10 10 10
left_child=1 4 -3 -4 -1 10 -7 20 -6 12 -5 18 13 -10 17 -13 -17 -8 -9 -11 25 -14 23 -12 -16 -2 -27 -19 -21 -30
right_child=7 2 3 5 8 6 14 11 9 19 22 15 21 -15 24 16 -18 27 -20 28 -22 -23 -24 -25 -26 26 -28 -29 29 -31
leaf_value=-0.068629972040041426 -0.069758732825759326 -0.062379331047761361 0.066944136617558159 -0.059418189205799991 0.018293982685969375 -0.022855469697200086 0.0075946420411849395 -0.082251832003385816 0.045132715250731432 -0.005731126296866727 -0.03158862198576514 -0.067946832407741548 0.041742133598136187 -0.026149323234190221 -0.056648374421741067 0.080886692784283232 -0.028026372935811495 0.0035075380383085848 -0.071775422762913654 0.041995133979094712 -0.049029913393755946 0.057302920209802426 -0.061198136352759405 -0.0071515339937210211 -0.0021442421170815031 0.036030320893272232 -0.03245896331362836 0.024118188835926549 -0.016593118184240748 0.032436887304514495
leaf_weight=45.848702549934387 7.8226138949394226 1953.4507509768009 656.29710826277733 103.40826962888241 140.95425292849541 234.39083637297153 477.48612049221992 881.2414373755455 181.86667883396149 30.847921460866928 135.89670181274414 48.154601722955704 177.32948981225491 29.076825752854347 13.334571257233618 6.0744927525520316 34.94452565908432 92.193050369620323 1007.5416243970394 166.61307500302792 105.5434542298317 3637.60804438591 23.218775644898415 171.48257572948933 200.37837570905685 16.586357548832897 13.45567764341831 681.16015927493572 21.555965483188629 33.149004578590393
leaf_count=189 32 9589 3480 458 574 972 1930 3724 780 127 576 230 754 119 56 26 158 372 4816 695 480 16594 98 700 814 68 56 2768 87 134
internal_value=0 0.332547 -0.325419 0.320421 1.03146 0.00704631 0.162877 -1.45303 1.0564 1.07915 -0.60296 -1.50216 1.1093 0.706141 0.262101 -0.843293 -0.237949 0.32583 -1.53327 0.597838 -0.775358 1.13159 -0.419851 -0.35911 -0.1109 -0.203272 0.107086 0.433223 0.697142 0.262342
internal_weight=0 9207.55 4742.7 2789.25 4464.85 2132.95 1698.94 2121.36 4419 4278.05 434.006 1977.96 4025.88 210.944 1464.55 89.1736 41.019 1250.84 1888.78 252.166 143.408 3814.94 330.598 307.379 213.713 37.8646 30.042 773.353 221.318 54.705
internal_count=51456 41866 21813 12224 20053 8744 6912 9590 19864 19290 1832 8954 18247 899 5940 414 184 5070 8540 1043 636 17348 1374 1276 870 156 124 3140 916 221
shrinkage=0.05


Tree=15
num_leaves=31
num_cat=0
split_feature=2 5 5 5 1 1 2 2 2 1 3 1 2 2 2 3 1 1 5 3 5 5 1 2 1 1 2 1 5 2
split_gain=5081.64 3893.62 2624.99 838.978 302.864 249.39 70.3054 67.7735 52.2268 50.3622 44.6714 41.8582 37.2958 32.3353 35.5377 43.9167 32.0756 28.2047 25.4336 33.4882 36.3414 21.8434 21.7854 19.4567 18.9535 18.7423 18.9159 17.2378 15.7718 15.1506
threshold=1400000.0000000002 1.5000000000000002 4.5000000000000009 18.000000000000004 120000.00000000001 80000.000000000015 690000.00000000012 2915000.0000000005 110000.00000000001 260000.00000000003 2.5000000000000004 120000.00000000001 200000.00000000003 800000.00000000012 210000.00000000003 1.5000000000000002 160000.00000000003 680000.00000000012 1.5000000000000002 2.5000000000000004 31.500000000000004 31.500000000000004 50000.000000000007 170000.00000000003 30000.000000000004 50000.000000000007 350000.00000000006 170000.00000000003 1.5000000000000002 320000.00000000006
decision_type=8 2 2 2 2 2 10 8 10 2 2 2 10 10 10 2 2 2 2 2 2 2 2 10 2 2 10 2 2 10
left_child=1 5 16 -4 25 8 11 28 24 -8 13 12 -7 14 15 23 -3 -11 -9 -20 -21 -16 -10 -6 -1 -5 -27 -25 -2 -24
right_child=7 2 3 4 10 6 9 18 22 17 -12 -13 -14 -15 21 -17 -18 -19 19 20 -22 -23 29 27 -26 26 -28 -29 -30 -31
leaf_value=-0.047934288969975362 -0.0096846903342859524 -0.063142174393261558 0.065849424032660364 -0.061454500350327651 -0.045353950275154958 0.044098133778357869 -0.058758103410953846 -0.079361422847196356 -0.068076682194587998 0.043680015931048505 -0.034748937347832257 0.055891446247402637 -0.0041414806510656592 -0.010743612164337736 0.025195545457924257 0.066898270614483973 -0.041520716128249577 0.0053532030439339892 -0.069920117190205688 0.01219946135374475 -0.071475699514927313 0.011712606685101351 0.0040642118337040492 0.00025486123974921852 0.020339499551160493 -0.027898956496237054 -0.060923429656716183 -0.069155595603190331 -0.047418252344960936 -0.064835050033133099
leaf_weight=10.946375176310537 37.779479876160622 1709.2960474789143 634.40241652727127 64.473316326737404 40.705009609460831 276.99025565385818 15.969888404011725 895.60587278008461 30.531752377748489 171.6301746815443 54.014846310019493 3581.6433419883251 46.843642666935921 148.90265402197838 469.3539951145649 17.989366844296455 190.66536816954613 66.6395123898983 981.89052745699883 26.534724950790405 25.395205125212669 834.46036340296268 32.479779347777367 110.54486027359962 142.46980164945126 326.78987024724483 49.994001284241676 9.7323455810546857 103.72093644738197 10.577172458171843
leaf_count=47 156 8721 3480 294 164 1176 64 3877 129 725 217 16701 191 611 1912 72 868 269 4841 116 120 3366 130 445 578 1401 223 39 480 43
internal_value=0 0.321616 -0.314761 0.307711 0.00667619 0.997829 1.05353 -1.41488 -0.0228373 0.54399 0.199739 1.0867 0.742402 0.229358 0.273968 -0.143883 -1.21945 0.659215 -1.46387 -1.35701 -0.574401 0.331325 -0.7154 -0.309476 0.309362 -0.73087 -0.645617 -0.107231 -0.746874 -0.257225
internal_weight=0 9048.05 4661.32 2761.36 2126.96 4386.72 4159.72 2070.93 227.005 254.24 1685.7 3905.48 323.834 1631.69 1482.79 178.972 1899.96 238.27 1929.43 1033.82 51.9299 1303.81 73.5887 160.982 153.416 441.257 376.784 120.277 141.5 43.057
internal_count=51456 41866 21813 12224 8744 20053 19126 9590 927 1058 6826 18068 1367 6609 5998 720 9589 994 8954 5077 236 5278 302 648 625 1918 1624 484 636 173
shrinkage=0.05


Tree=16
num_leaves=31
num_cat=0
split_feature=2 5 5 5 1 0 1 0 2 2 2 1 0 1 0 2 1 1 2 1 5 5 0 1 1 5 0 1 1 2
split_gain=4704.78 3584.41 2442.32 791.504 275.91 246.604 221.247 126.907 65.4287 63.2906 50.259 40.2997 38.3903 52.12 37.3971 35.9836 34.0721 34.0356 32.6199 32.1821 25.8464 23.9278 26.0552 23.8749 23.3584 21.9973 20.748 19.8571 17.8977 17.9672
threshold=1400000.0000000002 1.5000000000000002 4.5000000000000009 18.000000000000004 120000.00000000001 16.500000000000004 80000.000000000015 33.500000000000007 2915000.0000000005 650000.00000000012 110000.00000000001 260000.00000000003 39.500000000000007 240000.00000000003 inf 190000.00000000003 130000.00000000001 460000.00000000006 350000.00000000006 160000.00000000003 4.5000000000000009 31.500000000000004 57.500000000000007 700000.00000000012 190000.00000000003 18.000000000000004 24.500000000000004 40000.000000000007 50000.000000000007 270000.00000000006
decision_type=8 2 2 2 2 10 2 10 8 10 10 2 10 2 8 10 2 2 10 2 2 2 10 2 2 2 10 2 2 10
left_child=1 5 19 -4 28 -1 10 24 -2 12 -7 -11 13 -8 -10 -9 18 21 -14 -3 -16 22 -17 -13 26 -22 -6 -12 -5 -30
right_child=8 2 3 4 7 6 9 15 14 11 27 23 16 -15 20 17 -18 -19 -20 -21 25 -23 -24 -25 -26 -27 -28 -29 29 -31
leaf_value=-0.067448711960707564 -0.035973044491546972 -0.061886028649629721 0.064841614285894314 -0.059754587039198941 -0.05977358560030735 0.017176503777426088 0.040564945964454938 -0.015187992502942789 -0.072988289225919462 -0.03752372556880073 -0.073924898397349753 0.042522830443625564 0.04344468119209114 -0.07317862875514744 -0.064952166672956849 -0.0017351007118584887 0.056933473261306759 -0.010718616552765783 -0.025351645976915117 -0.040050152864041011 0.078989670878978846 0.012403225929032799 0.031257003654730602 0.006590215755108722 -0.072469358896726274 -0.025276783441873282 0.00055220455958025522 -0.016714101250715138 -0.025526314877187286 -0.053127763659651842
leaf_weight=45.516858235001564 139.60769964754581 1658.093119263649 612.60216915607452 63.028930306434631 24.079012215137482 142.68974958360195 278.91018068790436 105.71622371673584 1793.7816192507744 20.496526882052422 21.832982927560806 223.51993931829929 276.13590937852859 10.44872149825096 45.241154059767723 70.317840591073036 3159.6473577022552 118.23989155888557 18.376979887485504 187.85532121360302 5.9433268159627906 885.15841136872768 401.73683440685272 58.281646728515625 43.148799955844879 33.97668269276619 34.928341060876846 49.675972953438759 300.06166255474091 73.378334805369377
leaf_count=189 636 8721 3480 294 106 580 1239 424 8540 82 94 960 1209 43 230 283 15147 482 75 868 26 3564 1643 234 183 158 141 201 1294 330
internal_value=0 0.311309 -0.304671 0.295652 0.00631934 0.96632 0.991058 0.190028 -1.37995 1.04349 0.000618186 0.603357 1.07904 0.729154 -1.42903 0.259819 1.10835 0.3002 0.783039 -1.19328 -0.781547 0.345029 0.526849 0.701826 -0.890199 -0.19507 -0.481296 -0.683632 -0.702188 -0.618996
internal_weight=0 8883.88 4578.34 2732.4 2119.79 4305.53 4260.02 1683.33 2018.55 4045.82 214.199 302.298 3743.52 289.359 1878.94 1581.17 3454.16 1475.45 294.513 1845.95 85.1612 1357.21 472.055 281.802 102.156 39.92 59.0074 71.509 436.469 373.44
internal_count=51456 41866 21813 12224 8744 20053 19864 6826 9590 18989 875 1276 17713 1282 8954 6396 16431 5972 1284 9589 414 5490 1926 1194 430 184 247 295 1918 1624
shrinkage=0.05


Tree=17
num_leaves=31
num_cat=0
split_feature=2 3 2 2 2 2 2 3 2 4 2 3 2 2 2 2 2 2 2 2 2 2 4 2 4 4 3 2 2 2
split_gain=4363.04 959.313 291.788 145.144 63.8899 40.3647 30.4381 28.3294 27.4949 22.4825 18.2493 13.8689 12.9507 9.38027 15.1504 12.5103 18.3743 9.10058 13.4583 8.4715 12.5334 19.116 8.27998 7.71999 7.4226 7.86726 5.91183 5.67036 8.06955 5.61593
threshold=1400000.0000000002 1.5000000000000002 160000.00000000003 700000.00000000012 2915000.0000000005 210000.00000000003 90000.000000000015 2.5000000000000004 500000.00000000006 1765.5000000000002 510000.00000000006 2.5000000000000004 550000.00000000012 710000.00000000012 800000.00000000012 810000.00000000012 820000.00000000012 660000.00000000012 650000.00000000012 560000.00000000012 600000.00000000012 610000.00000000012 813.50000000000011 30000.000000000004 2873.5000000000005 949.50000000000011 3.5000000000000004 460000.00000000006 450000.00000000006 390000.00000000006
decision_type=8 2 10 10 8 10 10 2 10 2 10 2 10 10 10 10 10 10 10 10 10 10 2 10 2 2 2 10 10 10
left_child=1 2 6 5 -2 -4 23 29 9 22 -10 -6 -12 -5 -15 -16 -17 18 19 -14 -21 -22 -7 -1 25 -18 -9 28 -24 -3
right_child=4 7 3 13 11 8 -8 26 10 -11 12 -13 17 14 15 16 24 -19 -20 20 21 -23 27 -25 -26 -27 -28 -29 -30 -31
leaf_value=-0.063592311801504597 -0.034599299057951401 0.06080686282572674 0.0045830423434528797 -0.03337782718366001 -0.070924181180568743 0.010650578747611902 -0.011644381328220682 0.04259271309618174 -0.011434340041173299 0.023586021529475688 0.021883695515139693 -0.051534800592282597 -0.0088651980530774777 0.0036682219864994266 -0.043379336335530677 0.053116802765184518 -0.022043735902745956 0.021940682468505002 -0.018537897700780362 0.020937375701130263 -0.018194718458266559 0.01463293782920088 0.016962100938931683 -0.029160514491431741 -0.055597050047506473 -0.0068169700750860028 0.056358259066270788 0.026643320766440978 -0.0014914959436859506 0.035456283737836713
leaf_weight=17.46970522403717 137.93640661239624 784.42420497536659 855.63232618570328 41.797505915164948 1728.8029257208109 657.22349983453751 778.77278684079647 423.54447564482689 103.68378320336342 1273.7572182416916 198.92384716868401 97.423028066754341 66.902575775980949 171.72512924671173 33.218265891075134 10.725757673382757 129.81228113174438 86.199695616960526 56.862201541662216 157.99323096871376 72.842896729707718 113.35800090432167 1863.0251242816448 238.91824847459793 10.06842517852783 244.80525159835815 95.601713970303535 144.55601915717125 61.187317997217178 22.472592890262604
leaf_count=91 636 4263 4078 192 8514 3099 3649 2114 490 6144 939 440 316 770 152 46 575 384 264 738 340 523 8862 1122 45 1085 492 685 295 113
internal_value=0 0.301597 0.161055 0.241259 -1.34823 0.291933 -0.331277 1.08478 0.327217 0.362041 0.164644 -1.3978 0.218797 -0.209502 -0.177611 -0.278162 -0.228644 0.140228 0.0852279 0.148299 0.211588 0.0358113 0.310792 -0.630132 -0.264639 -0.241867 0.902553 0.341856 0.327506 1.20202
internal_weight=0 8715.5 7389.46 6354.3 1964.16 5712.15 1035.16 1326.04 4856.52 3999.75 856.766 1826.23 753.082 642.153 600.355 428.63 395.412 554.159 467.959 411.097 344.194 186.201 2725.99 256.388 384.686 374.618 519.146 2068.77 1924.21 806.897
internal_count=51456 41866 34884 30022 9590 27157 4862 6982 23079 19085 3994 8954 3504 2865 2673 1903 1751 2565 2181 1917 1601 863 12941 1213 1705 1660 2606 9842 9157 4376
shrinkage=0.05


Tree=18
num_leaves=31
num_cat=0
split_feature=2 5 5 5 2 2 2 2 2 3 3 2 2 5 3 5 3 5 2 4 2 4 3 3 2 5 2 4 2 2
split_gain=4039.82 3315.75 2220.82 722.548 120.087 67.6458 62.5812 56.9415 20.9135 23.8606 20.5119 49.1676 17.1458 16.7795 33.4338 34.1666 16.1607 15.4879 14.677 11.9027 11.672 11.653 11.2114 42.1852 11.4238 9.73244 9.63529 9.19207 8.66924 9.90824
threshold=1400000.0000000002 1.5000000000000002 4.5000000000000009 18.000000000000004 190000.00000000003 90000.000000000015 2915000.0000000005 690000.00000000012 700000.00000000012 2.5000000000000004 1.5000000000000002 160000.00000000003 310000.00000000006 1.5000000000000002 2.5000000000000004 31.500000000000004 1.5000000000000002 1.5000000000000002 1000000.0000000001 1004.5000000000001 1830000.0000000002 746.50000000000011 2.5000000000000004 1.5000000000000002 140000.00000000003 31.500000000000004 710000.00000000012 918.50000000000011 350000.00000000006 330000.00000000006
decision_type=8 2 2 2 10 10 8 10 10 2 2 10 10 2 2 2 2 2 10 2 10 2 2 2 10 2 10 2 10 10
left_child=1 5 -3 -4 22 16 17 10 9 12 11 -7 25 -8 -15 -16 27 20 -9 -11 -2 -13 23 -5 -25 -6 -10 -1 29 -14
right_child=6 2 3 4 8 7 13 18 26 19 -12 21 28 14 15 -17 -18 -19 -20 -21 -22 -23 -24 24 -26 -27 -28 -29 -30 -31
leaf_value=0.021205012952648511 0.015809003167225954 -0.058530074148114966 0.063158121983803869 -0.027290258960661364 0.011143757957300542 0.029794275256528963 -0.073595285926587817 0.031598879888489056 -0.047845082182934734 0.020663109822852813 0.057983292502206851 0.041698301684763045 0.012736130948182219 -0.066071840376443758 0.015794465355424128 -0.06765775824636916 0.039114453147925367 -0.04361342624232413 0.0038195692266390032 -0.042182878837453378 -0.042083836117943321 0.050996486320945215 -0.060102660314579059 -0.0022464728126644368 0.062963660407734393 -0.0022721970529883109 -0.0057814292194772942 -0.0089478391288179797 0.011196137845425599 0.038876590426335518
leaf_weight=41.504156082868576 23.341565951704979 1796.0969191491604 572.03950820863247 357.60834558308125 208.12055468559265 346.0237342864275 835.12342323362827 188.40886208415031 14.542058438062666 9.6451124697923643 558.24856109917164 389.58850120007992 79.88801771402359 888.69145037233829 25.897822722792625 23.299300119280815 43.209328442811966 99.050993829965591 63.5981654971838 34.422857761383057 13.885590091347693 2494.566611751914 21.100519552826881 11.282768473029138 16.593528404831886 385.72290033102036 213.36020900309086 64.639861956238747 689.98603855073452 66.363394767045975
leaf_count=169 97 9589 3480 1553 860 1509 3877 805 60 39 2831 1856 328 4841 116 120 185 480 259 138 59 12177 87 46 67 1571 881 262 2842 272
internal_value=0 0.288245 -0.31014 0.266383 -0.00402722 0.927618 -1.31862 0.952048 0.11261 0.156194 0.982666 0.952076 0.178527 -1.36881 -1.27701 -0.474555 0.266726 -0.665595 0.491766 -0.568557 -0.115696 0.99481 -0.492294 -0.453444 0.731405 0.0485922 -0.169309 0.056849 0.270799 0.491954
internal_weight=0 8666.56 4476.77 2680.68 2108.64 4189.79 1909.29 4040.43 1702.05 1474.15 3788.43 3230.18 1430.08 1773.01 937.889 49.1971 149.353 136.278 252.007 44.068 37.2272 2884.16 406.585 385.485 27.8763 593.843 227.902 106.144 836.237 146.251
internal_count=51456 41866 21813 12224 8744 20053 9590 19437 6991 6050 18373 15542 5873 8954 5077 236 616 636 1064 177 156 14033 1753 1666 113 2431 941 431 3442 600
shrinkage=0.05


Tree=19
num_leaves=31
num_cat=0
split_feature=2 5 5 5 0 0 2 2 2 2 0 0 2 0 5 2 5 4 2 2 0 5 0 0 2 2 0 5 2 0
split_gain=3753.12 3052.72 2069.88 683.305 227.82 159.54 66.7093 61.1685 56.54 51.1817 40.077 37.8601 45.6091 36.2255 25.0327 22.472 19.6122 16.8289 16.5031 15.7179 15.5407 14.4942 13.2083 13.1277 12.0099 11.9359 11.8207 11.7385 11.4156 12.1902
threshold=1400000.0000000002 1.5000000000000002 4.5000000000000009 18.000000000000004 14.500000000000002 46.500000000000007 190000.00000000003 2915000.0000000005 90000.000000000015 680000.00000000012 23.500000000000004 35.500000000000007 240000.00000000003 inf 4.5000000000000009 800000.00000000012 31.500000000000004 813.50000000000011 310000.00000000006 470000.00000000006 119.50000000000001 1.5000000000000002 197.50000000000003 83.500000000000014 190000.00000000003 1830000.0000000002 21.500000000000004 18.000000000000004 1000000.0000000001 212.50000000000003
decision_type=8 2 2 2 10 10 10 8 10 10 10 10 10 8 2 10 2 2 10 10 10 2 8 10 10 10 10 2 10 10
left_child=1 4 -3 -4 -1 10 -7 21 -6 11 -5 12 26 -9 -15 18 27 -13 -8 24 -11 22 -2 -20 -12 -24 -10 -16 -22 -30
right_child=7 2 3 5 8 6 15 13 9 20 19 17 -14 14 16 -17 -18 -19 23 -21 28 -23 25 -25 -26 -27 -28 -29 29 -31
leaf_value=-0.072632347884536083 -0.057064623179605624 -0.057338851219450065 0.062354859792087158 -0.055485898708822992 0.015070114443097755 -0.018359812930693265 0.0053141282234201665 -0.068693265917687429 -0.0089995825103344942 -0.0029646274088886704 -0.027134570743457504 0.042128044192834051 -0.030719386838624976 -0.061223847207933252 0.078852961920824041 -0.0079518474258473033 -0.066669705651322922 0.051507096216037808 0.0080803028914932969 -0.055827461086661305 0.037518201340703654 -0.042225572543260675 0.037972717182141222 0.02142499560298557 -0.0069254219833230178 -0.029108423206205093 0.041030716849653703 -0.00041291280635536896 -0.018759540527458412 0.029943283477261835
leaf_weight=40.805683270096779 9.3107118457555753 1743.0905829370022 550.97191482782364 98.838398441672325 141.68706166744232 228.99529838562012 474.46749849617481 1640.460294008255 12.742789119482039 39.969454541802406 131.45818315446377 572.88256525993347 28.674548625946045 40.794533610343933 5.8868319094181087 145.63698555529118 9.5998318642377836 2896.1788551062346 275.70582577586174 26.770943969488144 164.02313369512558 97.237873584032059 16.949714034795765 555.84673315286636 166.79279753565788 10.892784327268599 160.65903227031231 22.608750537037849 21.005317181348801 33.085511803627014
leaf_count=171 39 9589 3480 458 584 972 1930 8540 52 170 576 2784 119 230 26 600 51 14510 1125 115 709 480 70 2285 683 47 735 107 85 134
internal_value=0 0.278984 -0.300079 0.255702 0.898448 -0.00384959 0.134421 -1.29125 0.922015 0.944394 -0.552109 0.974655 0.553891 -1.34203 -0.680127 0.21355 -0.0972082 0.999165 0.255098 -0.382542 0.513942 -0.641513 -0.110223 0.34001 -0.316658 0.234573 0.747083 0.319249 0.618988 0.220606
internal_weight=0 8510.29 4398.58 2655.48 4111.71 2104.51 1680.65 1853.74 4070.91 3929.22 423.86 3671.14 202.076 1719.35 78.8899 1451.66 38.0954 3469.06 1306.02 325.022 258.083 134.391 37.1532 831.553 298.251 27.8425 173.402 28.4956 218.114 54.0908
internal_count=51456 41866 21813 12224 20053 8744 6912 9590 19882 19298 1832 18200 906 8954 414 5940 184 17294 5340 1374 1098 636 156 3410 1259 117 787 133 928 219
shrinkage=0.05


Tree=20
num_leaves=31
num_cat=0
split_feature=5 5 5 1 1 0 1 0 1 1 1 1 1 0 1 0 0 1 4 0 1 0 1 0 4 0 0 1 0 1
split_gain=2212.45 1410.36 1095.65 278.424 278.826 229.633 155.988 60.6962 53.1822 44.2571 43.5719 37.0631 34.9438 30.2353 30.3591 26.933 26.6202 25.9085 18.9305 14.2332 14.0892 14.5807 12.279 10.7347 10.6126 9.75247 9.291 8.70967 8.02359 7.91248
threshold=1.5000000000000002 4.5000000000000009 18.000000000000004 460000.00000000006 90000.000000000015 19.500000000000004 140000.00000000003 33.500000000000007 40000.000000000007 460000.00000000006 130000.00000000001 90000.000000000015 880000.00000000012 29.500000000000004 160000.00000000003 73.500000000000014 70.500000000000014 110000.00000000001 1439.5000000000002 62.500000000000007 370000.00000000006 72.500000000000014 950000.00000000012 80.500000000000014 502.50000000000006 136.50000000000003 411.50000000000006 210000.00000000003 23.500000000000004 1500000.0000000002
decision_type=2 2 2 2 2 10 2 10 2 2 2 2 2 10 2 10 10 2 2 8 2 10 2 10 2 10 10 2 8 2
left_child=3 17 -3 4 8 -6 11 28 -1 20 15 -4 16 14 -12 -7 -5 -2 25 -10 24 -22 23 -11 -9 -15 -18 -27 -8 -14
right_child=1 2 6 12 5 10 7 9 19 22 13 -13 29 18 -16 -17 26 -19 -20 -21 21 -23 -24 -25 -26 27 -28 -29 -30 -31
leaf_value=-0.05616909731944926 -0.059471517398900865 0.061803370766853785 -0.048501611024057589 -0.074367491809956207 -0.07293107285129509 0.02657423859358532 -0.066051879541459857 -0.022574119642063208 0.0031596708540221571 -0.066096895119433979 0.025264184253193728 -0.025718919778556268 -0.030998887111580466 0.033606958533597367 -0.079316779535397994 -5.7282451937959059e-05 -0.0008345642952149884 -0.045479057937852993 0.038855538860504371 -0.019432987246385508 -0.033894345035668169 0.011268402370905206 -0.054193802229003378 -0.018925654616936127 -0.004400706812499453 0.010669035790646991 -0.034715838989217714 0.02851091266678803 -0.03558938773440095 -0.064795164871022146
leaf_weight=63.195353895425797 1537.680814191699 545.98282042145729 315.48076356947422 13.470591321587561 51.919951811432838 292.17182420194149 27.813323512673378 85.406633943319321 179.69758719205856 12.964490681886671 17.543271243572239 411.17682346701622 77.503929674625397 1366.1294321417809 11.48079141974449 140.63272888958454 347.45605663955212 421.50608958303928 1739.6654427051544 113.89743523299694 19.447719573974609 220.49052177369595 35.792236879467964 173.01519916951656 1351.9422804862261 85.280834883451462 21.485254034399986 345.57005868852139 97.014164432883263 22.302229136228561
leaf_count=299 9061 3568 1582 67 239 1357 135 372 772 61 81 1880 384 6917 49 636 1612 2274 8940 497 82 949 207 804 5836 413 106 1711 433 132
internal_value=0 -0.457268 -0.0579137 0.477323 0.556257 0.63091 -0.314769 -0.172074 -0.291219 -0.127675 0.658042 -0.712202 -0.24409 0.694411 -0.32208 0.358415 -0.106567 -1.12922 0.702753 -0.112099 -0.072165 0.152157 -0.547504 -0.444278 -0.109611 0.630767 -0.0561527 0.499587 -0.847537 -0.771017
internal_weight=0 5255.71 3296.53 4889.4 4407.18 4050.39 2750.54 2023.89 356.79 1899.06 3998.47 726.658 482.218 3565.67 29.0241 432.805 382.412 1959.19 3536.65 293.595 1677.29 239.938 221.772 185.98 1437.35 1796.98 368.941 430.851 124.827 99.8062
internal_count=51456 27244 15909 24212 21911 20343 12341 8879 1568 8311 20104 3462 2301 18111 130 1993 1785 11335 17981 1269 7239 1031 1072 865 6208 9041 1718 2124 568 516
shrinkage=0.05


Tree=21
num_leaves=31
num_cat=0
split_feature=1 3 1 3 0 1 1 0 0 3 1 3 1 0 0 4 4 0 0 0 1 0 1 0 1 1 0 0 0 1
split_gain=1774.62 949.38 319.513 233.376 316.129 170.455 135.921 69.0175 50.6304 47.571 46.323 43.9484 38.7772 35.369 33.8356 31.5239 18.8163 18.1873 15.8139 14.8981 31.5218 14.7537 14.1253 14.0717 13.2359 12.4887 23.2312 16.0512 12.3474 25.4051
threshold=110000.00000000001 1.5000000000000002 460000.00000000006 1.5000000000000002 32.500000000000007 160000.00000000003 60000.000000000007 -1.0000000180025095e-35 6.5000000000000009 2.5000000000000004 190000.00000000003 2.5000000000000004 1000000.0000000001 20.500000000000004 85.500000000000014 1373.5000000000002 328.50000000000006 68.500000000000014 52.500000000000007 44.500000000000007 240000.00000000003 128.50000000000003 80000.000000000015 363.50000000000006 40000.000000000007 320000.00000000006 164.50000000000003 67.500000000000014 51.500000000000007 320000.00000000006
decision_type=2 2 2 2 10 2 2 10 10 2 2 2 2 10 10 2 2 10 8 10 2 10 2 10 2 2 10 10 10 2
left_child=1 6 3 4 10 17 24 -5 -3 21 13 12 14 -2 -4 16 -7 -6 -8 20 -18 -9 -10 28 -1 26 -21 -27 29 -17
right_child=2 8 11 7 5 15 18 9 22 -11 -12 -13 -14 -15 -16 23 19 -19 -20 25 -22 -23 -24 -25 -26 27 -28 -29 -30 -31
leaf_value=-0.060472237119732632 -0.062073831402444039 0.057976207167222932 -0.054656110512709168 0.058369984301881277 0.0027618777513321929 -0.0068561208841582087 -0.024451601132005667 0.047533114828226433 -0.0035254547269658269 0.016792663557544992 -0.067511351720819512 0.038614414415754195 -0.047845560874950344 -0.0088940189451995316 -0.012192145476797898 0.014241844257122256 0.0099914220376843572 -0.011192609074754766 -0.036971990522361817 0.016775947410152422 -0.063010622148951118 -0.015081536266156903 0.032333026884519972 -0.0059265135942398912 -0.050417458558862038 -0.012192810290585221 -0.0021082285873880134 0.0246826955537836 0.024936746914128869 -0.10208188502926958
leaf_weight=762.73303619027138 43.957963094115257 223.80383707582951 51.181529358029366 319.87358820438385 455.78160604834557 95.659272760152817 403.10145676136017 256.89614334702492 48.514538496732712 327.38052479922771 104.24026846885681 32.685012355446815 111.04503771662712 108.28536903858185 562.18569719791412 166.89231431484222 84.874854281544685 478.77283227443695 673.69658094644547 1164.9622859805822 17.906755715608597 9.7654326707124692 63.291985139250755 40.434296026825905 573.32537333667278 31.113342583179474 189.3285114467144 572.68455338478088 2017.1735397279263 4.8296213895082465
leaf_count=4561 222 1517 261 2124 2137 459 2008 1378 222 1674 508 157 631 497 2654 800 396 2305 3568 5635 80 49 301 197 3270 144 919 2770 9989 23
internal_value=0 -0.690883 0.252793 0.3245 0.24774 0.300015 -0.910076 0.792905 0.884996 0.591251 -0.836633 -0.361975 -0.413153 -0.484978 -0.31471 0.382639 0.29644 -0.0877403 -0.645699 0.316565 -0.0545419 0.904802 0.33547 0.466023 -1.12315 0.336044 0.282719 0.45565 0.476821 0.219406
internal_weight=0 2748.47 7247.91 6490.81 5576.9 5320.41 2412.86 913.916 335.61 594.042 256.484 757.097 724.412 152.243 613.367 4385.86 2156.53 934.554 1076.8 2060.87 102.782 266.662 111.807 2229.33 1336.06 1958.09 1354.29 603.798 2188.9 171.722
internal_count=51456 15447 36009 32306 27081 25854 13407 5225 2040 3101 1227 3703 3546 719 2915 21412 10403 4442 5576 9944 476 1427 523 11009 7831 9468 6554 2914 10812 823
shrinkage=0.05


Tree=22
num_leaves=31
num_cat=0
split_feature=5 5 5 1 1 0 1 1 0 1 1 1 1 0 1 0 1 0 1 0 1 1 0 1 0 5 0 1 0 1
split_gain=1978.45 1248.08 978.129 239.326 229.163 198.796 130.176 48.0244 45.9334 35.7412 32.3233 32.7423 30.5728 26.6991 34.061 23.6889 23.4035 22.7211 14.7673 12.2909 12.2402 12.319 12.1654 11.2739 10.2678 9.38987 8.43403 7.92732 7.67213 7.42042
threshold=1.5000000000000002 4.5000000000000009 18.000000000000004 460000.00000000006 90000.000000000015 19.500000000000004 90000.000000000015 40000.000000000007 41.500000000000007 130000.00000000001 680000.00000000012 180000.00000000003 880000.00000000012 31.500000000000004 170000.00000000003 70.500000000000014 110000.00000000001 73.500000000000014 250000.00000000003 238.50000000000003 460000.00000000006 510000.00000000006 62.500000000000007 170000.00000000003 20.500000000000004 31.500000000000004 411.50000000000006 1500000.0000000002 195.50000000000003 140000.00000000003
decision_type=2 2 2 2 2 10 2 2 10 2 2 2 2 10 2 10 2 10 2 10 2 2 8 2 8 2 10 2 10 2
left_child=3 16 -3 4 7 -6 -4 -1 18 17 11 29 15 14 -11 -5 -2 -7 24 -15 25 -22 -9 -21 -8 -13 -17 28 -14 -10
right_child=1 2 6 12 5 9 8 22 10 13 -12 20 27 19 -16 26 -18 -19 -20 23 21 -23 -24 -25 -26 -27 -28 -29 -30 -31
leaf_value=-0.052702927200921228 -0.057770063940363707 0.060519571763379035 -0.046026014338711917 -0.07105531680943801 -0.069157530804217313 0.025505704191710485 -0.05580133365610055 0.004288200030273125 -0.022948481914278451 0.020116710693417601 -0.041312519658299851 0.0041687942124164568 -0.066272603259061355 0.033985367513738395 -0.078779911144734927 -0.00032434473487580199 -0.044251746960112415 0.0010190496069255595 -0.052903269756973105 -0.019929121618414303 -0.036422889659983637 -0.0060189590414947503 -0.016658347192598653 0.024525067171376418 -0.021070773392416337 -0.0048443926657066308 -0.032780559240390895 -0.063274737655846083 -0.021778462278459018 -0.011897909077325049
leaf_weight=60.662370398640633 1441.9588138908148 506.30319435894489 303.49784503877163 12.927951440215109 50.087109550833702 289.39721561968327 23.357003271579742 179.178526237607 289.25206395983696 34.014198884367943 72.980077281594276 440.86019709706306 11.410519272089003 3258.2849371433258 11.701415732502936 347.20391397178173 411.54293212294579 140.83861221373081 53.830783575773239 15.540193080902098 52.506119892001152 91.157078370451927 113.05317004024982 173.4396785646677 239.43008054792881 838.67776095867157 21.240596562623978 20.914782539010048 64.192314743995667 319.95233064889908
leaf_count=299 9061 3568 1582 67 239 1357 120 772 1331 161 406 1914 55 16974 50 1612 2274 636 264 73 243 416 497 853 1065 3612 106 132 329 1388
internal_value=0 -0.441205 -0.066028 0.453714 0.527897 0.596487 -0.303142 -0.24438 -0.225779 0.621761 -0.172375 -0.148895 -0.217836 0.655259 -0.103939 -0.0905934 -1.09537 0.349799 -0.580899 0.665327 -0.0658533 -0.34262 -0.0763042 0.41739 -0.483154 -0.0347786 -0.0439085 -0.720613 -0.569877 -0.342895
internal_weight=0 5085.31 3231.8 4804.09 4326.2 3973.3 2725.5 352.894 2422 3923.22 2105.39 2032.41 477.89 3492.98 45.7156 381.372 1853.5 430.236 316.618 3447.26 1423.2 143.663 292.232 188.98 262.787 1279.54 368.445 96.5176 75.6028 609.204
internal_count=51456 27244 15909 24212 21911 20343 12341 1568 10759 20104 9310 8904 2301 18111 211 1785 11335 1993 1449 17900 6185 659 1269 926 1185 5526 1718 516 384 2719
shrinkage=0.05


Tree=23
num_leaves=31
num_cat=0
split_feature=2 5 5 5 0 0 0 3 2 2 2 2 3 0 0 0 2 2 3 2 0 2 0 3 2 0 2 5 5 2
split_gain=3463.86 2334.92 1614.43 546.871 206.51 149.494 49.0434 77.357 43.036 47.4527 37.0565 35.2567 32.5131 31.6662 28.2359 23.709 18.7649 14.8077 14.2486 15.773 16.8631 13.653 12.1667 11.9815 16.6397 13.6652 26.2514 10.5821 9.98791 9.59522
threshold=1590000.0000000002 1.5000000000000002 4.5000000000000009 18.000000000000004 18.500000000000004 48.500000000000007 inf 2.5000000000000004 130000.00000000001 650000.00000000012 2810000.0000000005 180000.00000000003 1.5000000000000002 18.500000000000004 29.500000000000004 59.500000000000007 240000.00000000003 60000.000000000007 2.5000000000000004 800000.00000000012 80.500000000000014 430000.00000000006 107.50000000000001 1.5000000000000002 160000.00000000003 54.500000000000007 370000.00000000006 1.5000000000000002 3.0000000000000004 100000.00000000001
decision_type=8 2 2 2 10 10 8 2 10 10 8 10 2 10 10 10 10 10 2 10 10 10 10 2 10 10 10 2 2 10
left_child=1 4 28 -4 -1 13 10 -8 12 14 -2 22 17 -5 16 -11 -10 -6 19 -13 -21 -20 -7 24 -16 26 -26 -12 -3 -15
right_child=6 2 3 5 8 11 7 -9 9 15 27 18 -14 29 23 -17 -18 -19 21 20 -22 -23 -24 -25 25 -27 -28 -29 -30 -31
leaf_value=-0.058808451936584231 -0.033605093563946468 -0.056563319204120638 0.059736662784620434 -0.057464352626807047 -0.015392117585949293 -0.019627538089805163 -0.0559908067101514 0.061060107839719407 0.024701066648897235 -0.079014093188665369 -0.072017360941960318 0.012959407818589938 0.048627704208940664 -0.045242617946280317 0.030091944836909901 0.026895406030817734 -0.049816162261878696 0.020821367543371931 -0.041992265609440908 -0.049194925357490496 0.0020381525093304573 0.025374929514917099 0.015238504063398776 0.054644850889526336 0.041040250658270182 0.047677260556130474 -0.010021752085554936 -0.06382964504653707 -0.04845475871175392 -0.017082753940585751
leaf_weight=51.090247198939323 83.043027251958847 887.73722633719444 479.78122442960739 63.51284784078598 32.323892712593079 143.67871701717377 50.980032220482826 19.519955679774284 37.919868513941765 5.3815267831087104 779.55223025381565 1232.9312942326069 111.22363767027855 33.003126978874207 169.41462221741676 292.36228716373444 10.870208233594893 222.79893493652344 24.286726057529449 18.272292926907539 132.72522836923599 10.894737005233763 30.297204524278641 389.10579033195972 317.79917351901531 2261.6630662679672 27.335837036371231 799.1923134624958 663.71381148695946 362.70753271877766
leaf_count=222 414 5557 3536 312 133 631 313 87 169 22 3771 5076 548 165 798 1269 45 938 97 79 557 44 134 2222 1618 12091 129 4846 4059 1574
internal_value=0 0.2709 -0.258618 0.233558 0.821206 0.00885808 -1.28855 -0.471638 0.847519 0.881542 -1.3232 0.153763 0.521364 -0.49383 0.916922 0.499623 0.161979 0.324663 0.205851 0.221827 -0.0832318 -0.42261 -0.271115 0.928558 0.905525 0.925262 0.739919 -1.35745 -1.06189 -0.388627
internal_weight=0 8012.83 4083.54 2532.09 3929.29 2052.31 1732.29 70.5 3878.2 3511.85 1661.79 1593.09 366.346 459.224 3214.11 297.744 48.7901 255.123 1419.11 1383.93 150.998 35.1815 173.976 3165.32 2776.21 2606.8 345.135 1578.74 1551.45 395.711
internal_count=51456 42025 21821 12205 20204 8669 9431 400 19982 18363 9031 6618 1619 2051 17072 1291 214 1071 5853 5712 636 141 765 16858 14636 13838 1747 8617 9616 1739
shrinkage=0.05


Tree=24
num_leaves=31
num_cat=0
split_feature=5 5 5 1 1 0 1 1 0 1 1 1 1 0 0 1 1 0 0 1 1 1 0 0 5 1 1 5 0 0
split_gain=1674.74 1110.43 854.59 203.023 202.753 167.857 118.9 60.4663 38.8957 28.6258 28.5667 26.1588 25.6303 21.2412 17.3091 14.1284 11.8505 48.102 16.6542 10.5979 11.3678 10.2966 9.53034 9.00454 8.34667 8.12685 7.62504 7.54539 7.48385 7.42583
threshold=1.5000000000000002 4.5000000000000009 18.000000000000004 460000.00000000006 110000.00000000001 21.500000000000004 90000.000000000015 40000.000000000007 41.500000000000007 680000.00000000012 180000.00000000003 880000.00000000012 110000.00000000001 70.500000000000014 88.500000000000014 250000.00000000003 160000.00000000003 30.500000000000004 70.500000000000014 460000.00000000006 510000.00000000006 50000.000000000007 20.500000000000004 11.500000000000002 31.500000000000004 60000.000000000007 1500000.0000000002 3.0000000000000004 195.50000000000003 139.50000000000003
decision_type=2 2 2 2 2 10 2 2 10 2 2 2 2 10 8 2 2 10 10 2 2 2 8 10 2 2 2 2 10 10
left_child=3 12 -3 4 7 -6 -4 -1 15 10 -10 13 -2 -5 21 22 18 -18 -7 24 -21 -9 -8 -23 -12 -16 28 -14 -13 -19
right_child=1 2 6 11 5 16 8 14 9 -11 19 26 27 -15 25 -17 17 29 -20 20 -22 23 -24 -25 -26 -27 -28 -29 -30 -31
leaf_value=-0.051257579486268537 -0.056140944911811742 0.059353161812990746 -0.044016898444607447 -0.068754251802133043 -0.065313721675243172 0.030171349587170417 -0.053309205818806861 -0.020396044496027662 -0.015813561468413936 -0.039219255174136658 0.0042410289550693153 -0.064564507673837188 -0.049838645360905938 -0.0020258504487756621 -0.038451830444690645 -0.050581285467575079 -0.066518502721529163 0.033480443762539405 0.013704107850355716 -0.034538747072644836 -0.0050749338999027636 -0.062371581689573477 -0.019038082268064613 0.011068062570377638 -0.0042921008962478217 -0.0071985089504940543 -0.061832915918217629 -0.035735843197888008 -0.019827433303933911 0.027679072379599073
leaf_weight=58.899113819003105 1344.9575149789453 467.11681480705738 292.48030340671539 12.332866206765173 46.590780913829803 421.5917696505785 22.191617503762245 29.958011791110039 601.50664791464806 69.984814673662186 437.19513323903084 10.997628152370451 162.18802092969418 361.59068059921265 26.165605634450912 51.846005499362946 12.442919403314589 2161.9856901019812 241.48712946474552 51.410334393382072 90.129428178071976 4.225775495171546 236.20946325361729 339.90458562970161 831.81172607839108 101.43966770172119 19.336311250925064 228.41915805637836 62.331222265958786 740.53594835102558
leaf_count=299 9061 3568 1582 67 229 2182 120 133 2719 406 1914 55 936 1718 117 264 54 11821 1207 243 416 20 1065 1508 3612 449 132 1338 329 3892
internal_value=0 -0.414984 -0.0612807 0.423277 0.493031 0.579591 -0.278477 -0.0666389 -0.204894 -0.155673 -0.133804 -0.202406 -1.05733 -0.0845342 0.045891 -0.535214 0.604147 0.631595 0.483483 -0.0559941 -0.315537 0.154375 -0.439626 0.203325 -0.0270458 -0.272141 -0.678042 -0.831832 -0.530739 0.640006
internal_weight=0 4887.45 3151.88 4651.82 4185.23 3624.63 2684.77 560.593 2392.29 2082.04 2012.05 466.589 1735.56 373.924 501.694 310.247 3578.04 2914.96 663.079 1410.55 141.54 374.088 258.401 344.13 1269.01 127.605 92.6652 390.607 73.3289 2902.52
internal_count=51456 27244 15909 24212 21911 19385 12341 2526 10759 9310 8904 2301 11335 1785 2227 1449 19156 15767 3389 6185 659 1661 1185 1528 5526 566 516 2274 384 15713
shrinkage=0.05


Tree=25
num_leaves=31
num_cat=0
split_feature=5 5 5 1 1 0 1 1 0 3 1 0 1 3 1 1 3 3 0 1 1 3 0 0 3 1 1 3 1 0
split_gain=1534.87 1049.68 798.548 185.869 187.366 157.796 111.269 42.4854 35.6932 37.8757 29.945 27.6763 26.6157 28.0688 27.1199 26.2005 25.2981 24.3131 24.2738 29.1159 21.6566 19.3241 17.6233 15.5638 14.8784 22.2984 14.4298 12.3051 11.2569 9.7235
threshold=1.5000000000000002 4.5000000000000009 18.000000000000004 460000.00000000006 90000.000000000015 18.500000000000004 90000.000000000015 30000.000000000004 41.500000000000007 1.5000000000000002 130000.00000000001 16.500000000000004 680000.00000000012 2.5000000000000004 140000.00000000003 110000.00000000001 2.5000000000000004 1.5000000000000002 31.500000000000004 170000.00000000003 680000.00000000012 1.5000000000000002 182.50000000000003 411.50000000000006 1.5000000000000002 160000.00000000003 1430000.0000000002 2.5000000000000004 240000.00000000003 73.500000000000014
decision_type=2 2 2 2 2 10 2 2 10 2 2 10 2 2 2 2 2 2 10 2 2 2 10 8 2 2 2 2 2 10
left_child=3 15 -3 4 7 -6 -4 -1 9 11 17 -8 13 14 -10 -2 20 29 19 -12 23 -9 -22 -5 25 -20 -24 -26 -13 -7
right_child=1 2 6 16 5 10 8 21 12 -11 18 28 -14 -15 -16 -17 -18 -19 24 -21 22 -23 26 -25 27 -27 -28 -29 -30 -31
leaf_value=-0.064258355643660947 -0.055358038098216648 0.058819516294893959 -0.042754953329304596 -0.0009790952944145248 -0.065381281774074387 0.016170615058186875 -0.065450732941635587 -0.010979035405429815 -0.019858597994038517 0.021537237832534736 0.017760304096381654 -0.020426367372983128 -0.038039598379720541 -0.038685822467510567 -0.0028916765448049166 -0.04045530939599961 0.039188851888339912 0.039187360873450566 0.016179715197399622 -0.072273180990583205 -0.063242036438447988 0.023610663704009702 -0.012831370525109954 -0.052040536959697806 0.049702047123818753 0.030412781820255287 -0.059539675165523477 0.031607989690971054 -0.056085910728357391 -0.0013144808766150685
leaf_weight=34.382883727550507 1296.9979912862182 448.26415966451168 286.21831379830837 260.37274208664894 45.759185090661049 204.30572962760925 50.780455529689789 264.37583550810814 274.17701795697212 37.339854225516319 33.066231831908226 194.34801909327507 68.583467930555344 64.999058604240417 1670.2608756422997 381.73379117250443 25.077387243509293 85.90002030134201 307.9027056992054 12.327451184391974 27.662866175174713 47.656564280390739 116.55456036329269 15.830866470932959 164.72073695063591 2589.2340943664312 19.268913492560387 218.73559661209583 24.975329145789146 130.16978627443314
leaf_count=182 9061 3568 1582 1225 233 944 278 1169 1287 159 161 891 406 292 7325 2274 123 457 1545 54 138 217 596 86 1008 14105 133 1242 121 594
internal_value=0 -0.401782 -0.0587102 0.406476 0.473814 0.538125 -0.26594 -0.230173 -0.19525 -0.513265 0.560669 -0.643768 -0.148199 -0.127291 -0.105682 -1.03938 -0.193142 0.309192 0.592454 -0.133797 -0.24886 -0.113923 -0.537326 -0.0781146 0.602503 0.578002 -0.389155 0.787613 -0.489742 0.187317
internal_weight=0 4798.68 3119.95 4603.3 4138.54 3792.12 2671.68 346.415 2385.46 307.444 3746.36 270.104 2078.02 2009.44 1944.44 1678.73 464.767 420.376 3325.99 45.3937 439.69 312.032 163.486 276.204 3280.59 2897.14 135.823 383.456 219.323 334.476
internal_count=51456 27244 15909 24212 21911 20343 12341 1568 10759 1449 20110 1290 9310 8904 8612 11335 2301 1995 18115 215 2178 1386 867 1311 17900 15650 729 2250 1012 1538
shrinkage=0.05


Tree=26
num_leaves=31
num_cat=0
split_feature=5 5 5 0 0 0 3 4 3 0 4 0 3 0 0 0 3 0 4 5 0 0 5 4 4 0 0 0 0 4
split_gain=1406.78 992.434 746.69 166.474 67.7297 59.0363 50.8824 28.235 21.9905 28.3181 20.9124 18.6853 18.8314 15.2366 14.1051 13.9604 12.0042 11.307 9.61957 7.86191 7.64459 7.33244 7.13092 6.21957 5.90305 5.87887 5.0762 4.32375 4.51343 4.58415
threshold=1.5000000000000002 4.5000000000000009 18.000000000000004 18.500000000000004 238.50000000000003 48.500000000000007 1.5000000000000002 1399.5000000000002 1.5000000000000002 16.500000000000004 306.50000000000006 363.50000000000006 2.5000000000000004 39.500000000000007 35.500000000000007 38.500000000000007 2.5000000000000004 1101.0000000000002 372.50000000000006 3.0000000000000004 132.50000000000003 11.500000000000002 31.500000000000004 4099.5000000000009 393.50000000000006 33.500000000000007 127.50000000000001 137.50000000000003 55.500000000000007 623.50000000000011
decision_type=2 2 2 10 10 10 2 2 2 10 2 10 2 10 10 10 2 10 2 2 10 10 2 2 2 10 10 10 10 2
left_child=3 19 -3 21 6 8 7 10 9 -4 26 12 18 -9 -12 -10 20 24 -7 -2 -8 -1 -14 -15 -6 -11 -5 28 -16 -30
right_child=1 2 5 4 17 11 16 13 15 25 14 -13 22 23 27 -17 -18 -19 -20 -21 -22 -23 -24 -25 -26 -27 -28 -29 29 -31
leaf_value=-0.064813274129529946 -0.054239638985208283 0.058320653448287386 -0.061606229251796374 -0.0012291516099232052 -0.026103343297886685 -0.026475821683083867 0.046310927239277752 0.006895646151389382 0.01768176771690709 -0.033236558845474447 0.00019548973846181738 -0.036423060223374652 -0.075992670249850666 0.025594124097256143 0.014144992753333816 -0.03706052167613557 0.029890330121427666 -0.052361776259306117 -0.0065184730150280911 -0.047243751329678757 -0.0070022404313991472 -0.028088194453560207 -0.028116243827436105 0.040802868384358711 0.0034126756756435598 -0.021410948769440181 -0.029678852980558897 0.013772251611948661 0.013431494645438236 0.022851357092619425
leaf_weight=54.389413945376873 894.77660728245974 429.95682341605425 63.237957470118999 51.092174202203751 17.789177529513836 62.354451894760132 246.69841416180134 108.45210064947605 41.433536663651466 168.53669737279415 113.7657653093338 59.531680777668953 9.1264530569314939 1547.9383382946253 274.50237610936165 16.200043305754662 283.93873704969883 9.8164203166961652 1906.4227222949266 728.5933056101203 6.9123618453741065 18.119173429906368 52.620799735188484 70.274124324321747 354.65418961644173 279.19883862882853 22.621146559715271 386.58590592443943 152.8092126250267 834.33729256689548
leaf_count=304 6317 3568 367 252 94 286 1458 503 179 878 520 325 43 8398 1379 74 1583 61 8627 5018 38 87 240 399 1811 1322 112 1976 786 4451
internal_value=0 -0.388969 -0.0562514 0.390401 0.414717 -0.25398 0.452252 0.408977 -0.539673 -0.60572 0.322635 -0.176256 -0.160066 0.500773 0.344466 0.0458886 0.739037 0.0121361 -0.143011 -1.022 0.897157 -1.11272 -0.703851 0.525092 0.0400578 -0.517247 -0.199196 0.367972 0.396323 0.427863
internal_weight=0 4711.99 3088.62 4554.7 4482.19 2658.66 4099.93 3562.38 568.607 510.973 1835.71 2090.06 2030.52 1726.66 1762 57.6336 537.55 382.26 1968.78 1623.37 253.611 72.5086 61.7473 1618.21 372.443 447.736 73.7133 1648.23 1261.65 987.147
internal_count=51456 27244 15909 24212 23821 12341 21855 18776 2820 2567 9476 9521 9196 9300 9112 253 3079 1966 8913 11335 1496 391 283 8797 1905 2200 364 8592 6616 5237
shrinkage=0.05


Tree=27
num_leaves=31
num_cat=0
split_feature=2 1 5 5 3 5 5 1 2 2 1 1 2 5 3 5 3 5 2 1 1 2 5 2 1 5 1 3 2 1
split_gain=3232.36 1779.97 777.583 380.112 372.292 293.231 125.272 51.2397 50.5205 46.2159 41.7229 41.6038 37.6235 27.0542 42.1787 32.5185 22.4751 20.9136 20.363 19.8859 19.0188 17.3257 15.6233 15.603 14.7895 14.2082 14.0025 13.7678 14.8161 13.397
threshold=1980000.0000000002 80000.000000000015 1.5000000000000002 4.5000000000000009 1.5000000000000002 18.000000000000004 1.5000000000000002 140000.00000000003 650000.00000000012 120000.00000000001 230000.00000000003 120000.00000000001 240000.00000000003 1.5000000000000002 2.5000000000000004 31.500000000000004 2.5000000000000004 4.5000000000000009 800000.00000000012 30000.000000000004 360000.00000000006 220000.00000000003 18.000000000000004 350000.00000000006 680000.00000000012 3.0000000000000004 60000.000000000007 1.5000000000000002 90000.000000000015 480000.00000000006
decision_type=8 2 2 2 2 2 2 2 10 10 2 2 10 2 2 2 2 2 10 2 2 10 2 10 2 2 2 2 10 2
left_child=1 4 8 25 6 -5 9 23 11 19 -10 12 27 -2 -15 -16 18 -8 -9 -1 -20 -19 -6 -7 -12 -4 -11 28 -3 -22
right_child=13 2 3 5 22 7 17 16 10 26 24 -13 -14 14 15 -17 -18 21 20 -21 29 -23 -24 -25 -26 -27 -28 -29 -30 -31
leaf_value=-0.053372849823576152 -0.071389539538747146 -0.049610173746968356 -0.046792647752145207 0.057697154448009248 0.048672563239408176 -0.0078071363821765483 -0.054832593106657723 0.012695577421939367 -0.053572879074766377 -0.057074513015287889 0.033102188351656139 0.044202969502385323 -0.023515632258972748 -0.061156180625982451 0.025207901492544229 -0.061039766485273567 -0.024289081000808295 -0.025659923638184496 -0.034766271163611709 0.016411617215339565 0.027768433687952898 -0.062071149912269141 -0.02317211533512795 -0.039900112135103201 0.0086950757246355044 -0.028884597136027902 -0.0085765489892688958 0.052257403132433149 0.027554820361518458 -0.0069346363939898938
leaf_weight=11.226013049483297 792.79810575395823 6.4124498963356009 218.94995854794979 314.83085677027702 119.71764642745256 302.98345971107483 925.77955431491137 1308.9624484330416 17.584569856524467 45.682292297482491 205.05017572641373 2883.9233335107565 35.485717236995697 762.99776078760624 25.86664791405201 18.924764260649681 47.726491376757622 120.54446038603783 42.199561595916748 112.64203032851219 40.399210140109062 44.817542046308517 8.0775648504495603 43.283119305968285 89.009664967656136 224.15100593864918 22.075524359941483 60.489054068922997 207.9266452640295 89.250947877764702
leaf_count=54 3940 26 1422 2735 927 1333 6868 5377 72 198 934 16555 148 5017 125 112 194 645 181 458 169 230 38 201 372 1387 89 324 919 406
internal_value=0 0.267942 0.500707 0.0899993 -0.745026 0.260929 -0.907181 0.110968 0.809128 -0.161476 0.424811 0.846623 0.498707 -1.29656 -1.16776 -0.22465 0.189653 -1.03814 0.211422 0.201743 -0.112217 -0.710567 0.882629 -0.236375 0.514287 -0.75467 -0.825477 0.623827 0.504925 0.077578
internal_weight=0 7549.18 6138.62 2632.74 1410.56 2189.64 1282.77 1874.81 3505.88 191.626 311.644 3194.24 310.314 1600.59 807.789 44.7914 1528.54 1091.14 1480.81 123.868 171.85 165.362 127.795 346.267 294.06 443.101 67.7578 274.828 214.339 129.65
internal_count=51456 42262 32755 13405 9507 10596 8542 7861 19350 799 1378 17972 1417 9194 5254 237 6327 7743 6133 512 756 875 965 1534 1306 2809 287 1269 945 575
shrinkage=0.05


Tree=28
num_leaves=31
num_cat=0
split_feature=1 3 3 1 0 1 0 1 0 1 3 0 1 0 0 0 0 1 0 1 1 1 0 1 0 1 1 0 0 0
split_gain=1101.63 329.613 316.048 224.437 234.992 214.551 76.7254 47.0171 40.6259 38.1695 36.8627 26.1032 25.9354 21.4361 18.309 15.0801 14.2502 41.2081 17.1159 14.0693 13.9603 20.3507 13.5096 11.3662 10.3888 10.1601 9.45389 8.94951 8.85669 8.76027
threshold=80000.000000000015 1.5000000000000002 1.5000000000000002 160000.00000000003 33.500000000000007 460000.00000000006 1347.5000000000002 110000.00000000001 6.5000000000000009 40000.000000000007 2.5000000000000004 16.500000000000004 1000000.0000000001 84.500000000000014 128.50000000000003 363.50000000000006 55.500000000000007 250000.00000000003 47.500000000000007 190000.00000000003 100000.00000000001 90000.000000000015 25.500000000000004 60000.000000000007 68.500000000000014 180000.00000000003 350000.00000000006 411.50000000000006 64.500000000000014 76.500000000000014
decision_type=2 2 2 2 10 2 8 2 10 2 2 10 2 10 10 10 10 2 10 2 2 2 10 2 10 2 2 10 8 8
left_child=1 9 3 7 19 15 10 20 -3 -1 14 -9 13 -7 -4 16 17 -6 -19 22 21 -2 -5 -11 -13 -18 -20 -15 -22 -10
right_child=2 8 6 4 5 12 -8 11 29 23 -12 24 -14 27 -16 -17 25 18 26 -21 28 -23 -24 -25 -26 -27 -28 -29 -30 -31
leaf_value=-0.055549262805195745 -0.028495931666393845 0.053773820541018036 0.040900196730185918 -0.060009522333928304 0.014863151481577783 -0.057216341003098782 0.054256221756629364 -0.059644527475808257 0.0034057426590613977 -0.043834815768204957 0.013536423280596533 0.0004630725933265265 -0.040827345971554241 -0.0076628732201987834 -0.021496696877601276 -0.0056834074749823717 0.0080393376874668757 -0.050451631444283711 0.00095518969728864529 -0.059832131404614644 -0.020547789085331412 -0.0022984834720482972 0.00075207406941475187 -0.031698709497167299 -0.0099429380807435422 0.017729908536902473 -0.072023654566824899 -0.031762765050492546 -0.037117145323378287 -0.069768724350451894
leaf_weight=602.41038964688778 146.26963646709919 92.967256739735603 260.71857222169638 15.742692165076731 375.26661751419306 24.69535519182682 327.3197453469038 21.840204648673534 40.890853181481361 472.44402021169662 347.53032557666302 516.77620450407267 88.47173685580492 489.02530632168055 12.311710536479948 83.209634706377983 295.35198282450438 34.588974311947823 49.932308740913868 117.94711920619011 139.08775406330824 150.31061731278896 21.837605193257332 326.09192473441362 447.58294228464365 3212.257610887289 4.8705521523952475 41.815990708768368 191.95066998898983 4.5447309017181388
leaf_count=4561 826 825 1578 86 1925 126 2849 130 198 3270 1931 2564 584 2395 64 438 1520 171 251 687 790 767 105 1991 2305 17032 24 237 1202 24
internal_value=0 -0.7755 0.154113 0.0750934 0.182484 0.222507 0.693384 -0.247981 0.696718 -0.920944 0.486757 -0.111816 -0.313678 -0.233594 0.761731 0.307653 0.316479 0.151917 -0.458246 -1.02687 -0.461942 -0.304375 -0.494029 -0.777578 -0.0873323 0.338279 -0.110615 -0.191226 -0.603109 -0.0782718
internal_weight=0 1539.35 7416.71 6468.83 4855.01 4699.49 947.88 1613.82 138.403 1400.95 620.561 986.199 644.008 555.537 273.03 4055.48 3972.27 464.658 89.3918 155.527 627.619 296.58 37.5803 798.536 964.359 3507.61 54.8029 530.841 331.038 45.4356
